<?xml version="1.0"?>
<opencv_storage>
<cascade>
  <stageType>BOOST</stageType>
  <featureType>HAAR</featureType>
  <height>50</height>
  <width>50</width>
  <stageParams>
    <boostType>GAB</boostType>
    <minHitRate>9.9500000476837158e-01</minHitRate>
    <maxFalseAlarm>5.0000000000000000e-01</maxFalseAlarm>
    <weightTrimRate>9.4999999999999996e-01</weightTrimRate>
    <maxDepth>1</maxDepth>
    <maxWeakCount>100</maxWeakCount></stageParams>
  <featureParams>
    <maxCatCount>0</maxCatCount>
    <featSize>1</featSize>
    <mode>BASIC</mode></featureParams>
  <stageNum>6</stageNum>
  <stages>
    <!-- stage 0 -->
    <_>
      <maxWeakCount>2</maxWeakCount>
      <stageThreshold>-3.1831863522529602e-01</stageThreshold>
      <weakClassifiers>
        <_>
          <internalNodes>
            0 -1 3 8.6336590349674225e-02</internalNodes>
          <leafValues>
            -9.2156863212585449e-01 8.9473682641983032e-01</leafValues></_>
        <_>
          <internalNodes>
            0 -1 7 -4.1950633749365807e-03</internalNodes>
          <leafValues>
            -9.8286581039428711e-01 6.0324996709823608e-01</leafValues></_></weakClassifiers></_>
    <!-- stage 1 -->
    <_>
      <maxWeakCount>2</maxWeakCount>
      <stageThreshold>-4.6622410416603088e-01</stageThreshold>
      <weakClassifiers>
        <_>
          <internalNodes>
            0 -1 11 3.1980678439140320e-02</internalNodes>
          <leafValues>
            -9.8185938596725464e-01 5.1351350545883179e-01</leafValues></_>
        <_>
          <internalNodes>
            0 -1 13 -2.1888422779738903e-03</internalNodes>
          <leafValues>
            5.6282198429107666e-01 -9.7973763942718506e-01</leafValues></_></weakClassifiers></_>
    <!-- stage 2 -->
    <_>
      <maxWeakCount>2</maxWeakCount>
      <stageThreshold>-3.5819810628890991e-01</stageThreshold>
      <weakClassifiers>
        <_>
          <internalNodes>
            0 -1 2 -7.2463497519493103e-02</internalNodes>
          <leafValues>
            8.4615385532379150e-01 -8.3427494764328003e-01</leafValues></_>
        <_>
          <internalNodes>
            0 -1 4 4.8207980580627918e-04</internalNodes>
          <leafValues>
            -9.4115597009658813e-01 4.7607687115669250e-01</leafValues></_></weakClassifiers></_>
    <!-- stage 3 -->
    <_>
      <maxWeakCount>3</maxWeakCount>
      <stageThreshold>-1.0676047801971436e+00</stageThreshold>
      <weakClassifiers>
        <_>
          <internalNodes>
            0 -1 0 -3.8646865636110306e-02</internalNodes>
          <leafValues>
            7.4603176116943359e-01 -8.6301368474960327e-01</leafValues></_>
        <_>
          <internalNodes>
            0 -1 6 -1.4433711767196655e-02</internalNodes>
          <leafValues>
            7.9546374082565308e-01 -8.1397134065628052e-01</leafValues></_>
        <_>
          <internalNodes>
            0 -1 8 3.0369084561243653e-04</internalNodes>
          <leafValues>
            -9.4406253099441528e-01 6.0938024520874023e-01</leafValues></_></weakClassifiers></_>
    <!-- stage 4 -->
    <_>
      <maxWeakCount>3</maxWeakCount>
      <stageThreshold>-1.0100967884063721e+00</stageThreshold>
      <weakClassifiers>
        <_>
          <internalNodes>
            0 -1 9 -2.8434037230908871e-03</internalNodes>
          <leafValues>
            -9.1044777631759644e-01 5.4978352785110474e-01</leafValues></_>
        <_>
          <internalNodes>
            0 -1 1 6.5775126218795776e-02</internalNodes>
          <leafValues>
            -7.6964354515075684e-01 8.3611840009689331e-01</leafValues></_>
        <_>
          <internalNodes>
            0 -1 5 6.7282322561368346e-05</internalNodes>
          <leafValues>
            6.6999453306198120e-01 -9.9585670232772827e-01</leafValues></_></weakClassifiers></_>
    <!-- stage 5 -->
    <_>
      <maxWeakCount>2</maxWeakCount>
      <stageThreshold>7.9681277275085449e-03</stageThreshold>
      <weakClassifiers>
        <_>
          <internalNodes>
            0 -1 10 -1.4823865058133379e-05</internalNodes>
          <leafValues>
            1. -9.9203187227249146e-01</leafValues></_>
        <_>
          <internalNodes>
            0 -1 12 1.8740676750894636e-04</internalNodes>
          <leafValues>
            1. -9.8816567659378052e-01</leafValues></_></weakClassifiers></_></stages>
  <features>
    <_>
      <rects>
        <_>
          0 19 11 24 -1.</_>
        <_>
          0 31 11 12 2.</_></rects>
      <tilted>0</tilted></_>
    <_>
      <rects>
        <_>
          0 21 28 24 -1.</_>
        <_>
          0 21 14 12 2.</_>
        <_>
          14 33 14 12 2.</_></rects>
      <tilted>0</tilted></_>
    <_>
      <rects>
        <_>
          0 22 30 10 -1.</_>
        <_>
          15 22 15 10 2.</_></rects>
      <tilted>0</tilted></_>
    <_>
      <rects>
        <_>
          0 26 48 18 -1.</_>
        <_>
          0 26 24 9 2.</_>
        <_>
          24 35 24 9 2.</_></rects>
      <tilted>0</tilted></_>
    <_>
      <rects>
        <_>
          0 44 5 6 -1.</_>
        <_>
          0 47 5 3 2.</_></rects>
      <tilted>0</tilted></_>
    <_>
      <rects>
        <_>
          6 46 16 4 -1.</_>
        <_>
          14 46 8 4 2.</_></rects>
      <tilted>0</tilted></_>
    <_>
      <rects>
        <_>
          16 0 12 24 -1.</_>
        <_>
          16 12 12 12 2.</_></rects>
      <tilted>0</tilted></_>
    <_>
      <rects>
        <_>
          19 0 5 3 -1.</_>
        <_>
          19 1 5 1 2.</_></rects>
      <tilted>0</tilted></_>
    <_>
      <rects>
        <_>
          27 10 14 2 -1.</_>
        <_>
          34 10 7 2 2.</_></rects>
      <tilted>0</tilted></_>
    <_>
      <rects>
        <_>
          28 29 4 3 -1.</_>
        <_>
          28 30 4 1 2.</_></rects>
      <tilted>0</tilted></_>
    <_>
      <rects>
        <_>
          30 9 3 8 -1.</_>
        <_>
          30 13 3 4 2.</_></rects>
      <tilted>0</tilted></_>
    <_>
      <rects>
        <_>
          33 31 17 16 -1.</_>
        <_>
          33 39 17 8 2.</_></rects>
      <tilted>0</tilted></_>
    <_>
      <rects>
        <_>
          42 31 2 16 -1.</_>
        <_>
          42 31 1 8 2.</_>
        <_>
          43 39 1 8 2.</_></rects>
      <tilted>0</tilted></_>
    <_>
      <rects>
        <_>
          49 8 1 26 -1.</_>
        <_>
          49 21 1 13 2.</_></rects>
      <tilted>0</tilted></_></features></cascade>
</opencv_storage>
