<?xml version="1.0"?>
<opencv_storage>
<cascade>
  <stageType>BOOST</stageType>
  <featureType>HAAR</featureType>
  <height>50</height>
  <width>50</width>
  <stageParams>
    <boostType>GAB</boostType>
    <minHitRate>9.9500000476837158e-01</minHitRate>
    <maxFalseAlarm>5.0000000000000000e-01</maxFalseAlarm>
    <weightTrimRate>9.4999999999999996e-01</weightTrimRate>
    <maxDepth>1</maxDepth>
    <maxWeakCount>100</maxWeakCount></stageParams>
  <featureParams>
    <maxCatCount>0</maxCatCount>
    <featSize>1</featSize>
    <mode>BASIC</mode></featureParams>
  <stageNum>7</stageNum>
  <stages>
    <!-- stage 0 -->
    <_>
      <maxWeakCount>3</maxWeakCount>
      <stageThreshold>-1.0612702369689941e+00</stageThreshold>
      <weakClassifiers>
        <_>
          <internalNodes>
            0 -1 9 -1.3046264648437500e-02</internalNodes>
          <leafValues>
            -9.0143734216690063e-01 6.5258216857910156e-01</leafValues></_>
        <_>
          <internalNodes>
            0 -1 19 -7.4406519532203674e-02</internalNodes>
          <leafValues>
            -8.3635222911834717e-01 5.8428364992141724e-01</leafValues></_>
        <_>
          <internalNodes>
            0 -1 35 -3.9744400419294834e-03</internalNodes>
          <leafValues>
            -5.9861719608306885e-01 6.7651945352554321e-01</leafValues></_></weakClassifiers></_>
    <!-- stage 1 -->
    <_>
      <maxWeakCount>7</maxWeakCount>
      <stageThreshold>-1.2738788127899170e+00</stageThreshold>
      <weakClassifiers>
        <_>
          <internalNodes>
            0 -1 3 3.6313859745860100e-03</internalNodes>
          <leafValues>
            -6.5602838993072510e-01 5.1470589637756348e-01</leafValues></_>
        <_>
          <internalNodes>
            0 -1 26 -4.1286479681730270e-03</internalNodes>
          <leafValues>
            6.0114639997482300e-01 -4.0928906202316284e-01</leafValues></_>
        <_>
          <internalNodes>
            0 -1 6 -6.9000036455690861e-03</internalNodes>
          <leafValues>
            -5.5548965930938721e-01 3.5886609554290771e-01</leafValues></_>
        <_>
          <internalNodes>
            0 -1 30 1.0237160138785839e-02</internalNodes>
          <leafValues>
            -3.8558077812194824e-01 5.9749758243560791e-01</leafValues></_>
        <_>
          <internalNodes>
            0 -1 28 -3.6123849451541901e-02</internalNodes>
          <leafValues>
            3.2580882310867310e-01 -5.9936636686325073e-01</leafValues></_>
        <_>
          <internalNodes>
            0 -1 7 4.2023792047984898e-04</internalNodes>
          <leafValues>
            3.1965050101280212e-01 -6.2496614456176758e-01</leafValues></_>
        <_>
          <internalNodes>
            0 -1 0 -3.8398085162043571e-03</internalNodes>
          <leafValues>
            -8.9602869749069214e-01 2.2057943046092987e-01</leafValues></_></weakClassifiers></_>
    <!-- stage 2 -->
    <_>
      <maxWeakCount>6</maxWeakCount>
      <stageThreshold>-1.6314331293106079e+00</stageThreshold>
      <weakClassifiers>
        <_>
          <internalNodes>
            0 -1 10 -3.7539617624133825e-03</internalNodes>
          <leafValues>
            3.4177213907241821e-01 -6.5313655138015747e-01</leafValues></_>
        <_>
          <internalNodes>
            0 -1 4 9.3876282335259020e-05</internalNodes>
          <leafValues>
            -6.7042779922485352e-01 3.1909099221229553e-01</leafValues></_>
        <_>
          <internalNodes>
            0 -1 12 3.1846826896071434e-03</internalNodes>
          <leafValues>
            -8.6194723844528198e-01 1.9266772270202637e-01</leafValues></_>
        <_>
          <internalNodes>
            0 -1 13 -1.8300605006515980e-03</internalNodes>
          <leafValues>
            -6.3473469018936157e-01 3.0288434028625488e-01</leafValues></_>
        <_>
          <internalNodes>
            0 -1 15 -9.7652241587638855e-02</internalNodes>
          <leafValues>
            7.8417938947677612e-01 -2.7954930067062378e-01</leafValues></_>
        <_>
          <internalNodes>
            0 -1 1 1.5934477560222149e-03</internalNodes>
          <leafValues>
            2.9737389087677002e-01 -6.4998126029968262e-01</leafValues></_></weakClassifiers></_>
    <!-- stage 3 -->
    <_>
      <maxWeakCount>8</maxWeakCount>
      <stageThreshold>-8.4332364797592163e-01</stageThreshold>
      <weakClassifiers>
        <_>
          <internalNodes>
            0 -1 23 1.8597184680402279e-03</internalNodes>
          <leafValues>
            -6.2456142902374268e-01 4.3076923489570618e-01</leafValues></_>
        <_>
          <internalNodes>
            0 -1 5 3.3007949241437018e-05</internalNodes>
          <leafValues>
            -6.0735243558883667e-01 3.1209984421730042e-01</leafValues></_>
        <_>
          <internalNodes>
            0 -1 11 5.2934633567929268e-03</internalNodes>
          <leafValues>
            -3.1055170297622681e-01 5.5659049749374390e-01</leafValues></_>
        <_>
          <internalNodes>
            0 -1 20 -2.1046405890956521e-04</internalNodes>
          <leafValues>
            6.3877040147781372e-01 -2.8849002718925476e-01</leafValues></_>
        <_>
          <internalNodes>
            0 -1 18 -2.2028760612010956e-01</internalNodes>
          <leafValues>
            3.4366852045059204e-01 -5.9700244665145874e-01</leafValues></_>
        <_>
          <internalNodes>
            0 -1 8 -5.8745341375470161e-03</internalNodes>
          <leafValues>
            -5.0754153728485107e-01 4.7434708476066589e-01</leafValues></_>
        <_>
          <internalNodes>
            0 -1 33 -5.3209497127681971e-04</internalNodes>
          <leafValues>
            5.7171815633773804e-01 -3.3203491568565369e-01</leafValues></_>
        <_>
          <internalNodes>
            0 -1 31 -5.7982695579994470e-05</internalNodes>
          <leafValues>
            6.1685597896575928e-01 -2.6613673567771912e-01</leafValues></_></weakClassifiers></_>
    <!-- stage 4 -->
    <_>
      <maxWeakCount>7</maxWeakCount>
      <stageThreshold>-1.1256996393203735e+00</stageThreshold>
      <weakClassifiers>
        <_>
          <internalNodes>
            0 -1 21 3.0087572522461414e-03</internalNodes>
          <leafValues>
            -6.2866449356079102e-01 1.</leafValues></_>
        <_>
          <internalNodes>
            0 -1 2 -4.1757579892873764e-03</internalNodes>
          <leafValues>
            -8.5357016324996948e-01 2.5840374827384949e-01</leafValues></_>
        <_>
          <internalNodes>
            0 -1 37 7.2276033461093903e-04</internalNodes>
          <leafValues>
            -3.3971604704856873e-01 8.0802571773529053e-01</leafValues></_>
        <_>
          <internalNodes>
            0 -1 16 3.8133154157549143e-04</internalNodes>
          <leafValues>
            3.5347104072570801e-01 -8.1257516145706177e-01</leafValues></_>
        <_>
          <internalNodes>
            0 -1 36 -1.2969697127118707e-04</internalNodes>
          <leafValues>
            -9.1190510988235474e-01 2.7872216701507568e-01</leafValues></_>
        <_>
          <internalNodes>
            0 -1 25 -8.0342980800196528e-04</internalNodes>
          <leafValues>
            7.5825154781341553e-01 -4.3355739116668701e-01</leafValues></_>
        <_>
          <internalNodes>
            0 -1 14 -1.2989684364583809e-05</internalNodes>
          <leafValues>
            7.3108011484146118e-01 -5.7147324085235596e-01</leafValues></_></weakClassifiers></_>
    <!-- stage 5 -->
    <_>
      <maxWeakCount>4</maxWeakCount>
      <stageThreshold>-1.2336674928665161e+00</stageThreshold>
      <weakClassifiers>
        <_>
          <internalNodes>
            0 -1 24 6.7526346538215876e-04</internalNodes>
          <leafValues>
            -7.1821308135986328e-01 1.</leafValues></_>
        <_>
          <internalNodes>
            0 -1 32 -1.2794481881428510e-04</internalNodes>
          <leafValues>
            1. -5.0507140159606934e-01</leafValues></_>
        <_>
          <internalNodes>
            0 -1 22 -1.3383258192334324e-04</internalNodes>
          <leafValues>
            -6.0477012395858765e-01 7.2882193326950073e-01</leafValues></_>
        <_>
          <internalNodes>
            0 -1 17 2.5115383788943291e-02</internalNodes>
          <leafValues>
            5.9438711404800415e-01 -8.2652848958969116e-01</leafValues></_></weakClassifiers></_>
    <!-- stage 6 -->
    <_>
      <maxWeakCount>3</maxWeakCount>
      <stageThreshold>-7.2064834833145142e-01</stageThreshold>
      <weakClassifiers>
        <_>
          <internalNodes>
            0 -1 27 1.1726159136742353e-03</internalNodes>
          <leafValues>
            1. -8.8323915004730225e-01</leafValues></_>
        <_>
          <internalNodes>
            0 -1 29 -5.0589849706739187e-05</internalNodes>
          <leafValues>
            -8.3740919828414917e-01 1.</leafValues></_>
        <_>
          <internalNodes>
            0 -1 34 2.3172399960458279e-04</internalNodes>
          <leafValues>
            1. -8.1101828813552856e-01</leafValues></_></weakClassifiers></_></stages>
  <features>
    <_>
      <rects>
        <_>
          0 4 8 22 -1.</_>
        <_>
          4 4 4 22 2.</_></rects>
      <tilted>0</tilted></_>
    <_>
      <rects>
        <_>
          0 5 6 24 -1.</_>
        <_>
          3 5 3 24 2.</_></rects>
      <tilted>0</tilted></_>
    <_>
      <rects>
        <_>
          0 6 12 11 -1.</_>
        <_>
          6 6 6 11 2.</_></rects>
      <tilted>0</tilted></_>
    <_>
      <rects>
        <_>
          0 30 1 20 -1.</_>
        <_>
          0 40 1 10 2.</_></rects>
      <tilted>0</tilted></_>
    <_>
      <rects>
        <_>
          0 37 1 10 -1.</_>
        <_>
          0 42 1 5 2.</_></rects>
      <tilted>0</tilted></_>
    <_>
      <rects>
        <_>
          0 41 1 6 -1.</_>
        <_>
          0 44 1 3 2.</_></rects>
      <tilted>0</tilted></_>
    <_>
      <rects>
        <_>
          1 21 9 6 -1.</_>
        <_>
          4 21 3 6 2.</_></rects>
      <tilted>0</tilted></_>
    <_>
      <rects>
        <_>
          2 4 8 14 -1.</_>
        <_>
          6 4 4 14 2.</_></rects>
      <tilted>0</tilted></_>
    <_>
      <rects>
        <_>
          3 9 13 3 -1.</_>
        <_>
          3 10 13 1 2.</_></rects>
      <tilted>0</tilted></_>
    <_>
      <rects>
        <_>
          3 13 9 9 -1.</_>
        <_>
          6 13 3 9 2.</_></rects>
      <tilted>0</tilted></_>
    <_>
      <rects>
        <_>
          3 38 8 12 -1.</_>
        <_>
          3 38 4 6 2.</_>
        <_>
          7 44 4 6 2.</_></rects>
      <tilted>0</tilted></_>
    <_>
      <rects>
        <_>
          4 0 45 8 -1.</_>
        <_>
          4 4 45 4 2.</_></rects>
      <tilted>0</tilted></_>
    <_>
      <rects>
        <_>
          4 11 32 36 -1.</_>
        <_>
          4 29 32 18 2.</_></rects>
      <tilted>0</tilted></_>
    <_>
      <rects>
        <_>
          4 19 1 12 -1.</_>
        <_>
          4 23 1 4 2.</_></rects>
      <tilted>0</tilted></_>
    <_>
      <rects>
        <_>
          6 19 6 8 -1.</_>
        <_>
          6 23 6 4 2.</_></rects>
      <tilted>0</tilted></_>
    <_>
      <rects>
        <_>
          6 21 34 17 -1.</_>
        <_>
          23 21 17 17 2.</_></rects>
      <tilted>0</tilted></_>
    <_>
      <rects>
        <_>
          7 0 2 16 -1.</_>
        <_>
          8 0 1 16 2.</_></rects>
      <tilted>0</tilted></_>
    <_>
      <rects>
        <_>
          7 24 3 26 -1.</_>
        <_>
          7 37 3 13 2.</_></rects>
      <tilted>0</tilted></_>
    <_>
      <rects>
        <_>
          8 0 19 48 -1.</_>
        <_>
          8 16 19 16 2.</_></rects>
      <tilted>0</tilted></_>
    <_>
      <rects>
        <_>
          10 12 38 9 -1.</_>
        <_>
          10 15 38 3 2.</_></rects>
      <tilted>0</tilted></_>
    <_>
      <rects>
        <_>
          10 45 4 2 -1.</_>
        <_>
          12 45 2 2 2.</_></rects>
      <tilted>0</tilted></_>
    <_>
      <rects>
        <_>
          14 33 6 12 -1.</_>
        <_>
          14 33 3 6 2.</_>
        <_>
          17 39 3 6 2.</_></rects>
      <tilted>0</tilted></_>
    <_>
      <rects>
        <_>
          14 42 2 6 -1.</_>
        <_>
          14 42 1 3 2.</_>
        <_>
          15 45 1 3 2.</_></rects>
      <tilted>0</tilted></_>
    <_>
      <rects>
        <_>
          15 41 6 4 -1.</_>
        <_>
          18 41 3 4 2.</_></rects>
      <tilted>0</tilted></_>
    <_>
      <rects>
        <_>
          16 42 6 8 -1.</_>
        <_>
          19 42 3 8 2.</_></rects>
      <tilted>0</tilted></_>
    <_>
      <rects>
        <_>
          17 42 10 3 -1.</_>
        <_>
          22 42 5 3 2.</_></rects>
      <tilted>0</tilted></_>
    <_>
      <rects>
        <_>
          19 40 10 5 -1.</_>
        <_>
          24 40 5 5 2.</_></rects>
      <tilted>0</tilted></_>
    <_>
      <rects>
        <_>
          22 3 16 4 -1.</_>
        <_>
          22 3 8 2 2.</_>
        <_>
          30 5 8 2 2.</_></rects>
      <tilted>0</tilted></_>
    <_>
      <rects>
        <_>
          22 35 11 15 -1.</_>
        <_>
          22 40 11 5 2.</_></rects>
      <tilted>0</tilted></_>
    <_>
      <rects>
        <_>
          26 40 2 1 -1.</_>
        <_>
          27 40 1 1 2.</_></rects>
      <tilted>0</tilted></_>
    <_>
      <rects>
        <_>
          29 34 16 10 -1.</_>
        <_>
          29 39 16 5 2.</_></rects>
      <tilted>0</tilted></_>
    <_>
      <rects>
        <_>
          31 2 3 2 -1.</_>
        <_>
          31 3 3 1 2.</_></rects>
      <tilted>0</tilted></_>
    <_>
      <rects>
        <_>
          31 25 2 13 -1.</_>
        <_>
          32 25 1 13 2.</_></rects>
      <tilted>0</tilted></_>
    <_>
      <rects>
        <_>
          35 46 6 2 -1.</_>
        <_>
          38 46 3 2 2.</_></rects>
      <tilted>0</tilted></_>
    <_>
      <rects>
        <_>
          38 40 12 3 -1.</_>
        <_>
          44 40 6 3 2.</_></rects>
      <tilted>0</tilted></_>
    <_>
      <rects>
        <_>
          44 22 3 11 -1.</_>
        <_>
          45 22 1 11 2.</_></rects>
      <tilted>0</tilted></_>
    <_>
      <rects>
        <_>
          47 45 2 4 -1.</_>
        <_>
          47 45 1 2 2.</_>
        <_>
          48 47 1 2 2.</_></rects>
      <tilted>0</tilted></_>
    <_>
      <rects>
        <_>
          48 38 1 8 -1.</_>
        <_>
          48 42 1 4 2.</_></rects>
      <tilted>0</tilted></_></features></cascade>
</opencv_storage>
