<?xml version="1.0"?>
<opencv_storage>
<stage4>
  <maxWeakCount>7</maxWeakCount>
  <stageThreshold>-1.1256996393203735e+00</stageThreshold>
  <weakClassifiers>
    <_>
      <internalNodes>
        0 -1 1530175 3.0087572522461414e-03</internalNodes>
      <leafValues>
        -6.2866449356079102e-01 1.</leafValues></_>
    <_>
      <internalNodes>
        0 -1 27690 -4.1757579892873764e-03</internalNodes>
      <leafValues>
        -8.5357016324996948e-01 2.5840374827384949e-01</leafValues></_>
    <_>
      <internalNodes>
        0 -1 3023525 7.2276033461093903e-04</internalNodes>
      <leafValues>
        -3.3971604704856873e-01 8.0802571773529053e-01</leafValues></_>
    <_>
      <internalNodes>
        0 -1 786057 3.8133154157549143e-04</internalNodes>
      <leafValues>
        3.5347104072570801e-01 -8.1257516145706177e-01</leafValues></_>
    <_>
      <internalNodes>
        0 -1 3019721 -1.2969697127118707e-04</internalNodes>
      <leafValues>
        -9.1190510988235474e-01 2.7872216701507568e-01</leafValues></_>
    <_>
      <internalNodes>
        0 -1 1780637 -8.0342980800196528e-04</internalNodes>
      <leafValues>
        7.5825154781341553e-01 -4.3355739116668701e-01</leafValues></_>
    <_>
      <internalNodes>
        0 -1 745992 -1.2989684364583809e-05</internalNodes>
      <leafValues>
        7.3108011484146118e-01 -5.7147324085235596e-01</leafValues></_></weakClassifiers></stage4>
</opencv_storage>
