svm_type c_svc
kernel_type rbf
gamma 0.5
nr_class 2
total_sv 1333
rho -2.12543
label 0 1
nr_sv 995 338
SV
10.73658314729825 1:3.9 2:0.2 3:0.3 4:0.2 5:0.9 6:0.2 7:0.2 8:0 9:0.5 10:0.7 11:0.2 12:0 13:0 14:0.3 15:0.6 16:0 17:0.4 18:0.5 19:0 20:0 21:0 22:0.4 23:0.1 24:0.5 25:0 26:0.1 27:0.4 28:0.5 29:0 30:0.6 31:0.3 32:0.8 33:0 34:0.1 35:0.9 36:0 37:0.4 38:0.3 39:0.3 40:0 41:0 42:0.3 43:0.5 44:0 45:0 46:0 47:0.6 48:0 49:0 50:0 51:0 52:0 53:0 54:0 55:0 56:0 57:0 58:0 59:0 60:0 61:0 62:0 63:0 64:0 65:0 66:0 67:0 68:0.1 69:0 70:0 71:0 72:0 73:0 74:0 75:0 76:0 77:0 78:0 79:0 80:0 81:0 82:0 83:0 84:0 85:0 
8.40693103950656 1:1.1 2:0.2 3:0.3 4:0.3 5:0.3 6:0.3 7:0.5 8:0 9:0.2 10:0.7 11:0 12:0.2 13:0.2 14:0.2 15:0.6 16:0 17:0.4 18:0.5 19:0.2 20:0 21:0 22:0.3 23:0.3 24:0.3 25:0.1 26:0.2 27:0.1 28:0.4 29:0.2 30:0 31:0.9 32:0.6 33:0.1 34:0.2 35:0.6 36:0.3 37:0.2 38:0.3 39:0.3 40:0.1 41:0 42:0.4 43:0.7 44:0.2 45:0 46:0 47:0 48:0 49:0 50:0 51:0 52:0 53:0 54:0 55:0 56:0 57:0 58:0 59:0.3 60:0 61:0 62:0 63:0 64:0 65:0.1 66:0 67:0 68:0 69:0 70:0 71:0 72:0 73:0 74:0 75:0 76:0 77:0 78:0 79:0 80:0.1 81:0 82:0 83:0 84:0 85:0 
6.868127587843491 1:1 2:0.1 3:0.4 4:0.3 5:0.3 6:0.1 7:0.4 8:0.1 9:0.4 10:0.7 11:0.1 12:0.2 13:0 14:0.3 15:0.6 16:0.4 17:0.3 18:0.3 19:0 20:0 21:0 22:0.9 23:0 24:0 25:0.3 26:0 27:0.6 28:0 29:0 30:0 31:0.9 32:0.6 33:0.2 34:0.1 35:0.5 36:0.4 37:0 38:0.3 39:0.2 40:0.2 41:0.2 42:0.8 43:0.7 44:0 45:0 46:0 47:0.6 48:0 49:0 50:0 51:0 52:0 53:0 54:0 55:0 56:0 57:0 58:0 59:0 60:0 61:0 62:0 63:0 64:0 65:0 66:0 67:0 68:0.1 69:0 70:0 71:0 72:0 73:0 74:0 75:0 76:0 77:0 78:0 79:0 80:0 81:0 82:0 83:0 84:0 85:0 
500 1:3.3 2:0.1 3:0.2 4:0.3 5:0.8 6:0.1 7:0.4 8:0.1 9:0.4 10:0.6 11:0.2 12:0.3 13:0.3 14:0.4 15:0.3 16:0.1 17:0.4 18:0.5 19:0.1 20:0.1 21:0 22:0.3 23:0.2 24:0.4 25:0.1 26:0.2 27:0.2 28:0.5 29:0.1 30:0.5 31:0.4 32:0.6 33:0.1 34:0.3 35:0.7 36:0.2 37:0.3 38:0.4 39:0.3 40:0.1 41:0 42:0.3 43:0.3 44:0 45:0 46:0 47:0.6 48:0 49:0 50:0 51:0 52:0 53:0 54:0 55:0 56:0 57:0 58:0 59:0 60:0 61:0 62:0 63:0 64:0 65:0 66:0 67:0 68:0.1 69:0 70:0 71:0 72:0 73:0 74:0 75:0 76:0 77:0 78:0 79:0 80:0 81:0 82:0 83:0 84:0 85:0 
424.8420640454777 1:2.2 2:0.2 3:0.3 4:0.3 5:0.5 6:0 7:0.5 8:0 9:0.4 10:0.7 11:0 12:0.2 13:0 14:0.2 15:0.7 16:0.2 17:0.1 18:0.7 19:0 20:0.2 21:0 22:0.1 23:0.1 24:0.5 25:0.2 26:0 27:0 28:0.7 29:0 30:0.4 31:0.5 32:0.6 33:0.1 34:0.2 35:0.7 36:0.2 37:0 38:0.6 39:0.3 40:0 41:0 42:0.4 43:0.2 44:0.2 45:0 46:0 47:0.6 48:0 49:0 50:0 51:0 52:0 53:0 54:0 55:0 56:0 57:0 58:0 59:0.3 60:0 61:0 62:0 63:0 64:0 65:0.1 66:0 67:0 68:0.1 69:0 70:0 71:0 72:0 73:0 74:0 75:0 76:0 77:0 78:0 79:0 80:0.1 81:0 82:0 83:0 84:0 85:0 
2.066978648725212 1:1.3 2:0.1 3:0.3 4:0.2 5:0.3 6:0.1 7:0.7 8:0 9:0.2 10:0.7 11:0 12:0.2 13:0.1 14:0.3 15:0.6 16:0.3 17:0.5 18:0.1 19:0.6 20:0 21:0 22:0.2 23:0 24:0.1 25:0.6 26:0.1 27:0.3 28:0.1 29:0 30:0.4 31:0.5 32:0.7 33:0.2 34:0.1 35:0.5 36:0.4 37:0.1 38:0.1 39:0.8 40:0 41:0 42:0.5 43:0.6 44:0.2 45:0 46:0 47:0.6 48:0 49:0.4 50:0 51:0 52:0 53:0 54:0 55:0 56:0 57:0 58:0 59:0.4 60:0 61:0 62:0 63:0 64:0 65:0.1 66:0 67:0 68:0.1 69:0 70:0.1 71:0 72:0 73:0 74:0 75:0 76:0 77:0 78:0 79:0 80:0.1 81:0 82:0 83:0 84:0 85:0 
0.0005575564647744794 1:0.8 2:0.1 3:0.3 4:0.2 5:0.2 6:0.2 7:0.4 8:0.1 9:0.4 10:0.6 11:0.1 12:0.3 13:0.1 14:0.4 15:0.5 16:0.2 17:0.5 18:0.2 19:0.2 20:0.2 21:0 22:0.3 23:0.1 24:0.3 25:0.3 26:0.2 27:0.2 28:0.3 29:0.1 30:0.6 31:0.3 32:0.7 33:0.1 34:0.2 35:0.6 36:0.3 37:0.3 38:0.4 39:0.3 40:0 41:0 42:0.3 43:0.7 44:0.2 45:0 46:0 47:0.6 48:0 49:0 50:0 51:0 52:0 53:0 54:0 55:0.4 56:0 57:0.2 58:0 59:0.3 60:0 61:0 62:0 63:0 64:0.4 65:0.1 66:0 67:0 68:0.1 69:0 70:0 71:0 72:0 73:0 74:0 75:0 76:0.1 77:0 78:0.1 79:0 80:0.1 81:0 82:0 83:0 84:0 85:0.1 
1.997710054694835 1:3 2:0.1 3:0.2 4:0.4 5:0.7 6:0 7:0.5 8:0.3 9:0.2 10:0.4 11:0.1 12:0.4 13:0.5 14:0.4 15:0.1 16:0.2 17:0.4 18:0.3 19:0.1 20:0.1 21:0 22:0.5 23:0.2 24:0.1 25:0.1 26:0.2 27:0.3 28:0.4 29:0.1 30:0.9 31:0 32:0.5 33:0 34:0.4 35:0.5 36:0.4 37:0.5 38:0.3 39:0.2 40:0 41:0 42:0.3 43:0.2 44:0 45:0 46:0 47:0.6 48:0 49:0 50:0 51:0 52:0 53:0 54:0 55:0 56:0 57:0 58:0 59:0 60:0 61:0 62:0 63:0 64:0 65:0 66:0 67:0 68:0.1 69:0 70:0 71:0 72:0 73:0 74:0 75:0 76:0 77:0 78:0 79:0 80:0 81:0 82:0 83:0 84:0 85:0 
414.7271112449172 1:3.3 2:0.1 3:0.4 4:0.2 5:0.8 6:0 7:0.8 8:0.1 9:0 10:0.9 11:0 12:0 13:0 14:0.2 15:0.7 16:0.2 17:0.3 18:0.4 19:0.3 20:0.1 21:0 22:0.4 23:0.1 24:0.1 25:0.3 26:0.2 27:0.2 28:0.4 29:0 30:0 31:0.9 32:0.7 33:0.2 34:0 35:0.6 36:0.3 37:0 38:0.6 39:0.3 40:0 41:0 42:0.4 43:0.3 44:0.2 45:0 46:0 47:0.6 48:0 49:0 50:0 51:0 52:0 53:0 54:0 55:0 56:0 57:0 58:0 59:0.4 60:0 61:0 62:0 63:0 64:0 65:0.1 66:0 67:0 68:0.1 69:0 70:0 71:0 72:0 73:0 74:0 75:0 76:0 77:0 78:0 79:0 80:0.1 81:0 82:0 83:0 84:0 85:0 
116.2146569838138 1:3.6 2:0.1 3:0.3 4:0.3 5:0.8 6:0 7:0.6 8:0.1 9:0.2 10:0.7 11:0.1 12:0.2 13:0.1 14:0.4 15:0.4 16:0.1 17:0.2 18:0.6 19:0.1 20:0 21:0.1 22:0.3 23:0.2 24:0.4 25:0.1 26:0.1 27:0.2 28:0.6 29:0.1 30:0.5 31:0.4 32:0.5 33:0.2 34:0.3 35:0.6 36:0.3 37:0.2 38:0.5 39:0.2 40:0.1 41:0 42:0.3 43:0.3 44:0 45:0 46:0 47:0 48:0 49:0 50:0 51:0 52:0 53:0 54:0 55:0 56:0 57:0 58:0 59:0 60:0 61:0 62:0 63:0 64:0 65:0 66:0 67:0 68:0 69:0 70:0 71:0 72:0 73:0 74:0 75:0 76:0 77:0 78:0 79:0 80:0 81:0 82:0 83:0 84:0 85:0 
151.920220821377 1:1.3 2:0.1 3:0.3 4:0.3 5:0.3 6:0 7:0.6 8:0 9:0.3 10:0.6 11:0 12:0.3 13:0.2 14:0.4 15:0.4 16:0.4 17:0.3 18:0.2 19:0.7 20:0 21:0 22:0 23:0.2 24:0 25:0.7 26:0 27:0 28:0.2 29:0 30:0 31:0.9 32:0.9 33:0 34:0 35:0.4 36:0.5 37:0 38:0.5 39:0.4 40:0 41:0 42:0.4 43:0.6 44:0.2 45:0 46:0 47:0.6 48:0 49:0 50:0 51:0 52:0 53:0 54:0 55:0 56:0 57:0 58:0 59:0.4 60:0 61:0 62:0 63:0 64:0 65:0.1 66:0 67:0 68:0.1 69:0 70:0 71:0 72:0 73:0 74:0 75:0 76:0 77:0 78:0 79:0 80:0.1 81:0 82:0 83:0 84:0 85:0 
3.657209837231112 1:3.2 2:0.1 3:0.3 4:0.4 5:0.7 6:0.1 7:0.5 8:0.1 9:0.3 10:0.8 11:0.1 12:0.1 13:0.2 14:0.5 15:0.3 16:0.2 17:0.3 18:0.5 19:0.1 20:0.1 21:0.1 22:0.5 23:0.3 24:0.1 25:0.1 26:0.1 27:0.3 28:0.5 29:0.1 30:0.4 31:0.5 32:0.7 33:0 34:0.2 35:0.5 36:0.4 37:0.2 38:0.3 39:0.4 40:0.1 41:0 42:0.4 43:0.1 44:0 45:0 46:0 47:0 48:0 49:0 50:0 51:0 52:0 53:0 54:0 55:0 56:0 57:0 58:0 59:0.3 60:0 61:0 62:0 63:0 64:0 65:0 66:0 67:0 68:0 69:0 70:0 71:0 72:0 73:0 74:0 75:0 76:0 77:0 78:0 79:0 80:0.1 81:0 82:0 83:0 84:0 85:0 
0.8075420322861819 1:0.8 2:0.2 3:0.3 4:0.3 5:0.2 6:0 7:0.5 8:0.2 9:0.3 10:0.7 11:0.1 12:0.2 13:0.2 14:0.3 15:0.5 16:0.3 17:0.4 18:0.3 19:0.4 20:0 21:0 22:0.4 23:0.1 24:0 25:0.4 26:0.2 27:0.2 28:0.2 29:0 30:0.1 31:0.8 32:0.8 33:0 34:0.1 35:0.6 36:0.3 37:0 38:0.5 39:0.4 40:0 41:0 42:0.4 43:0.7 44:0.2 45:0 46:0 47:0.6 48:0 49:0 50:0 51:0 52:0 53:0 54:0 55:0.4 56:0 57:0 58:0 59:0.4 60:0 61:0 62:0 63:0 64:0 65:0.1 66:0 67:0 68:0.1 69:0 70:0 71:0 72:0 73:0 74:0 75:0 76:0.2 77:0 78:0 79:0 80:0.1 81:0 82:0 83:0 84:0 85:0 
8.667792882885102 1:0.3 2:0.1 3:0.3 4:0.4 5:0.1 6:0 7:0.5 8:0.2 9:0.2 10:0.7 11:0 12:0.2 13:0.2 14:0.4 15:0.4 16:0 17:0.4 18:0.5 19:0.1 20:0 21:0 22:0.3 23:0.2 24:0.5 25:0 26:0.1 27:0.4 28:0.3 29:0.2 30:0.2 31:0.7 32:0.6 33:0 34:0.3 35:0.8 36:0.1 37:0.2 38:0.4 39:0.4 40:0 41:0 42:0.4 43:0.6 44:0 45:0 46:0 47:0.6 48:0 49:0 50:0 51:0 52:0 53:0 54:0 55:0 56:0 57:0 58:0 59:0 60:0 61:0 62:0 63:0 64:0 65:0 66:0 67:0 68:0.1 69:0 70:0 71:0 72:0 73:0 74:0 75:0 76:0 77:0 78:0 79:0 80:0 81:0 82:0 83:0 84:0 85:0 
3.834202626907089 1:0.3 2:0.1 3:0.2 4:0.4 5:0.1 6:0.1 7:0.4 8:0.1 9:0.4 10:0.7 11:0.1 12:0.2 13:0 14:0.9 15:0 16:0 17:0 18:0.9 19:0.4 20:0 21:0 22:0.2 23:0.2 24:0.1 25:0 26:0 27:0.5 28:0.4 29:0 30:0.5 31:0.5 32:0.6 33:0.2 34:0.1 35:0.5 36:0.4 37:0.5 38:0.5 39:0 40:0 41:0 42:0.3 43:0.6 44:0 45:0 46:0 47:0.6 48:0 49:0 50:0 51:0 52:0 53:0 54:0 55:0 56:0 57:0 58:0 59:0 60:0 61:0 62:0 63:0 64:0 65:0 66:0 67:0 68:0.1 69:0 70:0 71:0 72:0 73:0 74:0 75:0 76:0 77:0 78:0 79:0 80:0 81:0 82:0 83:0 84:0 85:0 
69.96165842190095 1:3.8 2:0.1 3:0.2 4:0.2 5:0.9 6:0 7:0.4 8:0.2 9:0.4 10:0.7 11:0.1 12:0.2 13:0.3 14:0.4 15:0.3 16:0.1 17:0.1 18:0.8 19:0.1 20:0 21:0 22:0.3 23:0.6 24:0 25:0.1 26:0.1 27:0.1 28:0.8 29:0 30:0.3 31:0.6 32:0.7 33:0.1 34:0.1 35:0.8 36:0.1 37:0 38:0.7 39:0.2 40:0 41:0 42:0.4 43:0.4 44:0.2 45:0 46:0 47:0 48:0 49:0 50:0 51:0 52:0 53:0 54:0 55:0 56:0 57:0 58:0 59:0.2 60:0 61:0 62:0 63:0 64:0 65:0.1 66:0 67:0 68:0 69:0 70:0 71:0 72:0 73:0 74:0 75:0 76:0 77:0 78:0 79:0 80:0.1 81:0 82:0 83:0 84:0 85:0 
4.708356799802523 1:3.9 2:0.1 3:0.2 4:0.3 5:0.9 6:0 7:0.7 8:0.2 9:0 10:0.9 11:0 12:0 13:0.2 14:0.5 15:0.2 16:0.2 17:0.5 18:0.2 19:0.1 20:0 21:0 22:0.3 23:0.3 24:0.3 25:0.1 26:0.2 27:0.3 28:0.4 29:0.1 30:0.6 31:0.3 32:0.7 33:0 34:0.2 35:0.7 36:0.2 37:0.1 38:0.3 39:0.3 40:0.2 41:0 42:0.6 43:0.5 44:0.1 45:0 46:0 47:0.6 48:0 49:0 50:0 51:0 52:0 53:0 54:0 55:0 56:0 57:0 58:0 59:0.4 60:0 61:0 62:0 63:0 64:0 65:0.1 66:0 67:0 68:0.1 69:0 70:0 71:0 72:0 73:0 74:0 75:0 76:0 77:0 78:0 79:0 80:0.2 81:0 82:0 83:0 84:0 85:0 
1.220590572306189 1:3.3 2:0.1 3:0.4 4:0.2 5:0.8 6:0 7:0.8 8:0.1 9:0 10:0.9 11:0 12:0 13:0 14:0.2 15:0.7 16:0.2 17:0.3 18:0.4 19:0.3 20:0.1 21:0 22:0.4 23:0.1 24:0.1 25:0.3 26:0.2 27:0.2 28:0.4 29:0 30:0 31:0.9 32:0.7 33:0.2 34:0 35:0.6 36:0.3 37:0 38:0.6 39:0.3 40:0 41:0 42:0.4 43:0.3 44:0.2 45:0 46:0 47:0 48:0 49:0 50:0 51:0 52:0 53:0 54:0 55:0 56:0 57:0 58:0 59:0.3 60:0 61:0 62:0 63:0 64:0 65:0.1 66:0 67:0 68:0 69:0 70:0 71:0 72:0 73:0 74:0 75:0 76:0 77:0 78:0 79:0 80:0.1 81:0 82:0 83:0 84:0 85:0 
19.35532454014222 1:3.7 2:0.1 3:0.3 4:0.3 5:0.8 6:0.2 7:0.6 8:0.1 9:0.2 10:0.7 11:0.1 12:0.2 13:0 14:0.3 15:0.6 16:0.4 17:0.2 18:0.4 19:0.4 20:0 21:0.1 22:0 23:0.2 24:0.3 25:0.4 26:0 27:0.2 28:0.3 29:0.2 30:0.2 31:0.7 32:0.7 33:0.2 34:0 35:0.5 36:0.4 37:0.2 38:0.2 39:0.3 40:0.3 41:0 42:0.5 43:0.4 44:0 45:0 46:0 47:0.6 48:0 49:0 50:0 51:0 52:0 53:0 54:0 55:0 56:0 57:0 58:0 59:0 60:0 61:0 62:0 63:0 64:0 65:0 66:0 67:0 68:0.2 69:0 70:0 71:0 72:0 73:0 74:0 75:0 76:0 77:0 78:0 79:0 80:0 81:0 82:0 83:0 84:0 85:0 
2.09026424751548 1:3.7 2:0.1 3:0.2 4:0.2 5:0.8 6:0 7:0.4 8:0.2 9:0.4 10:0.3 11:0.2 12:0.4 13:0.4 14:0.4 15:0.2 16:0 17:0.5 18:0.4 19:0 20:0 21:0 22:0.7 23:0 24:0.2 25:0 26:0.5 27:0 28:0.4 29:0 30:0.7 31:0.2 32:0.7 33:0 34:0.2 35:0.9 36:0 37:0.4 38:0.5 39:0 40:0 41:0 42:0.3 43:0.4 44:0 45:0 46:0.3 47:0.6 48:0 49:0 50:0 51:0 52:0 53:0 54:0 55:0 56:0 57:0 58:0 59:0.3 60:0 61:0 62:0 63:0 64:0 65:0 66:0 67:0.1 68:0.1 69:0 70:0 71:0 72:0 73:0 74:0 75:0 76:0 77:0 78:0 79:0 80:0.1 81:0 82:0 83:0 84:0 85:0 
0.640934129587579 1:3.4 2:0.2 3:0.4 4:0.3 5:0.8 6:0.2 7:0.4 8:0.2 9:0.3 10:0.7 11:0 12:0.2 13:0.1 14:0.3 15:0.5 16:0.4 17:0.5 18:0 19:0.4 20:0.1 21:0 22:0.3 23:0 24:0.3 25:0.4 26:0.2 27:0.4 28:0 29:0 30:0.8 31:0.1 32:0.6 33:0.3 34:0 35:0 36:0.9 37:0 38:0.4 39:0.4 40:0.1 41:0.1 42:0.6 43:0.6 44:0 45:0 46:0 47:0.6 48:0 49:0 50:0 51:0 52:0 53:0 54:0 55:0 56:0 57:0 58:0 59:0 60:0 61:0 62:0 63:0 64:0 65:0 66:0 67:0 68:0.1 69:0 70:0 71:0 72:0 73:0 74:0 75:0 76:0 77:0 78:0 79:0 80:0 81:0 82:0 83:0 84:0 85:0 
51.95716270212228 1:3.4 2:0.1 3:0.2 4:0.3 5:0.8 6:0 7:0.5 8:0.2 9:0.2 10:0.6 11:0.1 12:0.2 13:0.2 14:0.3 15:0.4 16:0.3 17:0.1 18:0.6 19:0.2 20:0 21:0 22:0.3 23:0.3 24:0.2 25:0.2 26:0.1 27:0.2 28:0.5 29:0 30:0.2 31:0.7 32:0.7 33:0 34:0.2 35:0.8 36:0.1 37:0.2 38:0.5 39:0.2 40:0 41:0 42:0.3 43:0.6 44:0.2 45:0 46:0 47:0.6 48:0 49:0 50:0 51:0 52:0 53:0 54:0 55:0 56:0 57:0 58:0 59:0.4 60:0 61:0 62:0 63:0 64:0 65:0.1 66:0 67:0 68:0.2 69:0 70:0 71:0 72:0 73:0 74:0 75:0 76:0 77:0 78:0 79:0 80:0.1 81:0 82:0 83:0 84:0 85:0 
2.009185268026475 1:0.8 2:0.1 3:0.2 4:0.4 5:0.2 6:0.1 7:0.4 8:0.2 9:0.4 10:0.5 11:0.2 12:0.3 13:0 14:0.6 15:0.3 16:0.6 17:0.3 18:0 19:0 20:0 21:0 22:0.6 23:0.3 24:0 25:0 26:0.6 27:0 28:0.3 29:0 30:0 31:0.9 32:0.6 33:0.1 34:0.2 35:0.7 36:0.2 37:0 38:0 39:0.9 40:0 41:0 42:0.4 43:0.7 44:0.2 45:0 46:0 47:0 48:0 49:0 50:0 51:0 52:0 53:0 54:0 55:0 56:0 57:0.2 58:0 59:0 60:0 61:0 62:0.1 63:0 64:0 65:0.1 66:0 67:0 68:0 69:0 70:0 71:0 72:0 73:0 74:0 75:0 76:0 77:0 78:0.1 79:0 80:0 81:0 82:0 83:0.2 84:0 85:0 
161.3355587347264 1:3.6 2:0.1 3:0.2 4:0.5 5:0.8 6:0.1 7:0.5 8:0.2 9:0.2 10:0.5 11:0.1 12:0.3 13:0.3 14:0.5 15:0.1 16:0.1 17:0.5 18:0.3 19:0.3 20:0.1 21:0 22:0.4 23:0.1 24:0.2 25:0.2 26:0.3 27:0.3 28:0.2 29:0.1 30:0.5 31:0.4 32:0.7 33:0.1 34:0.1 35:0.5 36:0.4 37:0.3 38:0.3 39:0.3 40:0.1 41:0 42:0.3 43:0.3 44:0.2 45:0 46:0 47:0.6 48:0 49:0 50:0 51:0 52:0 53:0 54:0 55:0 56:0 57:0 58:0 59:0 60:0 61:0 62:0 63:0 64:0 65:0.1 66:0 67:0 68:0.1 69:0 70:0 71:0 72:0 73:0 74:0 75:0 76:0 77:0 78:0 79:0 80:0 81:0 82:0 83:0 84:0 85:0 
6.476290728630011 1:2.5 2:0.1 3:0.2 4:0.3 5:0.6 6:0 7:0.5 8:0.1 9:0.4 10:0.3 11:0.2 12:0.5 13:0.5 14:0.3 15:0.3 16:0.2 17:0.3 18:0.4 19:0.1 20:0.1 21:0 22:0.4 23:0.2 24:0.3 25:0.1 26:0.4 27:0.1 28:0.3 29:0.2 30:0.7 31:0.2 32:0.6 33:0.1 34:0.3 35:0.8 36:0.1 37:0.5 38:0.3 39:0.2 40:0 41:0 42:0.3 43:0.1 44:0.2 45:0 46:0 47:0.6 48:0 49:0 50:0 51:0 52:0 53:0 54:0 55:0 56:0 57:0 58:0 59:0.2 60:0 61:0 62:0 63:0 64:0 65:0.1 66:0 67:0 68:0.1 69:0 70:0 71:0 72:0 73:0 74:0 75:0 76:0 77:0 78:0 79:0 80:0.1 81:0 82:0 83:0 84:0 85:0 
4.765091619540605 1:0.8 2:0.1 3:0.3 4:0.3 5:0.2 6:0.2 7:0.5 8:0.2 9:0.1 10:0.7 11:0.2 12:0 13:0 14:0.2 15:0.7 16:0.4 17:0.4 18:0.2 19:0.3 20:0 21:0 22:0.5 23:0.2 24:0.1 25:0.2 26:0.3 27:0.3 28:0.2 29:0.1 30:0 31:0.9 32:0.9 33:0 34:0 35:0.4 36:0.5 37:0.1 38:0.2 39:0.7 40:0 41:0 42:0.5 43:0.7 44:0 45:0 46:0 47:0 48:0 49:0 50:0 51:0 52:0 53:0 54:0 55:0 56:0 57:0 58:0 59:0 60:0 61:0.4 62:0 63:0 64:0 65:0 66:0 67:0 68:0 69:0 70:0 71:0 72:0 73:0 74:0 75:0 76:0 77:0 78:0 79:0 80:0 81:0 82:0.2 83:0 84:0 85:0 
3.275469132233674 1:0.8 2:0.2 3:0.3 4:0.3 5:0.2 6:0 7:0.6 8:0.2 9:0.2 10:0.9 11:0 12:0 13:0 14:0.4 15:0.5 16:0.2 17:0.4 18:0.4 19:0.5 20:0 21:0 22:0.4 23:0 24:0 25:0.5 26:0 27:0 28:0.4 29:0 30:0.2 31:0.7 32:0.7 33:0.2 34:0 35:0.6 36:0.3 37:0.5 38:0.2 39:0 40:0.2 41:0 42:0.4 43:0.7 44:0 45:0 46:0 47:0 48:0 49:0 50:0 51:0 52:0 53:0 54:0 55:0 56:0 57:0 58:0 59:0 60:0 61:0 62:0 63:0 64:0 65:0 66:0 67:0 68:0 69:0 70:0 71:0 72:0 73:0 74:0 75:0 76:0 77:0 78:0 79:0 80:0 81:0 82:0 83:0 84:0 85:0 
3.00667196908356 1:0.7 2:0.1 3:0.3 4:0.2 5:0.2 6:0 7:0 8:0 9:0.9 10:0.5 11:0.4 12:0 13:0 14:0.4 15:0.5 16:0.3 17:0.6 18:0 19:0.3 20:0 21:0 22:0.6 23:0 24:0 25:0.3 26:0.2 27:0.4 28:0 29:0 30:0 31:0.9 32:0.6 33:0.3 34:0 35:0.6 36:0.3 37:0 38:0.3 39:0.6 40:0 41:0 42:0.5 43:0.6 44:0 45:0 46:0 47:0 48:0 49:0 50:0 51:0 52:0 53:0 54:0 55:0 56:0 57:0 58:0 59:0 60:0 61:0 62:0 63:0 64:0 65:0 66:0 67:0 68:0 69:0 70:0 71:0 72:0 73:0 74:0 75:0 76:0 77:0 78:0 79:0 80:0 81:0 82:0 83:0 84:0 85:0 
453.0163085183927 1:3.3 2:0.1 3:0.3 4:0.3 5:0.8 6:0.1 7:0.4 8:0.2 9:0.3 10:0.7 11:0.1 12:0.1 13:0.1 14:0.4 15:0.4 16:0.1 17:0.2 18:0.7 19:0.2 20:0.1 21:0.1 22:0.1 23:0.4 24:0.2 25:0.2 26:0.1 27:0.2 28:0.5 29:0.1 30:0.2 31:0.7 32:0.4 33:0.4 34:0.2 35:0.7 36:0.2 37:0.3 38:0.3 39:0.3 40:0 41:0.1 42:0.4 43:0.3 44:0.2 45:0 46:0 47:0.6 48:0 49:0 50:0 51:0 52:0 53:0 54:0 55:0 56:0 57:0 58:0 59:0.3 60:0 61:0 62:0 63:0 64:0 65:0.1 66:0 67:0 68:0.1 69:0 70:0 71:0 72:0 73:0 74:0 75:0 76:0 77:0 78:0 79:0 80:0.1 81:0 82:0 83:0 84:0 85:0 
2.004660700664369 1:3.4 2:0.1 3:0.4 4:0.3 5:0.8 6:0 7:0.2 8:0 9:0.7 10:0.7 11:0 12:0.2 13:0 14:0.3 15:0.6 16:0.1 17:0.6 18:0.3 19:0 20:0 21:0 22:0.4 23:0.3 24:0.2 25:0 26:0.4 27:0.2 28:0.4 29:0 30:0 31:0.9 32:0.6 33:0.1 34:0.2 35:0.5 36:0.4 37:0 38:0.1 39:0.6 40:0.3 41:0 42:0.6 43:0.6 44:0.2 45:0 46:0 47:0 48:0 49:0 50:0 51:0 52:0 53:0 54:0 55:0 56:0 57:0 58:0 59:0.4 60:0 61:0 62:0 63:0 64:0 65:0.1 66:0 67:0 68:0 69:0 70:0 71:0 72:0 73:0 74:0 75:0 76:0 77:0 78:0 79:0 80:0.1 81:0 82:0 83:0 84:0 85:0 
7.777023398757575 1:1.2 2:0.1 3:0.3 4:0.2 5:0.3 6:0.2 7:0.3 8:0 9:0.5 10:0.5 11:0.2 12:0.3 13:0 14:0.2 15:0.7 16:0.1 17:0.7 18:0.2 19:0.2 20:0 21:0 22:0.4 23:0 24:0.4 25:0.2 26:0.1 27:0.6 28:0.2 29:0 30:0.4 31:0.5 32:0.7 33:0.2 34:0 35:0.6 36:0.3 37:0.4 38:0.5 39:0.1 40:0 41:0 42:0.3 43:0.7 44:0 45:0 46:0 47:0.6 48:0 49:0 50:0 51:0 52:0 53:0 54:0 55:0 56:0 57:0 58:0 59:0.2 60:0 61:0 62:0 63:0 64:0 65:0 66:0 67:0 68:0.1 69:0 70:0 71:0 72:0 73:0 74:0 75:0 76:0 77:0 78:0 79:0 80:0.1 81:0 82:0 83:0 84:0 85:0 
23.16878002767547 1:3.7 2:0.1 3:0.2 4:0.3 5:0.8 6:0 7:0.4 8:0.1 9:0.4 10:0.6 11:0.1 12:0.3 13:0.1 14:0.6 15:0.2 16:0.2 17:0.2 18:0.5 19:0.1 20:0 21:0.2 22:0.3 23:0.3 24:0.2 25:0.2 26:0.1 27:0.3 28:0.3 29:0.1 30:0.3 31:0.6 32:0.4 33:0 34:0.5 35:0.7 36:0.2 37:0.2 38:0.3 39:0.1 40:0.3 41:0.2 42:0.6 43:0.4 44:0 45:0 46:0 47:0 48:0 49:0 50:0 51:0 52:0 53:0 54:0 55:0 56:0 57:0 58:0 59:0.3 60:0 61:0 62:0 63:0 64:0 65:0 66:0 67:0 68:0 69:0 70:0 71:0 72:0 73:0 74:0 75:0 76:0 77:0 78:0 79:0 80:0.1 81:0 82:0 83:0 84:0 85:0 
4.270270842398197 1:1 2:0.1 3:0.4 4:0.3 5:0.3 6:0.5 7:0.3 8:0.1 9:0.1 10:0.8 11:0.1 12:0.1 13:0.1 14:0.1 15:0.8 16:0.1 17:0.5 18:0.3 19:0.1 20:0 21:0 22:0.5 23:0.3 24:0.1 25:0.1 26:0.3 27:0.3 28:0.3 29:0 30:0.1 31:0.8 32:0.9 33:0 34:0 35:0.5 36:0.4 37:0.3 38:0.2 39:0.4 40:0 41:0 42:0.4 43:0.8 44:0.2 45:0 46:0 47:0.6 48:0 49:0 50:0 51:0 52:0 53:0 54:0 55:0 56:0 57:0 58:0 59:0.4 60:0 61:0 62:0 63:0 64:0 65:0.1 66:0 67:0 68:0.1 69:0 70:0 71:0 72:0 73:0 74:0 75:0 76:0 77:0 78:0 79:0 80:0.1 81:0 82:0 83:0 84:0 85:0 
4.633053182740174 1:3.9 2:0.1 3:0.3 4:0.3 5:0.9 6:0.2 7:0.4 8:0.1 9:0.3 10:0.8 11:0 12:0.1 13:0.1 14:0.5 15:0.4 16:0.1 17:0.4 18:0.4 19:0.1 20:0 21:0 22:0.6 23:0.1 24:0.3 25:0 26:0.3 27:0.2 28:0.4 29:0 30:0.5 31:0.4 32:0.5 33:0.2 34:0.3 35:0.6 36:0.3 37:0.2 38:0.4 39:0.3 40:0.1 41:0 42:0.4 43:0.5 44:0 45:0 46:0 47:0.5 48:0 49:0.4 50:0 51:0 52:0 53:0 54:0 55:0 56:0 57:0 58:0 59:0.2 60:0 61:0 62:0 63:0 64:0 65:0 66:0 67:0 68:0.1 69:0 70:0.1 71:0 72:0 73:0 74:0 75:0 76:0 77:0 78:0 79:0 80:0.1 81:0 82:0 83:0 84:0 85:0 
1.298226497098094 1:3.7 2:0.1 3:0.2 4:0.4 5:0.8 6:0.9 7:0 8:0 9:0 10:0.5 11:0.1 12:0.3 13:0.3 14:0.5 15:0.2 16:0.2 17:0.4 18:0.3 19:0.2 20:0 21:0.1 22:0.2 23:0 24:0.4 25:0.2 26:0.2 27:0.3 28:0.3 29:0.1 30:0.2 31:0.7 32:0.4 33:0 34:0.5 35:0.7 36:0.2 37:0.4 38:0.2 39:0.3 40:0.1 41:0.2 42:0.5 43:0.5 44:0 45:0 46:0 47:0.5 48:0 49:0 50:0 51:0 52:0 53:0 54:0 55:0 56:0 57:0 58:0 59:0 60:0 61:0 62:0 63:0 64:0 65:0 66:0 67:0 68:0.1 69:0 70:0 71:0 72:0 73:0 74:0 75:0 76:0 77:0 78:0 79:0 80:0 81:0 82:0 83:0 84:0 85:0 
16.6683077034641 1:1 2:0.1 3:0.3 4:0.2 5:0.3 6:0.1 7:0.2 8:0.2 9:0.6 10:0.9 11:0 12:0 13:0 14:0.3 15:0.6 16:0.3 17:0.4 18:0.2 19:0.4 20:0 21:0 22:0.3 23:0.2 24:0.1 25:0.4 26:0.2 27:0.2 28:0.3 29:0 30:0 31:0.9 32:0.6 33:0.2 34:0.2 35:0.5 36:0.4 37:0 38:0.3 39:0.4 40:0.3 41:0 42:0.5 43:0.8 44:0 45:0 46:0 47:0 48:0 49:0 50:0 51:0 52:0 53:0 54:0 55:0 56:0 57:0 58:0 59:0.3 60:0 61:0 62:0 63:0 64:0 65:0 66:0 67:0 68:0 69:0 70:0 71:0 72:0 73:0 74:0 75:0 76:0 77:0 78:0 79:0 80:0.1 81:0 82:0 83:0 84:0 85:0 
13.44911268266616 1:1 2:0.1 3:0.4 4:0.2 5:0.3 6:0 7:0.5 8:0 9:0.4 10:0.9 11:0 12:0 13:0 14:0.3 15:0.6 16:0 17:0.4 18:0.5 19:0 20:0 21:0 22:0.4 23:0.5 24:0 25:0 26:0 27:0.4 28:0.5 29:0 30:0.3 31:0.6 32:0.7 33:0.1 34:0.1 35:0.5 36:0.4 37:0.2 38:0.7 39:0 40:0 41:0 42:0.3 43:0.8 44:0.2 45:0 46:0 47:0.6 48:0 49:0 50:0 51:0 52:0 53:0 54:0 55:0 56:0 57:0 58:0 59:0.4 60:0 61:0 62:0 63:0 64:0 65:0.1 66:0 67:0 68:0.1 69:0 70:0 71:0 72:0 73:0 74:0 75:0 76:0 77:0 78:0 79:0 80:0.1 81:0 82:0 83:0 84:0 85:0 
1.157807259297239 1:0.3 2:0.1 3:0.2 4:0.3 5:0.1 6:0 7:0.6 8:0 9:0.3 10:0.9 11:0 12:0 13:0 14:0.5 15:0.4 16:0 17:0.9 18:0 19:0 20:0 21:0 22:0.5 23:0 24:0.4 25:0 26:0 27:0.6 28:0.3 29:0 30:0.5 31:0.4 32:0.7 33:0.2 34:0 35:0.7 36:0.2 37:0 38:0.9 39:0 40:0 41:0 42:0.3 43:0.6 44:0.2 45:0 46:0 47:0.6 48:0 49:0 50:0 51:0 52:0 53:0 54:0 55:0 56:0 57:0 58:0 59:0.4 60:0 61:0 62:0 63:0 64:0 65:0.1 66:0 67:0 68:0.1 69:0 70:0 71:0 72:0 73:0 74:0 75:0 76:0 77:0 78:0 79:0 80:0.1 81:0 82:0 83:0 84:0 85:0 
14.57317220460676 1:1.3 2:0.1 3:0.3 4:0.2 5:0.3 6:0.2 7:0.4 8:0.2 9:0.4 10:0.7 11:0.1 12:0.2 13:0.2 14:0.3 15:0.5 16:0.3 17:0.5 18:0.2 19:0.3 20:0.1 21:0.1 22:0.4 23:0.2 24:0.2 25:0.3 26:0.2 27:0.3 28:0.2 29:0.1 30:0.6 31:0.3 32:0.7 33:0.1 34:0.2 35:0.6 36:0.3 37:0.1 38:0.3 39:0.5 40:0.1 41:0 42:0.4 43:0.6 44:0 45:0 46:0 47:0 48:0 49:0 50:0 51:0 52:0 53:0 54:0 55:0 56:0 57:0 58:0 59:0 60:0 61:0 62:0 63:0 64:0 65:0 66:0 67:0 68:0 69:0 70:0 71:0 72:0 73:0 74:0 75:0 76:0 77:0 78:0 79:0 80:0 81:0 82:0 83:0 84:0 85:0 
0.3877959886193374 1:3.5 2:0.1 3:0.2 4:0.4 5:0.8 6:0 7:0.9 8:0 9:0 10:0.5 11:0 12:0.4 13:0.4 14:0.2 15:0.3 16:0 17:0.3 18:0.6 19:0 20:0 21:0.2 22:0 23:0.3 24:0.5 25:0.2 26:0 27:0 28:0.5 29:0.3 30:0 31:0.9 32:0.3 33:0.2 34:0.4 35:0.7 36:0.2 37:0.5 38:0 39:0.4 40:0 41:0 42:0.2 43:0.5 44:0 45:0 46:0 47:0.6 48:0 49:0 50:0 51:0 52:0 53:0 54:0 55:0 56:0 57:0 58:0 59:0 60:0 61:0 62:0 63:0 64:0 65:0 66:0 67:0 68:0.1 69:0 70:0 71:0 72:0 73:0 74:0 75:0 76:0 77:0 78:0 79:0 80:0 81:0 82:0 83:0 84:0 85:0 
0.3721821552047501 1:1 2:0.1 3:0.3 4:0.3 5:0.3 6:0.1 7:0.4 8:0.1 9:0.4 10:0.9 11:0 12:0 13:0 14:0.5 15:0.4 16:0.3 17:0.5 18:0.2 19:0.5 20:0 21:0 22:0.1 23:0.1 24:0.3 25:0.2 26:0.2 27:0.5 28:0.2 29:0 30:0 31:0.9 32:0.7 33:0.2 34:0 35:0.2 36:0.7 37:0 38:0.2 39:0.5 40:0.3 41:0.1 42:0.6 43:0.8 44:0.2 45:0 46:0 47:0.6 48:0 49:0 50:0 51:0 52:0 53:0 54:0 55:0 56:0 57:0 58:0 59:0 60:0 61:0 62:0 63:0 64:0.4 65:0.1 66:0 67:0 68:0.1 69:0 70:0 71:0 72:0 73:0 74:0 75:0 76:0 77:0 78:0 79:0 80:0 81:0 82:0 83:0 84:0 85:0.1 
3.691120596894041 1:3.1 2:0.1 3:0.2 4:0.3 5:0.7 6:0 7:0 8:0.2 9:0.7 10:0.8 11:0 12:0.1 13:0.1 14:0.6 15:0.3 16:0 17:0.3 18:0.6 19:0 20:0 21:0 22:0.4 23:0.3 24:0.2 25:0 26:0.1 27:0.2 28:0.6 29:0 30:0.7 31:0.2 32:0.7 33:0 34:0.2 35:0.7 36:0.2 37:0.1 38:0.8 39:0 40:0 41:0 42:0.4 43:0.1 44:0.2 45:0 46:0 47:0.6 48:0 49:0 50:0 51:0 52:0 53:0 54:0 55:0 56:0 57:0 58:0 59:0.3 60:0 61:0.1 62:0 63:0 64:0 65:0.1 66:0 67:0 68:0.1 69:0 70:0 71:0 72:0 73:0 74:0 75:0 76:0 77:0 78:0 79:0 80:0.1 81:0 82:0.1 83:0 84:0 85:0 
22.16898608735587 1:3.6 2:0.1 3:0.2 4:0.5 5:0.8 6:0.1 7:0.5 8:0.2 9:0.2 10:0.5 11:0.1 12:0.3 13:0.3 14:0.5 15:0.1 16:0.1 17:0.5 18:0.3 19:0.3 20:0.1 21:0 22:0.4 23:0.1 24:0.2 25:0.2 26:0.3 27:0.3 28:0.2 29:0.1 30:0.5 31:0.4 32:0.7 33:0.1 34:0.1 35:0.5 36:0.4 37:0.3 38:0.3 39:0.3 40:0.1 41:0 42:0.3 43:0.3 44:0 45:0 46:0 47:0 48:0 49:0 50:0 51:0 52:0 53:0 54:0 55:0 56:0 57:0 58:0 59:0 60:0 61:0 62:0.1 63:0 64:0 65:0 66:0 67:0 68:0 69:0 70:0 71:0 72:0 73:0 74:0 75:0 76:0 77:0 78:0 79:0 80:0 81:0 82:0 83:0.1 84:0 85:0 
10.69368663173735 1:0.8 2:0.1 3:0.4 4:0.3 5:0.2 6:0.2 7:0.5 8:0.1 9:0.2 10:0.6 11:0.1 12:0.3 13:0 14:0.2 15:0.7 16:0.4 17:0.4 18:0.2 19:0.3 20:0.1 21:0 22:0.5 23:0.2 24:0.1 25:0.2 26:0.2 27:0.3 28:0.2 29:0.1 30:0.1 31:0.8 32:0.8 33:0 34:0.1 35:0.6 36:0.3 37:0.1 38:0.3 39:0.4 40:0.3 41:0.1 42:0.5 43:0.7 44:0 45:0 46:0 47:0.6 48:0 49:0 50:0 51:0 52:0 53:0 54:0 55:0 56:0 57:0 58:0 59:0.3 60:0 61:0 62:0 63:0 64:0 65:0 66:0 67:0 68:0.1 69:0 70:0 71:0 72:0 73:0 74:0 75:0 76:0 77:0 78:0 79:0 80:0.1 81:0 82:0 83:0 84:0 85:0 
0.1745429958724929 1:3.8 2:0.1 3:0.2 4:0.1 5:0.9 6:0.2 7:0.5 8:0 9:0.2 10:0.7 11:0.2 12:0 13:0 14:0.6 15:0.3 16:0.5 17:0.3 18:0.2 19:0.2 20:0.2 21:0 22:0.3 23:0.4 24:0 25:0.3 26:0.3 27:0 28:0.4 29:0 30:0 31:0.9 32:0.7 33:0 34:0.2 35:0.4 36:0.5 37:0 38:0 39:0.7 40:0.2 41:0 42:0.6 43:0.4 44:0.2 45:0 46:0 47:0.6 48:0 49:0 50:0 51:0 52:0 53:0 54:0 55:0.2 56:0 57:0 58:0 59:0.4 60:0 61:0 62:0 63:0 64:0 65:0.1 66:0 67:0 68:0.1 69:0 70:0 71:0 72:0 73:0 74:0 75:0 76:0.1 77:0 78:0 79:0 80:0.1 81:0 82:0 83:0 84:0 85:0 
1.555975053022481 1:0.2 2:0.1 3:0.3 4:0.3 5:0.1 6:0 7:0.2 8:0.2 9:0.5 10:0.9 11:0 12:0 13:0 14:0.4 15:0.5 16:0.2 17:0.6 18:0.2 19:0.2 20:0.5 21:0 22:0.2 23:0 24:0 25:0.3 26:0.2 27:0.4 28:0 29:0 30:0.9 31:0 32:0.5 33:0.4 34:0 35:0.2 36:0.7 37:0 38:0 39:0.7 40:0.2 41:0 42:0.6 43:0.6 44:0 45:0 46:0 47:0.5 48:0 49:0 50:0 51:0 52:0 53:0 54:0 55:0 56:0 57:0 58:0 59:0 60:0 61:0 62:0 63:0 64:0 65:0 66:0 67:0 68:0.1 69:0 70:0 71:0 72:0 73:0 74:0 75:0 76:0 77:0 78:0 79:0 80:0 81:0 82:0 83:0 84:0 85:0 
0.7990783766615294 1:1 2:0.1 3:0.3 4:0.2 5:0.3 6:0 7:0.4 8:0.2 9:0.4 10:0.9 11:0 12:0 13:0 14:0.5 15:0.4 16:0.3 17:0.5 18:0.2 19:0.7 20:0 21:0 22:0.2 23:0 24:0 25:0.4 26:0.4 27:0 28:0.2 29:0 30:0 31:0.9 32:0.5 33:0.4 34:0 35:0 36:0.9 37:0 38:0.3 39:0.6 40:0 41:0 42:0.5 43:0.8 44:0 45:0 46:0 47:0 48:0 49:0 50:0 51:0 52:0 53:0 54:0 55:0 56:0 57:0 58:0 59:0 60:0 61:0 62:0.1 63:0 64:0 65:0 66:0 67:0 68:0 69:0 70:0 71:0 72:0 73:0 74:0 75:0 76:0 77:0 78:0 79:0 80:0 81:0 82:0 83:0.1 84:0 85:0 
338.6004634041304 1:1 2:0.2 3:0.3 4:0.3 5:0.3 6:0.2 7:0.4 8:0.1 9:0.3 10:0.6 11:0.1 12:0.2 13:0.2 14:0.3 15:0.4 16:0.3 17:0.4 18:0.3 19:0.3 20:0.1 21:0 22:0.4 23:0.1 24:0.2 25:0.3 26:0.2 27:0.3 28:0.2 29:0.1 30:0.3 31:0.6 32:0.6 33:0.2 34:0.2 35:0.6 36:0.3 37:0.2 38:0.3 39:0.4 40:0.2 41:0.1 42:0.5 43:0.8 44:0.2 45:0 46:0 47:0.6 48:0 49:0 50:0 51:0 52:0 53:0 54:0 55:0 56:0 57:0 58:0 59:0.3 60:0 61:0 62:0 63:0 64:0 65:0.1 66:0 67:0 68:0.1 69:0 70:0 71:0 72:0 73:0 74:0 75:0 76:0 77:0 78:0 79:0 80:0.1 81:0 82:0 83:0 84:0 85:0 
1.203520211051753 1:2.5 2:0.1 3:0.2 4:0.3 5:0.6 6:0 7:0.5 8:0.1 9:0.3 10:0.7 11:0.1 12:0.2 13:0.3 14:0.5 15:0.1 16:0 17:0.5 18:0.4 19:0 20:0 21:0 22:0.2 23:0.2 24:0.6 25:0 26:0.4 27:0.2 28:0.2 29:0.2 30:0.1 31:0.8 32:0.9 33:0 34:0 35:0.5 36:0.4 37:0.3 38:0.3 39:0.2 40:0.2 41:0 42:0.4 43:0.1 44:0.2 45:0 46:0 47:0.6 48:0 49:0 50:0 51:0 52:0 53:0 54:0 55:0 56:0 57:0 58:0 59:0 60:0 61:0 62:0 63:0 64:0 65:0.1 66:0 67:0 68:0.1 69:0 70:0 71:0 72:0 73:0 74:0 75:0 76:0 77:0 78:0 79:0 80:0 81:0 82:0 83:0 84:0 85:0 
1.394901642083494 1:4.1 2:0.1 3:0.3 4:0.2 5:1 6:0 7:0.9 8:0 9:0 10:0.9 11:0 12:0 13:0 14:0.4 15:0.5 16:0.2 17:0.3 18:0.4 19:0 20:0.2 21:0 22:0.3 23:0.2 24:0.2 25:0.2 26:0.2 27:0.3 28:0.4 29:0 30:0.3 31:0.6 32:0.6 33:0.3 34:0 35:0.5 36:0.4 37:0 38:0 39:0.9 40:0 41:0 42:0.5 43:0.4 44:0 45:0 46:0 47:0.5 48:0 49:0 50:0 51:0 52:0 53:0 54:0 55:0 56:0 57:0 58:0 59:0 60:0 61:0 62:0 63:0 64:0 65:0 66:0 67:0 68:0.1 69:0 70:0 71:0 72:0 73:0 74:0 75:0 76:0 77:0 78:0 79:0 80:0 81:0 82:0 83:0 84:0 85:0 
17.6242248960663 1:0.8 2:0.2 3:0.3 4:0.3 5:0.2 6:0.2 7:0.4 8:0.1 9:0.3 10:0.6 11:0.1 12:0.2 13:0.2 14:0.3 15:0.4 16:0.3 17:0.4 18:0.3 19:0.3 20:0.1 21:0 22:0.4 23:0.1 24:0.2 25:0.3 26:0.2 27:0.3 28:0.2 29:0.1 30:0.3 31:0.6 32:0.6 33:0.2 34:0.2 35:0.6 36:0.3 37:0.2 38:0.3 39:0.4 40:0.2 41:0.1 42:0.5 43:0.7 44:0.2 45:0 46:0 47:0 48:0 49:0 50:0 51:0 52:0 53:0 54:0 55:0 56:0 57:0 58:0 59:0.4 60:0 61:0 62:0 63:0 64:0 65:0.1 66:0 67:0 68:0 69:0 70:0 71:0 72:0 73:0 74:0 75:0 76:0 77:0 78:0 79:0 80:0.1 81:0 82:0 83:0 84:0 85:0 
0.6390155190676008 1:1.3 2:0.1 3:0.3 4:0.3 5:0.3 6:0.3 7:0.2 8:0.1 9:0.4 10:0.5 11:0.2 12:0.3 13:0.2 14:0 15:0.7 16:0.1 17:0.3 18:0.5 19:0.2 20:0 21:0 22:0.3 23:0.2 24:0.3 25:0 26:0.2 27:0.2 28:0.6 29:0 30:0.7 31:0.2 32:0.4 33:0.2 34:0.3 35:0.5 36:0.4 37:0.2 38:0.2 39:0.4 40:0.1 41:0 42:0.5 43:0.8 44:0.2 45:0 46:0 47:0.6 48:0 49:0 50:0 51:0 52:0 53:0 54:0 55:0 56:0 57:0 58:0 59:0.4 60:0 61:0 62:0 63:0 64:0 65:0.1 66:0 67:0 68:0.1 69:0 70:0 71:0 72:0 73:0 74:0 75:0 76:0 77:0 78:0 79:0 80:0.1 81:0 82:0 83:0 84:0 85:0 
120.7378113922395 1:1.3 2:0.1 3:0.4 4:0.2 5:0.3 6:0.2 7:0.4 8:0 9:0.3 10:0.7 11:0 12:0.2 13:0.1 14:0.3 15:0.6 16:0.5 17:0.4 18:0.1 19:0.6 20:0 21:0 22:0.3 23:0 24:0.1 25:0.5 26:0.2 27:0.1 28:0.2 29:0 30:0.4 31:0.5 32:0.7 33:0.1 34:0.2 35:0.5 36:0.4 37:0.2 38:0.2 39:0.6 40:0 41:0 42:0.4 43:0.6 44:0.2 45:0 46:0 47:0.6 48:0 49:0 50:0 51:0 52:0 53:0 54:0 55:0 56:0 57:0 58:0 59:0 60:0 61:0 62:0 63:0 64:0 65:0.1 66:0 67:0 68:0.1 69:0 70:0 71:0 72:0 73:0 74:0 75:0 76:0 77:0 78:0 79:0 80:0 81:0 82:0 83:0 84:0 85:0 
33.17872990415709 1:0.8 2:0.1 3:0.3 4:0.2 5:0.2 6:0.2 7:0.5 8:0 9:0.3 10:0.9 11:0 12:0 13:0 14:0.3 15:0.6 16:0.2 17:0.5 18:0.3 19:0.2 20:0 21:0 22:0.4 23:0.2 24:0.2 25:0.2 26:0.2 27:0.3 28:0.4 29:0 30:0.3 31:0.6 32:0.7 33:0.2 34:0 35:0.6 36:0.3 37:0.2 38:0 39:0.7 40:0 41:0 42:0.5 43:0.7 44:0 45:0 46:0 47:0.5 48:0 49:0 50:0 51:0 52:0 53:0 54:0 55:0 56:0 57:0 58:0 59:0 60:0 61:0 62:0 63:0 64:0 65:0 66:0 67:0 68:0.1 69:0 70:0 71:0 72:0 73:0 74:0 75:0 76:0 77:0 78:0 79:0 80:0 81:0 82:0 83:0 84:0 85:0 
3.312537120933892 1:3.3 2:0.1 3:0.3 4:0.3 5:0.8 6:0.2 7:0.6 8:0.1 9:0.2 10:0.6 11:0.2 12:0.2 13:0 14:0.3 15:0.6 16:0.3 17:0.5 18:0.2 19:0.2 20:0 21:0 22:0.2 23:0.2 24:0.4 25:0.2 26:0.2 27:0.4 28:0.3 29:0 30:0 31:0.9 32:0.5 33:0.2 34:0.3 35:0.6 36:0.3 37:0.2 38:0.3 39:0.2 40:0.4 41:0 42:0.6 43:0.3 44:0 45:0 46:0 47:0 48:0 49:0 50:0 51:0 52:0 53:0 54:0 55:0 56:0 57:0 58:0 59:0.3 60:0 61:0 62:0 63:0 64:0 65:0 66:0 67:0 68:0 69:0 70:0 71:0 72:0 73:0 74:0 75:0 76:0 77:0 78:0 79:0 80:0.1 81:0 82:0 83:0 84:0 85:0 
22.32260043581119 1:0.8 2:0.2 3:0.4 4:0.3 5:0.2 6:0.1 7:0.4 8:0.1 9:0.4 10:0.7 11:0.1 12:0.2 13:0 14:0.3 15:0.6 16:0.4 17:0.3 18:0.3 19:0 20:0 21:0 22:0.9 23:0 24:0 25:0.3 26:0 27:0.6 28:0 29:0 30:0 31:0.9 32:0.6 33:0.2 34:0.1 35:0.5 36:0.4 37:0 38:0.3 39:0.2 40:0.2 41:0.2 42:0.8 43:0.7 44:0 45:0 46:0 47:0.6 48:0 49:0 50:0 51:0 52:0 53:0 54:0 55:0 56:0 57:0 58:0 59:0.4 60:0 61:0 62:0 63:0 64:0 65:0 66:0 67:0 68:0.1 69:0 70:0 71:0 72:0 73:0 74:0 75:0 76:0 77:0 78:0 79:0 80:0.1 81:0 82:0 83:0 84:0 85:0 
143.9090949597665 1:0.6 2:0.2 3:0.3 4:0.3 5:0.2 6:0.2 7:0.4 8:0.1 9:0.3 10:0.6 11:0.1 12:0.2 13:0.2 14:0.3 15:0.4 16:0.3 17:0.4 18:0.3 19:0.3 20:0.1 21:0 22:0.4 23:0.1 24:0.2 25:0.3 26:0.2 27:0.3 28:0.2 29:0.1 30:0.3 31:0.6 32:0.6 33:0.2 34:0.2 35:0.6 36:0.3 37:0.2 38:0.3 39:0.4 40:0.2 41:0.1 42:0.5 43:0.8 44:0.2 45:0 46:0 47:0.7 48:0 49:0 50:0 51:0 52:0 53:0 54:0 55:0 56:0 57:0 58:0 59:0.4 60:0 61:0 62:0 63:0 64:0 65:0.1 66:0 67:0 68:0.2 69:0 70:0 71:0 72:0 73:0 74:0 75:0 76:0 77:0 78:0 79:0 80:0.1 81:0 82:0 83:0 84:0 85:0 
3.256123133931594 1:1 2:0.1 3:0.3 4:0.2 5:0.3 6:0 7:0.5 8:0 9:0.4 10:0.7 11:0.2 12:0 13:0 14:0.4 15:0.5 16:0.4 17:0.4 18:0.2 19:0.1 20:0 21:0 22:0.6 23:0.1 24:0.2 25:0.1 26:0.3 27:0.3 28:0.3 29:0.1 30:0.7 31:0.2 32:0.9 33:0 34:0 35:0.5 36:0.4 37:0.2 38:0.3 39:0.4 40:0.2 41:0 42:0.5 43:0.8 44:0.2 45:0 46:0 47:0.6 48:0 49:0 50:0 51:0 52:0 53:0 54:0 55:0.3 56:0 57:0.3 58:0 59:0.3 60:0 61:0 62:0 63:0 64:0 65:0.1 66:0 67:0 68:0.2 69:0 70:0 71:0 72:0 73:0 74:0 75:0 76:0.2 77:0 78:0.1 79:0 80:0.1 81:0 82:0 83:0 84:0 85:0 
4.501498287821925 1:3.3 2:0.2 3:0.3 4:0.3 5:0.8 6:0 7:0.5 8:0 9:0.4 10:0.7 11:0 12:0.2 13:0.2 14:0.2 15:0.6 16:0 17:0.2 18:0.7 19:0 20:0.2 21:0.2 22:0 23:0.6 24:0 25:0.1 26:0 27:0.2 28:0.6 29:0 30:0.2 31:0.7 32:0.4 33:0.4 34:0.2 35:0.8 36:0.1 37:0.5 38:0.2 39:0.3 40:0 41:0 42:0.3 43:0.3 44:0 45:0 46:0 47:0.6 48:0 49:0 50:0 51:0 52:0 53:0 54:0 55:0 56:0 57:0 58:0 59:0 60:0 61:0 62:0 63:0 64:0 65:0 66:0 67:0 68:0.1 69:0 70:0 71:0 72:0 73:0 74:0 75:0 76:0 77:0 78:0 79:0 80:0 81:0 82:0 83:0 84:0 85:0 
8.214832620725939 1:0.9 2:0.1 3:0.3 4:0.3 5:0.3 6:0.1 7:0.4 8:0.1 9:0.5 10:0.7 11:0.1 12:0.1 13:0 14:0.5 15:0.4 16:0 17:0.8 18:0.1 19:0.1 20:0.1 21:0 22:0.4 23:0.2 24:0.3 25:0 26:0 27:0.5 28:0.4 29:0.1 30:0 31:0.9 32:0.6 33:0.2 34:0.2 35:0.8 36:0.1 37:0 38:0.8 39:0 40:0.1 41:0 42:0.3 43:0.4 44:0.2 45:0 46:0 47:0.5 48:0 49:0 50:0 51:0 52:0 53:0 54:0 55:0 56:0 57:0 58:0 59:0.4 60:0 61:0 62:0 63:0 64:0 65:0.1 66:0 67:0 68:0.1 69:0 70:0 71:0 72:0 73:0 74:0 75:0 76:0 77:0 78:0 79:0 80:0.1 81:0 82:0 83:0 84:0 85:0 
0.6617939170459023 1:0.8 2:0.1 3:0.3 4:0.3 5:0.2 6:0 7:0.4 8:0.4 9:0.2 10:0.5 11:0.3 12:0.2 13:0 14:0.4 15:0.5 16:0.2 17:0.7 18:0 19:0.4 20:0 21:0 22:0.4 23:0 24:0.2 25:0.4 26:0.3 27:0.2 28:0 29:0 30:0.3 31:0.6 32:0.4 33:0.4 34:0.2 35:0.5 36:0.4 37:0.4 38:0.5 39:0 40:0 41:0 42:0.3 43:0.7 44:0 45:0.4 46:0 47:0.6 48:0.6 49:0.6 50:0 51:0 52:0 53:0 54:0 55:0.4 56:0 57:0 58:0.6 59:0.6 60:0 61:0 62:0 63:0 64:0 65:0 66:0.1 67:0 68:0.1 69:0.1 70:0.1 71:0 72:0 73:0 74:0 75:0 76:0.1 77:0 78:0 79:0.1 80:0.1 81:0 82:0 83:0 84:0 85:0 
6.369208718039563 1:3.1 2:0.1 3:0.2 4:0.3 5:0.7 6:0.1 7:0.3 8:0.1 9:0.5 10:0.4 11:0.2 12:0.4 13:0.4 14:0.2 15:0.3 16:0.1 17:0.3 18:0.6 19:0.1 20:0 21:0.1 22:0.3 23:0.3 24:0.3 25:0.1 26:0.1 27:0.3 28:0.3 29:0.3 30:0.7 31:0.2 32:0.6 33:0 34:0.3 35:0.8 36:0.1 37:0.5 38:0.4 39:0.1 40:0 41:0 42:0.2 43:0.1 44:0.2 45:0 46:0 47:0.6 48:0 49:0 50:0 51:0 52:0 53:0 54:0 55:0 56:0 57:0 58:0 59:0.3 60:0 61:0 62:0 63:0 64:0 65:0.1 66:0 67:0 68:0.1 69:0 70:0 71:0 72:0 73:0 74:0 75:0 76:0 77:0 78:0 79:0 80:0.1 81:0 82:0 83:0 84:0 85:0 
6.224447761667999 1:3.4 2:0.1 3:0.3 4:0.3 5:0.8 6:0.1 7:0.3 8:0.3 9:0.4 10:0.6 11:0 12:0.3 13:0.2 14:0.1 15:0.6 16:0.3 17:0.4 18:0.2 19:0.3 20:0 21:0 22:0.4 23:0.1 24:0.3 25:0.3 26:0.3 27:0.2 28:0.2 29:0.1 30:0.2 31:0.7 32:0.5 33:0.2 34:0.2 35:0.4 36:0.5 37:0.1 38:0.4 39:0.4 40:0.2 41:0 42:0.5 43:0.6 44:0 45:0 46:0 47:0.6 48:0 49:0 50:0 51:0 52:0 53:0 54:0 55:0 56:0 57:0 58:0 59:0 60:0 61:0 62:0 63:0 64:0 65:0 66:0 67:0 68:0.1 69:0 70:0 71:0 72:0 73:0 74:0 75:0 76:0 77:0 78:0 79:0 80:0 81:0 82:0 83:0 84:0 85:0 
51.64451809264222 1:1.3 2:0.1 3:0.3 4:0.3 5:0.3 6:0.2 7:0.4 8:0.1 9:0.3 10:0.6 11:0.1 12:0.2 13:0.2 14:0.3 15:0.4 16:0.3 17:0.4 18:0.3 19:0.3 20:0.1 21:0 22:0.4 23:0.1 24:0.2 25:0.3 26:0.2 27:0.3 28:0.2 29:0.1 30:0.3 31:0.6 32:0.6 33:0.2 34:0.2 35:0.6 36:0.3 37:0.2 38:0.3 39:0.4 40:0.2 41:0.1 42:0.5 43:0.6 44:0.2 45:0 46:0 47:0.6 48:0 49:0 50:0 51:0.1 52:0 53:0 54:0 55:0.4 56:0 57:0 58:0 59:0.4 60:0 61:0 62:0 63:0 64:0 65:0.1 66:0 67:0 68:0.1 69:0 70:0 71:0 72:0.1 73:0 74:0 75:0 76:0.2 77:0 78:0 79:0 80:0.1 81:0 82:0 83:0 84:0 85:0 
20.02488556681374 1:0.2 2:0.1 3:0.3 4:0.3 5:0.1 6:0 7:0.6 8:0 9:0.3 10:0.8 11:0 12:0.1 13:0 14:0.4 15:0.5 16:0.4 17:0.3 18:0.3 19:0.2 20:0.3 21:0 22:0.2 23:0.3 24:0.1 25:0.5 26:0.2 27:0 28:0.3 29:0 30:0.2 31:0.7 32:0.7 33:0.2 34:0 35:0.2 36:0.7 37:0 38:0.5 39:0.4 40:0 41:0 42:0.4 43:0.6 44:0 45:0 46:0.4 47:0.6 48:0 49:0 50:0 51:0 52:0 53:0 54:0 55:0 56:0 57:0 58:0 59:0.5 60:0 61:0 62:0 63:0 64:0 65:0 66:0 67:0.1 68:0.2 69:0 70:0 71:0 72:0 73:0 74:0 75:0 76:0 77:0 78:0 79:0 80:0.1 81:0 82:0 83:0 84:0 85:0 
94.79533514689231 1:3.3 2:0.1 3:0.3 4:0.3 5:0.8 6:0.1 7:0.4 8:0.1 9:0.5 10:0.7 11:0.1 12:0.2 13:0.1 14:0.4 15:0.4 16:0.2 17:0.3 18:0.4 19:0.3 20:0 21:0.2 22:0.2 23:0.3 24:0.1 25:0.3 26:0.1 27:0.3 28:0.3 29:0.2 30:0.3 31:0.6 32:0.7 33:0.2 34:0.1 35:0.5 36:0.4 37:0.3 38:0.2 39:0.3 40:0.2 41:0 42:0.4 43:0.3 44:0.2 45:0 46:0 47:0.6 48:0 49:0 50:0 51:0 52:0 53:0 54:0 55:0 56:0 57:0 58:0 59:0.4 60:0 61:0 62:0 63:0 64:0 65:0.1 66:0 67:0 68:0.1 69:0 70:0 71:0 72:0 73:0 74:0 75:0 76:0 77:0 78:0 79:0 80:0.1 81:0 82:0 83:0 84:0 85:0 
94.8864441838308 1:2.4 2:0.1 3:0.2 4:0.3 5:0.5 6:0.1 7:0.5 8:0.1 9:0.3 10:0.4 11:0.1 12:0.5 13:0.4 14:0.2 15:0.3 16:0.1 17:0.3 18:0.5 19:0.1 20:0 21:0.1 22:0.2 23:0.3 24:0.4 25:0.1 26:0.2 27:0.2 28:0.5 29:0.1 30:0.5 31:0.4 32:0.5 33:0.1 34:0.3 35:0.8 36:0.1 37:0.5 38:0.3 39:0.2 40:0 41:0 42:0.3 43:0.2 44:0.2 45:0 46:0 47:0.5 48:0 49:0 50:0 51:0 52:0 53:0 54:0 55:0 56:0 57:0 58:0 59:0.2 60:0 61:0 62:0 63:0 64:0 65:0.1 66:0 67:0 68:0.1 69:0 70:0 71:0 72:0 73:0 74:0 75:0 76:0 77:0 78:0 79:0 80:0.1 81:0 82:0 83:0 84:0 85:0 
3.097597427300771 1:3.6 2:0.1 3:0.3 4:0.3 5:0.8 6:0.1 7:0.5 8:0.2 9:0.2 10:0.5 11:0.1 12:0.3 13:0.3 14:0.3 15:0.4 16:0.2 17:0.4 18:0.4 19:0.2 20:0.1 21:0.1 22:0.4 23:0.2 24:0.2 25:0.2 26:0.2 27:0.3 28:0.2 29:0.2 30:0.4 31:0.5 32:0.4 33:0.2 34:0.3 35:0.6 36:0.3 37:0.2 38:0.4 39:0.4 40:0.1 41:0 42:0.4 43:0.3 44:0 45:0 46:0 47:0 48:0 49:0 50:0 51:0 52:0 53:0 54:0 55:0 56:0 57:0 58:0 59:0.3 60:0 61:0 62:0 63:0 64:0 65:0 66:0 67:0 68:0 69:0 70:0 71:0 72:0 73:0 74:0 75:0 76:0 77:0 78:0 79:0 80:0.1 81:0 82:0 83:0 84:0 85:0 
2.275220125762996 1:3.3 2:0.1 3:0.3 4:0.3 5:0.8 6:0.1 7:0.4 8:0.2 9:0.3 10:0.7 11:0.1 12:0.2 13:0.2 14:0.3 15:0.4 16:0.1 17:0.3 18:0.5 19:0.1 20:0.1 21:0.1 22:0.2 23:0.3 24:0.3 25:0.2 26:0.2 27:0.2 28:0.4 29:0.1 30:0.4 31:0.5 32:0.6 33:0.2 34:0.2 35:0.7 36:0.2 37:0.1 38:0.4 39:0.4 40:0.1 41:0 42:0.4 43:0.3 44:0 45:0 46:0 47:0 48:0 49:0 50:0 51:0 52:0 53:0 54:0 55:0 56:0 57:0 58:0 59:0 60:0 61:0 62:0 63:0 64:0 65:0 66:0 67:0 68:0 69:0 70:0 71:0 72:0 73:0 74:0 75:0 76:0 77:0 78:0 79:0 80:0 81:0 82:0 83:0 84:0 85:0 
290.645963130791 1:1.1 2:0.1 3:0.3 4:0.3 5:0.3 6:0.2 7:0.7 8:0 9:0 10:0.9 11:0 12:0 13:0.2 14:0.3 15:0.4 16:0 17:0.5 18:0.4 19:0.5 20:0 21:0 22:0.4 23:0 24:0.1 25:0.1 26:0.2 27:0.4 28:0.2 29:0.2 30:0.1 31:0.8 32:0.7 33:0.2 34:0 35:0.7 36:0.2 37:0.2 38:0.4 39:0.3 40:0 41:0.1 42:0.4 43:0.6 44:0.2 45:0 46:0 47:0.6 48:0 49:0 50:0 51:0 52:0 53:0 54:0 55:0 56:0 57:0 58:0 59:0.4 60:0 61:0 62:0.1 63:0 64:0 65:0.1 66:0 67:0 68:0.1 69:0 70:0 71:0 72:0 73:0 74:0 75:0 76:0 77:0 78:0 79:0 80:0.2 81:0 82:0 83:0.2 84:0 85:0 
0.7662120776250825 1:3.4 2:0.1 3:0.3 4:0.3 5:0.8 6:0.1 7:0.4 8:0.1 9:0.4 10:0.7 11:0.1 12:0.2 13:0 14:0.6 15:0.3 16:0 17:0.6 18:0.3 19:0.4 20:0 21:0 22:0.2 23:0.2 24:0.1 25:0 26:0.5 27:0 28:0.4 29:0 30:0.3 31:0.6 32:0.6 33:0.2 34:0.1 35:0.5 36:0.4 37:0 38:0.9 39:0 40:0 41:0 42:0.3 43:0.6 44:0.2 45:0 46:0 47:0.5 48:0 49:0 50:0 51:0 52:0 53:0 54:0 55:0 56:0 57:0 58:0 59:0.4 60:0 61:0 62:0 63:0 64:0 65:0.1 66:0 67:0 68:0.1 69:0 70:0 71:0 72:0 73:0 74:0 75:0 76:0 77:0 78:0 79:0 80:0.1 81:0 82:0 83:0 84:0 85:0 
89.59768543133876 1:3.8 2:0.1 3:0.2 4:0.4 5:0.9 6:0.1 7:0.5 8:0.2 9:0.1 10:0.6 11:0.1 12:0.3 13:0.3 14:0.4 15:0.3 16:0.2 17:0.5 18:0.3 19:0.2 20:0 21:0 22:0.5 23:0.1 24:0.2 25:0.1 26:0.2 27:0.2 28:0.4 29:0.1 30:0.7 31:0.2 32:0.5 33:0.1 34:0.3 35:0.6 36:0.3 37:0.5 38:0.2 39:0.2 40:0.1 41:0 42:0.3 43:0.4 44:0 45:0 46:0 47:0 48:0 49:0 50:0 51:0 52:0 53:0 54:0 55:0 56:0 57:0 58:0 59:0.3 60:0 61:0 62:0 63:0 64:0 65:0 66:0 67:0 68:0 69:0 70:0 71:0 72:0 73:0 74:0 75:0 76:0 77:0 78:0 79:0 80:0.1 81:0 82:0 83:0 84:0 85:0 
289.5991873761311 1:3 2:0.1 3:0.2 4:0.4 5:0.7 6:0.1 7:0.4 8:0.2 9:0.3 10:0.6 11:0.2 12:0.1 13:0.2 14:0.7 15:0.1 16:0.2 17:0.3 18:0.5 19:0.3 20:0.1 21:0 22:0.2 23:0.2 24:0.2 25:0.2 26:0.1 27:0.1 28:0.4 29:0.2 30:0.7 31:0.2 32:0.7 33:0.2 34:0.1 35:0.5 36:0.4 37:0.3 38:0.2 39:0.4 40:0.1 41:0 42:0.3 43:0.2 44:0.2 45:0 46:0 47:0.5 48:0 49:0 50:0 51:0 52:0 53:0 54:0 55:0 56:0 57:0 58:0 59:0.2 60:0 61:0 62:0 63:0 64:0 65:0.1 66:0 67:0 68:0.1 69:0 70:0 71:0 72:0 73:0 74:0 75:0 76:0 77:0 78:0 79:0 80:0.1 81:0 82:0 83:0 84:0 85:0 
32.60632770816052 1:1 2:0.1 3:0.4 4:0.2 5:0.3 6:0.1 7:0.2 8:0.1 9:0.5 10:0.7 11:0.2 12:0 13:0 14:0.2 15:0.7 16:0.2 17:0.5 18:0.2 19:0.3 20:0.1 21:0 22:0.4 23:0.2 24:0 25:0.2 26:0.4 27:0.2 28:0.2 29:0 30:0 31:0.9 32:0.7 33:0.1 34:0.2 35:0.6 36:0.3 37:0.1 38:0.5 39:0.3 40:0.1 41:0 42:0.4 43:0.8 44:0 45:0 46:0 47:0 48:0 49:0 50:0 51:0 52:0 53:0 54:0 55:0 56:0 57:0 58:0 59:0.3 60:0 61:0 62:0 63:0 64:0 65:0 66:0 67:0 68:0 69:0 70:0 71:0 72:0 73:0 74:0 75:0 76:0 77:0 78:0 79:0 80:0.1 81:0 82:0 83:0 84:0 85:0 
44.35557151062801 1:1.2 2:0.2 3:0.4 4:0.2 5:0.3 6:0 7:0.2 8:0 9:0.7 10:0.9 11:0 12:0 13:0 14:0 15:0.9 16:0 17:0.3 18:0.6 19:0 20:0 21:0 22:0.7 23:0 24:0.2 25:0 26:0.2 27:0 28:0.6 29:0.2 30:0 31:0.9 32:0.9 33:0 34:0 35:0.9 36:0 37:0.2 38:0 39:0.5 40:0.2 41:0 42:0.5 43:0.7 44:0.2 45:0 46:0 47:0 48:0 49:0 50:0 51:0 52:0 53:0 54:0 55:0 56:0 57:0.2 58:0 59:0.4 60:0 61:0 62:0 63:0 64:0 65:0.1 66:0 67:0 68:0 69:0 70:0 71:0 72:0 73:0 74:0 75:0 76:0 77:0 78:0.1 79:0 80:0.1 81:0 82:0 83:0 84:0 85:0 
0.9714615756743529 1:3.8 2:0.1 3:0.3 4:0.3 5:0.9 6:0.1 7:0.5 8:0.1 9:0.3 10:0.7 11:0.1 12:0.2 13:0.2 14:0.3 15:0.5 16:0.2 17:0.4 18:0.4 19:0.3 20:0.1 21:0.2 22:0.2 23:0.2 24:0.1 25:0.3 26:0.2 27:0.3 28:0.3 29:0.1 30:0.3 31:0.6 32:0.6 33:0.2 34:0.1 35:0.5 36:0.4 37:0.3 38:0.2 39:0.3 40:0.2 41:0.1 42:0.4 43:0.3 44:0.2 45:0 46:0 47:0.6 48:0 49:0 50:0 51:0 52:0 53:0 54:0 55:0.3 56:0 57:0 58:0 59:0.4 60:0 61:0 62:0 63:0 64:0 65:0.1 66:0 67:0 68:0.1 69:0 70:0 71:0 72:0 73:0 74:0 75:0 76:0.2 77:0 78:0 79:0 80:0.1 81:0 82:0 83:0 84:0 85:0 
500 1:3.8 2:0.1 3:0.3 4:0.2 5:0.9 6:0 7:0.6 8:0 9:0.3 10:0.5 11:0.2 12:0.2 13:0.2 14:0.2 15:0.5 16:0 17:0.2 18:0.7 19:0 20:0 21:0 22:0.2 23:0.7 24:0 25:0 26:0 27:0 28:0.9 29:0 30:0.2 31:0.7 32:0.9 33:0 34:0 35:0.7 36:0.2 37:0 38:0.9 39:0 40:0 41:0 42:0.3 43:0.4 44:0 45:0 46:0 47:0 48:0 49:0 50:0 51:0 52:0 53:0 54:0 55:0 56:0 57:0 58:0 59:0 60:0 61:0 62:0 63:0 64:0 65:0 66:0 67:0 68:0 69:0 70:0 71:0 72:0 73:0 74:0 75:0 76:0 77:0 78:0 79:0 80:0 81:0 82:0 83:0 84:0 85:0 
68.39576409351301 1:3.5 2:0.1 3:0.3 4:0.3 5:0.8 6:0.1 7:0.7 8:0.1 9:0.2 10:0.7 11:0 12:0.2 13:0.2 14:0.2 15:0.5 16:0.4 17:0.4 18:0.2 19:0.4 20:0.2 21:0 22:0.2 23:0.1 24:0.2 25:0.4 26:0.2 27:0.3 28:0.2 29:0 30:0.1 31:0.8 32:0.6 33:0.1 34:0.2 35:0.5 36:0.4 37:0.2 38:0.3 39:0.4 40:0.1 41:0 42:0.5 43:0.5 44:0.2 45:0 46:0 47:0.6 48:0 49:0 50:0 51:0 52:0 53:0 54:0 55:0 56:0 57:0 58:0 59:0.4 60:0 61:0 62:0 63:0 64:0 65:0.1 66:0 67:0 68:0.1 69:0 70:0 71:0 72:0 73:0 74:0 75:0 76:0 77:0 78:0 79:0 80:0.1 81:0 82:0 83:0 84:0 85:0 
19.69282570228471 1:0.8 2:0.1 3:0.4 4:0.3 5:0.2 6:0.1 7:0.5 8:0.1 9:0.3 10:0.7 11:0.1 12:0.2 13:0 14:0.2 15:0.7 16:0.3 17:0.4 18:0.2 19:0.2 20:0.1 21:0 22:0.4 23:0.3 24:0.1 25:0.2 26:0.3 27:0.2 28:0.3 29:0.1 30:0.1 31:0.8 32:0.7 33:0 34:0.2 35:0.5 36:0.4 37:0.1 38:0.3 39:0.4 40:0.2 41:0.1 42:0.6 43:0.7 44:0 45:0 46:0 47:0 48:0 49:0 50:0 51:0 52:0 53:0 54:0 55:0 56:0 57:0 58:0 59:0.4 60:0 61:0 62:0 63:0 64:0 65:0 66:0 67:0 68:0 69:0 70:0 71:0 72:0 73:0 74:0 75:0 76:0 77:0 78:0 79:0 80:0.1 81:0 82:0 83:0 84:0 85:0 
97.79875457221513 1:3.5 2:0.1 3:0.2 4:0.4 5:0.8 6:0 7:0.2 8:0 9:0.7 10:0.6 11:0 12:0.3 13:0.5 14:0.3 15:0.2 16:0.3 17:0.4 18:0.2 19:0.7 20:0 21:0 22:0 23:0.2 24:0 25:0.4 26:0 27:0.4 28:0.1 29:0 30:0 31:0.9 32:0.9 33:0 34:0 35:0.2 36:0.7 37:0.2 38:0.2 39:0.5 40:0 41:0 42:0.4 43:0.5 44:0 45:0 46:0 47:0.5 48:0 49:0 50:0 51:0 52:0 53:0 54:0 55:0 56:0 57:0 58:0 59:0 60:0 61:0 62:0 63:0 64:0 65:0 66:0 67:0 68:0.1 69:0 70:0 71:0 72:0 73:0 74:0 75:0 76:0 77:0 78:0 79:0 80:0 81:0 82:0 83:0 84:0 85:0 
112.4963887141576 1:0.8 2:0.1 3:0.4 4:0.2 5:0.2 6:0.2 7:0.3 8:0.3 9:0.2 10:0.9 11:0 12:0 13:0 14:0 15:0.9 16:0.2 17:0.3 18:0.4 19:0.2 20:0 21:0 22:0.6 23:0.2 24:0 25:0 26:0.2 27:0.4 28:0.4 29:0 30:0.2 31:0.7 32:0.9 33:0 34:0 35:0.9 36:0 37:0 38:0 39:0.4 40:0.5 41:0 42:0.8 43:0.7 44:0.2 45:0 46:0 47:0.6 48:0 49:0 50:0 51:0 52:0 53:0 54:0 55:0 56:0 57:0 58:0 59:0.4 60:0 61:0 62:0 63:0 64:0 65:0.1 66:0 67:0 68:0.1 69:0 70:0 71:0 72:0 73:0 74:0 75:0 76:0 77:0 78:0 79:0 80:0.1 81:0 82:0 83:0 84:0 85:0 
2.223428850259957 1:0.8 2:0.1 3:0.3 4:0.3 5:0.2 6:0 7:0.3 8:0 9:0.6 10:0.7 11:0.2 12:0 13:0 14:0.4 15:0.5 16:0.4 17:0.4 18:0.2 19:0.3 20:0.3 21:0 22:0.4 23:0 24:0 25:0.3 26:0.3 27:0.2 28:0.2 29:0 30:0.5 31:0.4 32:0.7 33:0.2 34:0 35:0.2 36:0.7 37:0 38:0.2 39:0.6 40:0.2 41:0 42:0.6 43:0.7 44:0 45:0 46:0 47:0.5 48:0 49:0 50:0 51:0 52:0 53:0 54:0 55:0 56:0 57:0 58:0 59:0 60:0 61:0 62:0 63:0 64:0 65:0 66:0 67:0 68:0.1 69:0 70:0 71:0 72:0 73:0 74:0 75:0 76:0 77:0 78:0 79:0 80:0 81:0 82:0 83:0 84:0 85:0 
30.16817925265999 1:0.8 2:0.1 3:0.4 4:0.3 5:0.2 6:0.1 7:0.5 8:0.1 9:0.3 10:0.7 11:0.1 12:0.2 13:0 14:0.2 15:0.7 16:0.3 17:0.4 18:0.2 19:0.2 20:0.1 21:0 22:0.4 23:0.3 24:0.1 25:0.2 26:0.3 27:0.2 28:0.3 29:0.1 30:0.1 31:0.8 32:0.7 33:0 34:0.2 35:0.5 36:0.4 37:0.1 38:0.3 39:0.4 40:0.2 41:0.1 42:0.6 43:0.7 44:0.2 45:0 46:0 47:0.6 48:0 49:0 50:0 51:0 52:0 53:0 54:0 55:0.4 56:0 57:0 58:0 59:0.4 60:0 61:0 62:0 63:0 64:0 65:0.1 66:0 67:0 68:0.1 69:0 70:0 71:0 72:0 73:0 74:0 75:0 76:0.1 77:0 78:0 79:0 80:0.1 81:0 82:0 83:0 84:0 85:0 
6.204846771543361 1:1.1 2:0.1 3:0.2 4:0.3 5:0.3 6:0.1 7:0.4 8:0.1 9:0.4 10:0.7 11:0.1 12:0.2 13:0.4 14:0.4 15:0.2 16:0 17:0.3 18:0.6 19:0 20:0 21:0 22:0.9 23:0 24:0 25:0 26:0.3 27:0.1 28:0.5 29:0.1 30:0.7 31:0.2 32:0.6 33:0.2 34:0.1 35:0.5 36:0.4 37:0.5 38:0.3 39:0.1 40:0 41:0 42:0.3 43:0.6 44:0 45:0 46:0 47:0 48:0 49:0 50:0 51:0 52:0 53:0 54:0.4 55:0 56:0 57:0 58:0 59:0 60:0 61:0 62:0 63:0 64:0 65:0 66:0 67:0 68:0 69:0 70:0 71:0 72:0 73:0 74:0 75:0.1 76:0 77:0 78:0 79:0 80:0 81:0 82:0 83:0 84:0 85:0 
9.243055902814991 1:2.4 2:0.1 3:0.4 4:0.2 5:0.5 6:0 7:0.5 8:0.1 9:0.4 10:0.8 11:0.1 12:0.1 13:0.1 14:0.2 15:0.6 16:0.1 17:0.3 18:0.6 19:0 20:0 21:0 22:0.5 23:0.1 24:0.3 25:0 26:0.1 27:0.3 28:0.5 29:0.1 30:0.7 31:0.2 32:0.8 33:0.1 34:0.1 35:0.9 36:0 37:0.2 38:0.6 39:0.2 40:0 41:0 42:0.3 43:0.2 44:0.2 45:0 46:0 47:0.6 48:0 49:0 50:0 51:0 52:0 53:0 54:0 55:0 56:0 57:0 58:0 59:0.3 60:0 61:0 62:0 63:0 64:0 65:0.1 66:0 67:0 68:0.1 69:0 70:0 71:0 72:0 73:0 74:0 75:0 76:0 77:0 78:0 79:0 80:0.1 81:0 82:0 83:0 84:0 85:0 
500 1:3.3 2:0.1 3:0.3 4:0.3 5:0.8 6:0 7:0.5 8:0.1 9:0.3 10:0.7 11:0.1 12:0.2 13:0.2 14:0.3 15:0.4 16:0.2 17:0.3 18:0.4 19:0.3 20:0.1 21:0.1 22:0.2 23:0.2 24:0.3 25:0.3 26:0.1 27:0.3 28:0.3 29:0.1 30:0.2 31:0.7 32:0.7 33:0.2 34:0.1 35:0.5 36:0.4 37:0.2 38:0.4 39:0.3 40:0.1 41:0.1 42:0.4 43:0.3 44:0.2 45:0 46:0 47:0.6 48:0 49:0 50:0 51:0 52:0 53:0 54:0 55:0.3 56:0 57:0 58:0 59:0.4 60:0 61:0 62:0 63:0 64:0 65:0.1 66:0 67:0 68:0.1 69:0 70:0 71:0 72:0 73:0 74:0 75:0 76:0.2 77:0 78:0 79:0 80:0.1 81:0 82:0 83:0 84:0 85:0 
4.681766230183578 1:3.9 2:0.1 3:0.2 4:0.2 5:0.9 6:0 7:0.5 8:0 9:0.4 10:0.5 11:0.2 12:0.3 13:0.4 14:0.4 15:0.2 16:0 17:0.5 18:0.4 19:0 20:0 21:0 22:0.5 23:0.4 24:0.1 25:0 26:0.4 27:0.2 28:0.4 29:0 30:0 31:0.9 32:0.7 33:0.2 34:0 35:0.7 36:0.2 37:0 38:0.8 39:0.1 40:0 41:0 42:0.3 43:0.5 44:0.2 45:0 46:0 47:0 48:0 49:0 50:0 51:0 52:0 53:0 54:0 55:0 56:0 57:0 58:0 59:0.4 60:0 61:0 62:0 63:0 64:0 65:0.1 66:0 67:0 68:0 69:0 70:0 71:0 72:0 73:0 74:0 75:0 76:0 77:0 78:0 79:0 80:0.1 81:0 82:0 83:0 84:0 85:0 
10.50248750373347 1:3.8 2:0.1 3:0.3 4:0.2 5:0.9 6:0 7:0.6 8:0.3 9:0 10:0.9 11:0 12:0 13:0 14:0.4 15:0.5 16:0.2 17:0.4 18:0.4 19:0.2 20:0.2 21:0 22:0.4 23:0.2 24:0.1 25:0.2 26:0.3 27:0.2 28:0.4 29:0 30:0.9 31:0 32:0.7 33:0 34:0.2 35:0.6 36:0.3 37:0.2 38:0.5 39:0.3 40:0 41:0 42:0.3 43:0.4 44:0 45:0 46:0 47:0.5 48:0 49:0 50:0 51:0 52:0 53:0 54:0 55:0.4 56:0 57:0 58:0 59:0.2 60:0 61:0 62:0 63:0 64:0 65:0 66:0 67:0 68:0.1 69:0 70:0 71:0 72:0 73:0 74:0 75:0 76:0.2 77:0 78:0 79:0 80:0.1 81:0 82:0 83:0 84:0 85:0 
245.9301453808132 1:3.3 2:0.1 3:0.2 4:0.3 5:0.8 6:0 7:0.9 8:0 9:0 10:0.9 11:0 12:0 13:0 14:0.5 15:0.4 16:0 17:0.5 18:0.4 19:0 20:0 21:0 22:0.1 23:0.8 24:0.1 25:0 26:0 27:0.1 28:0.8 29:0 30:0.1 31:0.8 32:0.5 33:0 34:0.4 35:0.9 36:0 37:0.1 38:0.4 39:0 40:0.5 41:0 42:0.6 43:0.3 44:0.2 45:0 46:0 47:0.6 48:0 49:0 50:0 51:0 52:0 53:0 54:0 55:0 56:0 57:0 58:0 59:0.5 60:0 61:0 62:0 63:0 64:0 65:0.1 66:0 67:0 68:0.1 69:0 70:0 71:0 72:0 73:0 74:0 75:0 76:0 77:0 78:0 79:0 80:0.2 81:0 82:0 83:0 84:0 85:0 
9.1604034110323 1:3.3 2:0.1 3:0.3 4:0.2 5:0.8 6:0 7:0.4 8:0.2 9:0.4 10:0.8 11:0.1 12:0 13:0 14:0.2 15:0.7 16:0 17:0.3 18:0.6 19:0 20:0 21:0 22:0.4 23:0.3 24:0.3 25:0 26:0.1 27:0.3 28:0.6 29:0 30:0.3 31:0.6 32:0.6 33:0.3 34:0 35:0.9 36:0 37:0.2 38:0.5 39:0.2 40:0.2 41:0 42:0.4 43:0.3 44:0.2 45:0 46:0 47:0.5 48:0 49:0.4 50:0 51:0 52:0 53:0 54:0 55:0 56:0 57:0 58:0 59:0.4 60:0 61:0 62:0 63:0 64:0 65:0.1 66:0 67:0 68:0.1 69:0 70:0.1 71:0 72:0 73:0 74:0 75:0 76:0 77:0 78:0 79:0 80:0.1 81:0 82:0 83:0 84:0 85:0 
3.918535268118453 1:3.5 2:0.1 3:0.2 4:0.4 5:0.8 6:0.2 7:0.4 8:0.2 9:0.2 10:0.9 11:0 12:0 13:0.4 14:0.2 15:0.4 16:0.1 17:0.6 18:0.3 19:0.3 20:0.1 21:0 22:0.3 23:0.2 24:0.2 25:0.1 26:0.3 27:0.2 28:0.4 29:0 30:0.4 31:0.5 32:0.9 33:0 34:0 35:0.5 36:0.4 37:0.1 38:0.7 39:0.1 40:0.1 41:0 42:0.3 43:0.5 44:0 45:0 46:0 47:0.5 48:0 49:0 50:0 51:0 52:0 53:0 54:0 55:0 56:0 57:0 58:0 59:0 60:0 61:0 62:0 63:0 64:0 65:0 66:0 67:0 68:0.1 69:0 70:0 71:0 72:0 73:0 74:0 75:0 76:0 77:0 78:0 79:0 80:0 81:0 82:0 83:0 84:0 85:0 
77.79229313223536 1:3.8 2:0.1 3:0.3 4:0.3 5:0.9 6:0 7:0.4 8:0 9:0.5 10:0.9 11:0 12:0 13:0 14:0.3 15:0.6 16:0.1 17:0.2 18:0.7 19:0.1 20:0 21:0 22:0.3 23:0.4 24:0.2 25:0.1 26:0.1 27:0.1 28:0.6 29:0.1 30:0.5 31:0.4 32:0.6 33:0.1 34:0.2 35:0.7 36:0.2 37:0.2 38:0.4 39:0.3 40:0.1 41:0 42:0.4 43:0.4 44:0.2 45:0 46:0 47:0 48:0 49:0 50:0 51:0 52:0 53:0 54:0 55:0 56:0 57:0 58:0 59:0.4 60:0 61:0 62:0 63:0 64:0 65:0.1 66:0 67:0 68:0 69:0 70:0 71:0 72:0 73:0 74:0 75:0 76:0 77:0 78:0 79:0 80:0.1 81:0 82:0 83:0 84:0 85:0 
34.24364135797867 1:0.3 2:0.1 3:0.2 4:0.4 5:0.1 6:0 7:0.5 8:0 9:0.4 10:0.5 11:0 12:0.4 13:0.3 14:0.4 15:0.3 16:0.2 17:0.5 18:0.3 19:0.4 20:0.2 21:0 22:0.2 23:0 24:0.3 25:0.5 26:0 27:0.2 28:0.2 29:0 30:0.4 31:0.5 32:0.7 33:0 34:0.2 35:0.7 36:0.2 37:0 38:0.4 39:0.5 40:0 41:0 42:0.5 43:0.6 44:0.2 45:0 46:0 47:0.6 48:0 49:0 50:0 51:0 52:0 53:0 54:0 55:0 56:0 57:0 58:0 59:0.4 60:0 61:0 62:0 63:0 64:0.3 65:0.1 66:0 67:0 68:0.1 69:0 70:0 71:0 72:0 73:0 74:0 75:0 76:0 77:0 78:0 79:0 80:0.1 81:0 82:0 83:0 84:0 85:0.1 
0.02178624323216199 1:2.5 2:0.1 3:0.1 4:0.5 5:0.6 6:0 7:0.4 8:0.2 9:0.4 10:0.3 11:0 12:0.6 13:0.6 14:0.3 15:0 16:0.2 17:0.7 18:0 19:0.2 20:0 21:0 22:0.7 23:0 24:0 25:0.3 26:0.5 27:0.2 28:0 29:0 30:0.9 31:0 32:0.5 33:0 34:0.4 35:0.2 36:0.7 37:0.2 38:0 39:0.7 40:0 41:0 42:0.5 43:0.2 44:0 45:0 46:0 47:0 48:0 49:0 50:0 51:0 52:0 53:0 54:0 55:0 56:0 57:0 58:0 59:0.2 60:0 61:0 62:0 63:0 64:0 65:0 66:0 67:0 68:0 69:0 70:0 71:0 72:0 73:0 74:0 75:0 76:0 77:0 78:0 79:0 80:0.1 81:0 82:0 83:0 84:0 85:0 
0.03892233731325031 1:2.9 2:0.1 3:0.2 4:0.3 5:0.7 6:0.1 7:0.5 8:0.1 9:0.2 10:0.6 11:0.2 12:0.2 13:0.1 14:0.7 15:0.2 16:0.1 17:0.4 18:0.5 19:0.1 20:0 21:0 22:0.4 23:0.3 24:0.3 25:0.1 26:0.3 27:0.1 28:0.3 29:0.3 30:0.1 31:0.8 32:0.8 33:0 34:0.1 35:0.6 36:0.3 37:0.1 38:0.5 39:0.4 40:0 41:0 42:0.4 43:0.3 44:0.2 45:0 46:0 47:0.6 48:0 49:0 50:0 51:0 52:0 53:0 54:0 55:0.3 56:0 57:0 58:0 59:0.4 60:0 61:0 62:0 63:0 64:0 65:0.1 66:0 67:0 68:0.1 69:0 70:0 71:0 72:0 73:0 74:0 75:0 76:0.2 77:0 78:0 79:0 80:0.1 81:0 82:0 83:0 84:0 85:0 
415.6665772295081 1:3.4 2:0.1 3:0.2 4:0.3 5:0.8 6:0 7:0.5 8:0.2 9:0.2 10:0.6 11:0.1 12:0.2 13:0.2 14:0.3 15:0.4 16:0.3 17:0.1 18:0.6 19:0.2 20:0 21:0 22:0.3 23:0.3 24:0.2 25:0.2 26:0.1 27:0.2 28:0.5 29:0 30:0.2 31:0.7 32:0.7 33:0 34:0.2 35:0.8 36:0.1 37:0.2 38:0.5 39:0.2 40:0 41:0 42:0.3 43:0.6 44:0 45:0 46:0 47:0.6 48:0 49:0 50:0 51:0 52:0 53:0 54:0 55:0 56:0 57:0 58:0 59:0 60:0 61:0 62:0 63:0 64:0 65:0 66:0 67:0 68:0.1 69:0 70:0 71:0 72:0 73:0 74:0 75:0 76:0 77:0 78:0 79:0 80:0 81:0 82:0 83:0 84:0 85:0 
240.3093400941398 1:3.3 2:0.1 3:0.2 4:0.3 5:0.8 6:0 7:0.7 8:0.2 9:0 10:0.9 11:0 12:0 13:0.3 14:0.4 15:0.3 16:0.3 17:0.4 18:0.3 19:0.1 20:0 21:0 22:0.1 23:0.4 24:0.4 25:0.1 26:0.1 27:0.5 28:0.2 29:0.2 30:0.2 31:0.7 32:0.7 33:0 34:0.2 35:0.7 36:0.2 37:0.1 38:0.3 39:0.4 40:0.3 41:0 42:0.7 43:0.3 44:0 45:0 46:0 47:0.6 48:0 49:0 50:0 51:0 52:0 53:0 54:0 55:0 56:0 57:0 58:0 59:0 60:0 61:0 62:0 63:0 64:0 65:0 66:0 67:0 68:0.2 69:0 70:0 71:0 72:0 73:0 74:0 75:0 76:0 77:0 78:0 79:0 80:0 81:0 82:0 83:0 84:0 85:0 
85.9147161063967 1:0.2 2:0.1 3:0.3 4:0.3 5:0.1 6:0.1 7:0.6 8:0.1 9:0.2 10:0.6 11:0.1 12:0.2 13:0.2 14:0.3 15:0.4 16:0.1 17:0.3 18:0.5 19:0.2 20:0.1 21:0.1 22:0.4 23:0.2 24:0.2 25:0.1 26:0.2 27:0.3 28:0.4 29:0.1 30:0.2 31:0.7 32:0.5 33:0.2 34:0.3 35:0.5 36:0.4 37:0.2 38:0.4 39:0.3 40:0.1 41:0.1 42:0.4 43:0.6 44:0 45:0 46:0 47:0 48:0 49:0 50:0 51:0 52:0 53:0 54:0 55:0 56:0 57:0 58:0 59:0 60:0 61:0 62:0.1 63:0 64:0 65:0 66:0 67:0 68:0 69:0 70:0 71:0 72:0 73:0 74:0 75:0 76:0 77:0 78:0 79:0 80:0 81:0 82:0 83:0.1 84:0 85:0 
0.2551234662855147 1:3.8 2:0.1 3:0.3 4:0.3 5:0.9 6:0.1 7:0.6 8:0.2 9:0.2 10:0.7 11:0.1 12:0.2 13:0 14:0.3 15:0.6 16:0 17:0 18:0.9 19:0 20:0 21:0 22:0.3 23:0.6 24:0 25:0 26:0 27:0 28:0.9 29:0 30:0 31:0.9 32:0.7 33:0.1 34:0.2 35:0.7 36:0.2 37:0 38:0.9 39:0 40:0 41:0 42:0.3 43:0.4 44:0 45:0 46:0 47:0 48:0 49:0 50:0 51:0 52:0 53:0 54:0 55:0 56:0 57:0 58:0 59:0 60:0 61:0 62:0 63:0 64:0 65:0 66:0 67:0 68:0 69:0 70:0 71:0 72:0 73:0 74:0 75:0 76:0 77:0 78:0 79:0 80:0 81:0 82:0 83:0 84:0 85:0 
1.192616380485971 1:3.6 2:0.1 3:0.2 4:0.5 5:0.8 6:0.1 7:0.4 8:0.2 9:0.3 10:0.3 11:0 12:0.6 13:0.5 14:0.3 15:0.2 16:0.2 17:0.2 18:0.6 19:0.2 20:0.2 21:0 22:0.3 23:0.2 24:0.3 25:0.1 26:0.1 27:0.2 28:0.4 29:0.2 30:0.8 31:0.1 32:0.2 33:0.2 34:0.5 35:0.5 36:0.4 37:0.7 38:0.1 39:0 40:0 41:0.1 42:0.3 43:0.3 44:0 45:0 46:0 47:0 48:0 49:0 50:0 51:0 52:0 53:0 54:0 55:0 56:0 57:0 58:0 59:0.3 60:0 61:0 62:0 63:0 64:0 65:0 66:0 67:0 68:0 69:0 70:0 71:0 72:0 73:0 74:0 75:0 76:0 77:0 78:0 79:0 80:0.1 81:0 82:0 83:0 84:0 85:0 
0.9022407884351272 1:0.2 2:0.1 3:0.4 4:0.2 5:0.1 6:0.1 7:0.4 8:0.1 9:0.4 10:0.7 11:0.1 12:0.2 13:0.2 14:0.4 15:0.4 16:0.5 17:0.4 18:0 19:0 20:0.5 21:0.4 22:0 23:0 24:0 25:0.9 26:0 27:0 28:0 29:0 30:0.4 31:0.5 32:0.6 33:0.2 34:0.1 35:0.5 36:0.4 37:0 38:0 39:0.9 40:0 41:0 42:0.6 43:0.6 44:0.2 45:0 46:0 47:0.6 48:0 49:0 50:0 51:0 52:0 53:0 54:0 55:0 56:0 57:0 58:0 59:0.4 60:0 61:0 62:0 63:0 64:0 65:0.1 66:0 67:0 68:0.1 69:0 70:0 71:0 72:0 73:0 74:0 75:0 76:0 77:0 78:0 79:0 80:0.1 81:0 82:0 83:0 84:0 85:0 
5.544354708643266 1:3.3 2:0.1 3:0.3 4:0.3 5:0.8 6:0 7:0.7 8:0 9:0.2 10:0.8 11:0 12:0.1 13:0 14:0.3 15:0.6 16:0 17:0.3 18:0.6 19:0.1 20:0.2 21:0.1 22:0.3 23:0.3 24:0.2 25:0.2 26:0 27:0.1 28:0.7 29:0 30:0.4 31:0.5 32:0.7 33:0.2 34:0 35:0.7 36:0.2 37:0.4 38:0.3 39:0.3 40:0 41:0 42:0.3 43:0.3 44:0.2 45:0 46:0 47:0 48:0 49:0 50:0 51:0 52:0 53:0 54:0 55:0 56:0 57:0 58:0 59:0.3 60:0 61:0 62:0 63:0 64:0 65:0.1 66:0 67:0 68:0 69:0 70:0 71:0 72:0 73:0 74:0 75:0 76:0 77:0 78:0 79:0 80:0.1 81:0 82:0 83:0 84:0 85:0 
0.1068049473724487 1:0.3 2:0.1 3:0.2 4:0.5 5:0.1 6:0 7:0.8 8:0 9:0.1 10:0.7 11:0.2 12:0 13:0 14:0.6 15:0.3 16:0.1 17:0.1 18:0.8 19:0.4 20:0.2 21:0 22:0.2 23:0.2 24:0.2 25:0.1 26:0.1 27:0.1 28:0.6 29:0.1 30:0.1 31:0.8 32:0.6 33:0.2 34:0.2 35:0.4 36:0.5 37:0.4 38:0.4 39:0.1 40:0.1 41:0 42:0.3 43:0.6 44:0.2 45:0 46:0 47:0.6 48:0 49:0.5 50:0 51:0 52:0 53:0 54:0 55:0 56:0 57:0 58:0 59:0.4 60:0 61:0 62:0 63:0 64:0 65:0.1 66:0 67:0 68:0.1 69:0 70:0.1 71:0 72:0 73:0 74:0 75:0 76:0 77:0 78:0 79:0 80:0.1 81:0 82:0 83:0 84:0 85:0 
2.072078032914256 1:3 2:0.1 3:0.2 4:0.4 5:0.7 6:0.2 7:0.6 8:0.2 9:0.2 10:0.2 11:0 12:0.7 13:0.4 14:0.3 15:0.2 16:0 17:0.4 18:0.6 19:0.1 20:0 21:0.1 22:0.1 23:0.1 24:0.7 25:0 26:0.1 27:0.1 28:0.7 29:0.1 30:0.1 31:0.8 32:0.5 33:0 34:0.4 35:0.9 36:0 37:0.4 38:0.3 39:0.3 40:0 41:0 42:0.3 43:0.2 44:0.2 45:0 46:0 47:0.6 48:0 49:0 50:0 51:0 52:0 53:0 54:0 55:0.3 56:0 57:0.2 58:0 59:0.4 60:0 61:0 62:0 63:0 64:0 65:0.1 66:0 67:0 68:0.1 69:0 70:0 71:0 72:0 73:0 74:0 75:0 76:0.2 77:0 78:0.1 79:0 80:0.1 81:0 82:0 83:0 84:0 85:0 
0.2912035260775008 1:4 2:0.1 3:0.3 4:0.2 5:1 6:0 7:0.6 8:0 9:0.3 10:0.6 11:0.3 12:0 13:0 14:0.5 15:0.4 16:0.1 17:0.7 18:0.2 19:0.3 20:0 21:0.3 22:0.3 23:0 24:0.1 25:0.4 26:0.2 27:0.2 28:0.2 29:0 30:0 31:0.9 32:0.4 33:0.5 34:0 35:0.3 36:0.6 37:0 38:0.4 39:0.4 40:0.2 41:0 42:0.5 43:0.3 44:0 45:0 46:0 47:0.7 48:0 49:0 50:0 51:0.2 52:0 53:0 54:0 55:0 56:0 57:0 58:0 59:0.6 60:0 61:0 62:0 63:0 64:0 65:0 66:0 67:0 68:0.3 69:0 70:0 71:0 72:0.1 73:0 74:0 75:0 76:0 77:0 78:0 79:0 80:0.1 81:0 82:0 83:0 84:0 85:0 
10.28026083902404 1:0.6 2:0.2 3:0.4 4:0.2 5:0.2 6:0 7:0.6 8:0 9:0.3 10:0.9 11:0 12:0 13:0 14:0.1 15:0.8 16:0.4 17:0.5 18:0.1 19:0.5 20:0.1 21:0 22:0.2 23:0.2 24:0.1 25:0.5 26:0.2 27:0.2 28:0.2 29:0.1 30:0 31:0.9 32:0.8 33:0.1 34:0 35:0.3 36:0.6 37:0 38:0.3 39:0.5 40:0.2 41:0 42:0.5 43:0.8 44:0 45:0 46:0 47:0 48:0 49:0 50:0 51:0 52:0 53:0 54:0 55:0 56:0 57:0 58:0 59:0 60:0 61:0 62:0 63:0 64:0 65:0 66:0 67:0 68:0 69:0 70:0 71:0 72:0 73:0 74:0 75:0 76:0 77:0 78:0 79:0 80:0 81:0 82:0 83:0 84:0 85:0 
10.18849682801946 1:0.1 2:0.1 3:0.3 4:0.3 5:0.1 6:0.1 7:0.7 8:0 9:0.2 10:0.8 11:0.1 12:0 13:0 14:0.5 15:0.4 16:0.4 17:0.1 18:0.5 19:0.4 20:0 21:0.2 22:0.2 23:0.2 24:0 25:0.3 26:0.1 27:0.3 28:0.3 29:0 30:0 31:0.9 32:0.6 33:0.3 34:0 35:0.3 36:0.6 37:0.3 38:0.3 39:0.3 40:0.2 41:0 42:0.5 43:0.8 44:0 45:0 46:0 47:0.6 48:0 49:0 50:0 51:0 52:0 53:0 54:0 55:0 56:0 57:0 58:0 59:0.4 60:0 61:0 62:0 63:0 64:0 65:0 66:0 67:0 68:0.1 69:0 70:0 71:0 72:0 73:0 74:0 75:0 76:0 77:0 78:0 79:0 80:0.1 81:0 82:0 83:0 84:0 85:0 
0.004675716442275961 1:1.2 2:0.1 3:0.3 4:0.2 5:0.3 6:0.4 7:0.1 8:0 9:0.5 10:0.6 11:0.3 12:0 13:0 14:0.4 15:0.5 16:0.5 17:0.3 18:0.2 19:0.5 20:0 21:0 22:0.3 23:0.1 24:0.2 25:0.4 26:0.3 27:0.1 28:0.2 29:0 30:0 31:0.9 32:0.6 33:0.3 34:0 35:0.2 36:0.7 37:0 38:0.3 39:0.4 40:0.3 41:0.1 42:0.7 43:0.7 44:0.2 45:0 46:0 47:0.6 48:0 49:0 50:0 51:0 52:0 53:0 54:0 55:0 56:0 57:0 58:0 59:0.4 60:0 61:0 62:0 63:0 64:0 65:0.1 66:0 67:0 68:0.1 69:0 70:0 71:0 72:0 73:0 74:0 75:0 76:0 77:0 78:0 79:0 80:0.1 81:0 82:0 83:0 84:0 85:0 
23.02612616453987 1:0.8 2:0.1 3:0.3 4:0.3 5:0.2 6:0 7:0.4 8:0.1 9:0.4 10:0.6 11:0.1 12:0.3 13:0.3 14:0.1 15:0.6 16:0.4 17:0.2 18:0.4 19:0.3 20:0 21:0 22:0.5 23:0.2 24:0.1 25:0.3 26:0.3 27:0.1 28:0.4 29:0 30:0.1 31:0.8 32:0.7 33:0 34:0.2 35:0.8 36:0.1 37:0.1 38:0.6 39:0.3 40:0 41:0 42:0.4 43:0.7 44:0 45:0 46:0 47:0 48:0 49:0 50:0 51:0 52:0 53:0 54:0 55:0 56:0 57:0 58:0 59:0 60:0 61:0 62:0 63:0 64:0 65:0 66:0 67:0 68:0 69:0 70:0 71:0 72:0 73:0 74:0 75:0 76:0 77:0 78:0 79:0 80:0 81:0 82:0 83:0 84:0 85:0 
11.18488794959177 1:1.3 2:0.1 3:0.3 4:0.2 5:0.3 6:0.1 7:0.5 8:0.1 9:0.3 10:0.8 11:0.1 12:0.1 13:0.1 14:0.3 15:0.6 16:0.4 17:0.4 18:0.2 19:0.4 20:0.1 21:0 22:0.3 23:0.1 24:0.1 25:0.3 26:0.2 27:0.3 28:0.2 29:0 30:0.1 31:0.8 32:0.7 33:0.1 34:0.1 35:0.4 36:0.5 37:0.1 38:0.3 39:0.4 40:0.2 41:0.1 42:0.5 43:0.6 44:0.2 45:0 46:0 47:0.6 48:0 49:0 50:0 51:0 52:0 53:0 54:0 55:0 56:0 57:0 58:0 59:0.4 60:0 61:0 62:0 63:0 64:0 65:0.1 66:0 67:0 68:0.1 69:0 70:0 71:0 72:0 73:0 74:0 75:0 76:0 77:0 78:0 79:0 80:0.1 81:0 82:0 83:0 84:0 85:0 
16.58990061717779 1:2.5 2:0.1 3:0.2 4:0.4 5:0.6 6:0.2 7:0.4 8:0.2 9:0.3 10:0.6 11:0 12:0.3 13:0.3 14:0.2 15:0.4 16:0.2 17:0.4 18:0.3 19:0.2 20:0.2 21:0.1 22:0.4 23:0.2 24:0.1 25:0.2 26:0.2 27:0.4 28:0.2 29:0 30:0.3 31:0.6 32:0.6 33:0.1 34:0.3 35:0.5 36:0.4 37:0.1 38:0.5 39:0.3 40:0.1 41:0 42:0.4 43:0.1 44:0.2 45:0 46:0 47:0.6 48:0 49:0 50:0 51:0 52:0 53:0 54:0 55:0 56:0 57:0 58:0 59:0.2 60:0 61:0 62:0 63:0 64:0 65:0.1 66:0 67:0 68:0.1 69:0 70:0 71:0 72:0 73:0 74:0 75:0 76:0 77:0 78:0 79:0 80:0.1 81:0 82:0 83:0 84:0 85:0 
4.697770469626731 1:3.2 2:0.1 3:0.2 4:0.3 5:0.7 6:0.1 7:0.5 8:0.1 9:0.3 10:0.4 11:0.1 12:0.5 13:0.4 14:0.2 15:0.3 16:0.1 17:0.3 18:0.5 19:0.1 20:0 21:0.1 22:0.2 23:0.3 24:0.4 25:0.1 26:0.2 27:0.2 28:0.5 29:0.1 30:0.5 31:0.4 32:0.5 33:0.1 34:0.3 35:0.8 36:0.1 37:0.5 38:0.3 39:0.2 40:0 41:0 42:0.3 43:0.1 44:0 45:0 46:0 47:0.6 48:0 49:0 50:0 51:0 52:0 53:0 54:0.2 55:0 56:0 57:0 58:0 59:0 60:0 61:0 62:0 63:0 64:0 65:0 66:0 67:0 68:0.1 69:0 70:0 71:0 72:0 73:0 74:0 75:0.1 76:0 77:0 78:0 79:0 80:0 81:0 82:0 83:0 84:0 85:0 
0.002357768847718994 1:1 2:0.1 3:0.3 4:0.3 5:0.3 6:0 7:0.4 8:0.2 9:0.4 10:0.7 11:0.1 12:0.2 13:0 14:0 15:0.9 16:0 17:0.9 18:0 19:0.1 20:0 21:0 22:0.3 23:0.3 24:0.3 25:0 26:0 27:0 28:0.9 29:0 30:0.5 31:0.4 32:0.7 33:0.1 34:0.1 35:0.8 36:0.1 37:0.1 38:0.6 39:0.2 40:0.1 41:0 42:0.4 43:0.8 44:0.2 45:0 46:0 47:0.6 48:0 49:0 50:0 51:0 52:0 53:0 54:0 55:0 56:0 57:0 58:0 59:0.4 60:0 61:0 62:0 63:0 64:0 65:0.1 66:0 67:0 68:0.1 69:0 70:0 71:0 72:0 73:0 74:0 75:0 76:0 77:0 78:0 79:0 80:0.1 81:0 82:0 83:0 84:0 85:0 
1.766963020835446 1:0.8 2:0.1 3:0.2 4:0.3 5:0.2 6:0.1 7:0.5 8:0 9:0.3 10:0.7 11:0.1 12:0.2 13:0.3 14:0.3 15:0.4 16:0 17:0.5 18:0.4 19:0.3 20:0 21:0 22:0 23:0.5 24:0.2 25:0 26:0.4 27:0.3 28:0 29:0.2 30:0 31:0.9 32:0.6 33:0.2 34:0.2 35:0.6 36:0.3 37:0 38:0.5 39:0.3 40:0.2 41:0 42:0.5 43:0.7 44:0 45:0 46:0 47:0.6 48:0 49:0 50:0 51:0 52:0 53:0 54:0 55:0 56:0 57:0 58:0 59:0.3 60:0 61:0 62:0 63:0 64:0 65:0 66:0 67:0 68:0.2 69:0 70:0 71:0 72:0 73:0 74:0 75:0 76:0 77:0 78:0 79:0 80:0.1 81:0 82:0 83:0 84:0 85:0 
1.033040275459108 1:3.4 2:0.1 3:0.4 4:0.3 5:0.8 6:0 7:0.4 8:0.1 9:0.5 10:0.6 11:0.2 12:0.2 13:0 14:0.4 15:0.5 16:0 17:0.4 18:0.5 19:0.4 20:0 21:0 22:0.3 23:0.3 24:0 25:0 26:0.4 27:0 28:0.5 29:0 30:0.5 31:0.4 32:0.6 33:0.2 34:0.2 35:0.8 36:0.1 37:0 38:0 39:0.4 40:0.5 41:0 42:0.7 43:0.6 44:0 45:0 46:0 47:0.6 48:0 49:0 50:0 51:0 52:0.3 53:0 54:0 55:0 56:0 57:0 58:0 59:0.3 60:0 61:0 62:0 63:0 64:0 65:0 66:0 67:0 68:0.1 69:0 70:0 71:0 72:0 73:0.1 74:0 75:0 76:0 77:0 78:0 79:0 80:0.1 81:0 82:0 83:0 84:0 85:0 
1.314925082554474 1:3.9 2:0.1 3:0.4 4:0.2 5:0.9 6:0.2 7:0 8:0.2 9:0.5 10:0.9 11:0 12:0 13:0 14:0.3 15:0.6 16:0.2 17:0.4 18:0.4 19:0.2 20:0 21:0 22:0.3 23:0.5 24:0 25:0.2 26:0 27:0.3 28:0.5 29:0 30:0 31:0.9 32:0.9 33:0 34:0 35:0.7 36:0.2 37:0 38:0.5 39:0.4 40:0 41:0 42:0.4 43:0.5 44:0.2 45:0 46:0 47:0.6 48:0 49:0.4 50:0 51:0 52:0 53:0 54:0 55:0 56:0 57:0 58:0 59:0.3 60:0 61:0 62:0 63:0 64:0 65:0.1 66:0 67:0 68:0.1 69:0 70:0.1 71:0 72:0 73:0 74:0 75:0 76:0 77:0 78:0 79:0 80:0.1 81:0 82:0 83:0 84:0 85:0 
11.29350319562706 1:0.2 2:0.1 3:0.3 4:0.3 5:0.1 6:0 7:0.5 8:0.1 9:0.3 10:0.7 11:0.1 12:0.2 13:0.3 14:0.2 15:0.5 16:0.1 17:0.3 18:0.6 19:0.2 20:0.1 21:0.1 22:0.2 23:0.3 24:0.3 25:0.1 26:0.1 27:0.1 28:0.5 29:0.2 30:0.5 31:0.4 32:0.5 33:0.2 34:0.2 35:0.7 36:0.2 37:0.4 38:0.4 39:0.1 40:0.1 41:0.1 42:0.3 43:0.6 44:0 45:0 46:0.3 47:0.6 48:0 49:0 50:0 51:0 52:0 53:0 54:0 55:0 56:0 57:0 58:0 59:0.4 60:0 61:0 62:0 63:0 64:0 65:0 66:0 67:0.1 68:0.1 69:0 70:0 71:0 72:0 73:0 74:0 75:0 76:0 77:0 78:0 79:0 80:0.1 81:0 82:0 83:0 84:0 85:0 
1.278562575286862 1:2.3 2:0.1 3:0.3 4:0.2 5:0.5 6:0.2 7:0.3 8:0.2 9:0.4 10:0.3 11:0.1 12:0.5 13:0.4 14:0 15:0.5 16:0 17:0.6 18:0.3 19:0 20:0.2 21:0 22:0.3 23:0.2 24:0.4 25:0.2 26:0.1 27:0.5 28:0.2 29:0 30:0.6 31:0.3 32:0.6 33:0 34:0.3 35:0.8 36:0.1 37:0.9 38:0 39:0 40:0 41:0 42:0.2 43:0.3 44:0 45:0 46:0 47:0.8 48:0.6 49:0 50:0 51:0 52:0 53:0 54:0 55:0.9 56:0 57:0 58:0 59:0.7 60:0 61:0 62:0 63:0 64:0 65:0 66:0 67:0 68:0.6 69:0.1 70:0 71:0 72:0 73:0 74:0 75:0 76:0.8 77:0 78:0 79:0 80:0.1 81:0 82:0 83:0 84:0 85:0 
9.59805894255148 1:1.1 2:0.1 3:0.4 4:0.2 5:0.3 6:0 7:0.6 8:0.1 9:0.3 10:0.9 11:0 12:0 13:0 14:0.2 15:0.7 16:0.3 17:0.4 18:0.3 19:0.5 20:0.1 21:0 22:0.2 23:0.2 24:0.1 25:0.4 26:0.1 27:0.2 28:0.2 29:0.1 30:0 31:0.9 32:0.8 33:0.1 34:0 35:0.4 36:0.5 37:0.1 38:0.2 39:0.6 40:0.2 41:0.1 42:0.6 43:0.6 44:0.2 45:0 46:0 47:0.6 48:0 49:0 50:0 51:0 52:0 53:0 54:0 55:0 56:0 57:0 58:0 59:0.4 60:0 61:0 62:0 63:0 64:0 65:0.1 66:0 67:0 68:0.2 69:0 70:0 71:0 72:0 73:0 74:0 75:0 76:0 77:0 78:0 79:0 80:0.1 81:0 82:0 83:0 84:0 85:0 
205.9734097893413 1:0.1 2:0.1 3:0.3 4:0.3 5:0.1 6:0.1 7:0.4 8:0.2 9:0.3 10:0.7 11:0.1 12:0.1 13:0.1 14:0.4 15:0.4 16:0.4 17:0.4 18:0.2 19:0.6 20:0 21:0 22:0.2 23:0.1 24:0.1 25:0.4 26:0.2 27:0.3 28:0.2 29:0 30:0 31:0.9 32:0.6 33:0.3 34:0 35:0.3 36:0.6 37:0.1 38:0.3 39:0.4 40:0.2 41:0 42:0.5 43:0.8 44:0.2 45:0 46:0 47:0.6 48:0 49:0 50:0 51:0 52:0 53:0 54:0 55:0 56:0 57:0 58:0 59:0.4 60:0 61:0 62:0 63:0 64:0 65:0.1 66:0 67:0 68:0.2 69:0 70:0 71:0 72:0 73:0 74:0 75:0 76:0 77:0 78:0 79:0 80:0.1 81:0 82:0 83:0 84:0 85:0 
0.7812205562763636 1:1.2 2:0.2 3:0.4 4:0.2 5:0.3 6:0.2 7:0.4 8:0.2 9:0.2 10:0.9 11:0 12:0 13:0 14:0 15:0.8 16:0.2 17:0.4 18:0.4 19:0.2 20:0 21:0 22:0.7 23:0.1 24:0 25:0 26:0.3 27:0.4 28:0.3 29:0 30:0.2 31:0.7 32:0.9 33:0 34:0 35:0.9 36:0 37:0 38:0 39:0.4 40:0.5 41:0 42:0.8 43:0.7 44:0 45:0 46:0 47:0 48:0 49:0 50:0 51:0.2 52:0 53:0 54:0 55:0 56:0 57:0 58:0 59:0 60:0 61:0 62:0 63:0 64:0 65:0 66:0 67:0 68:0 69:0 70:0 71:0 72:0.1 73:0 74:0 75:0 76:0 77:0 78:0 79:0 80:0 81:0 82:0 83:0 84:0 85:0 
263.1821154474123 1:3.2 2:0.2 3:0.2 4:0.4 5:0.7 6:0 7:0.3 8:0.3 9:0.4 10:0.5 11:0.1 12:0.4 13:0.2 14:0.5 15:0.2 16:0.1 17:0.4 18:0.5 19:0.2 20:0.1 21:0 22:0.1 23:0.5 24:0.2 25:0.1 26:0.1 27:0.4 28:0.4 29:0.1 30:0.3 31:0.6 32:0.7 33:0.1 34:0.2 35:0.7 36:0.2 37:0.5 38:0.3 39:0.1 40:0.1 41:0 42:0.3 43:0.1 44:0.1 45:0 46:0 47:0.5 48:0 49:0 50:0 51:0 52:0 53:0 54:0 55:0 56:0 57:0 58:0 59:0.1 60:0 61:0 62:0 63:0 64:0 65:0.1 66:0 67:0 68:0.1 69:0 70:0 71:0 72:0 73:0 74:0 75:0 76:0 77:0 78:0 79:0 80:0.1 81:0 82:0 83:0 84:0 85:0 
4.445737749762644 1:0.1 2:0.1 3:0.2 4:0.4 5:0.1 6:0 7:0.5 8:0.2 9:0.2 10:0.9 11:0 12:0 13:0.5 14:0.2 15:0.3 16:0.5 17:0.1 18:0.3 19:0.7 20:0 21:0 22:0.2 23:0 24:0 25:0.1 26:0.1 27:0.5 28:0.3 29:0 30:0 31:0.9 32:0.6 33:0.3 34:0 35:0.5 36:0.4 37:0 38:0.1 39:0.4 40:0.5 41:0 42:0.6 43:0.8 44:0 45:0 46:0 47:0.6 48:0 49:0 50:0 51:0 52:0 53:0 54:0 55:0 56:0 57:0 58:0 59:0.4 60:0 61:0 62:0 63:0 64:0 65:0 66:0 67:0 68:0.1 69:0 70:0 71:0 72:0 73:0 74:0 75:0 76:0 77:0 78:0 79:0 80:0.1 81:0 82:0 83:0 84:0 85:0 
0.7453059948508062 1:4 2:0.1 3:0.4 4:0.3 5:1 6:0.2 7:0.5 8:0 9:0.3 10:0.8 11:0.1 12:0.1 13:0.1 14:0.3 15:0.6 16:0.2 17:0.4 18:0.4 19:0.2 20:0 21:0.7 22:0 23:0.1 24:0.1 25:0.5 26:0 27:0.4 28:0.1 29:0 30:0.1 31:0.8 32:0.4 33:0.5 34:0.1 35:0.1 36:0.8 37:0.2 38:0 39:0.7 40:0.1 41:0 42:0.6 43:0.3 44:0 45:0 46:0 47:0 48:0 49:0 50:0 51:0 52:0 53:0 54:0 55:0 56:0 57:0 58:0 59:0 60:0 61:0 62:0 63:0 64:0 65:0 66:0 67:0 68:0 69:0 70:0 71:0 72:0 73:0 74:0 75:0 76:0 77:0 78:0 79:0 80:0 81:0 82:0 83:0 84:0 85:0 
4.929796594629344 1:3.7 2:0.1 3:0.2 4:0.5 5:0.8 6:0.1 7:0.4 8:0.1 9:0.4 10:0.7 11:0.1 12:0.2 13:0.4 14:0.4 15:0.2 16:0 17:0.6 18:0.3 19:0 20:0 21:0 22:0.9 23:0 24:0 25:0 26:0.3 27:0.4 28:0.3 29:0 30:0.9 31:0 32:0.6 33:0.2 34:0.1 35:0.5 36:0.4 37:0.6 38:0 39:0.3 40:0 41:0 42:0.3 43:0.4 44:0.2 45:0 46:0 47:0.6 48:0 49:0 50:0 51:0 52:0 53:0 54:0 55:0 56:0 57:0 58:0 59:0.4 60:0 61:0 62:0 63:0 64:0 65:0.1 66:0 67:0 68:0.2 69:0 70:0 71:0 72:0 73:0 74:0 75:0 76:0 77:0 78:0 79:0 80:0.1 81:0 82:0 83:0 84:0 85:0 
67.67008651620537 1:3.6 2:0.1 3:0.2 4:0.3 5:0.8 6:0.1 7:0.4 8:0.1 9:0.4 10:0.6 11:0.2 12:0.3 13:0.3 14:0.4 15:0.3 16:0.1 17:0.4 18:0.5 19:0.1 20:0.1 21:0 22:0.3 23:0.2 24:0.4 25:0.1 26:0.2 27:0.2 28:0.5 29:0.1 30:0.5 31:0.4 32:0.6 33:0.1 34:0.3 35:0.7 36:0.2 37:0.3 38:0.4 39:0.3 40:0.1 41:0 42:0.3 43:0.3 44:0 45:0 46:0 47:0.5 48:0 49:0.4 50:0 51:0 52:0 53:0 54:0 55:0 56:0 57:0 58:0 59:0.3 60:0 61:0 62:0 63:0 64:0 65:0 66:0 67:0 68:0.1 69:0 70:0.1 71:0 72:0 73:0 74:0 75:0 76:0 77:0 78:0 79:0 80:0.1 81:0 82:0 83:0 84:0 85:0 
15.34576471022379 1:3.6 2:0.1 3:0.2 4:0.2 5:0.8 6:0 7:0.5 8:0 9:0.4 10:0.5 11:0.1 12:0.4 13:0.4 14:0.2 15:0.4 16:0.1 17:0.3 18:0.5 19:0 20:0 21:0.1 22:0.5 23:0.2 24:0.2 25:0.1 26:0.3 27:0 28:0.4 29:0.2 30:0.6 31:0.3 32:0.4 33:0.2 34:0.4 35:0.8 36:0.1 37:0.5 38:0.3 39:0.2 40:0 41:0 42:0.3 43:0.3 44:0 45:0 46:0 47:0.6 48:0 49:0 50:0 51:0 52:0 53:0 54:0 55:0 56:0 57:0 58:0 59:0.3 60:0 61:0 62:0 63:0 64:0 65:0 66:0 67:0 68:0.1 69:0 70:0 71:0 72:0 73:0 74:0 75:0 76:0 77:0 78:0 79:0 80:0.1 81:0 82:0 83:0 84:0 85:0 
4.477244228041132 1:1.1 2:0.1 3:0.3 4:0.2 5:0.3 6:0 7:0.5 8:0 9:0.4 10:0.6 11:0 12:0.3 13:0.1 14:0.2 15:0.7 16:0.3 17:0.2 18:0.4 19:0.1 20:0 21:0.1 22:0.4 23:0.1 24:0.4 25:0.1 26:0.3 27:0.2 28:0.1 29:0.3 30:0 31:0.9 32:0.6 33:0.3 34:0 35:0.4 36:0.5 37:0 38:0.4 39:0.2 40:0.4 41:0.1 42:0.6 43:0.6 44:0.2 45:0 46:0 47:0.6 48:0 49:0 50:0 51:0 52:0 53:0 54:0 55:0 56:0 57:0 58:0 59:0.4 60:0 61:0 62:0 63:0.3 64:0.4 65:0.1 66:0 67:0 68:0.2 69:0 70:0 71:0 72:0 73:0 74:0 75:0 76:0 77:0 78:0 79:0 80:0.1 81:0 82:0 83:0 84:0.1 85:0.1 
2.17730932170426 1:2.4 2:0.1 3:0.2 4:0.3 5:0.5 6:0 7:0.6 8:0.1 9:0.3 10:0.3 11:0 12:0.6 13:0.6 14:0.1 15:0.3 16:0.2 17:0.2 18:0.5 19:0.2 20:0 21:0 22:0.4 23:0.3 24:0.1 25:0.2 26:0.2 27:0 28:0.5 29:0.1 30:0.8 31:0.1 32:0.5 33:0 34:0.4 35:0.9 36:0 37:0.5 38:0.2 39:0.2 40:0 41:0 42:0.3 43:0.2 44:0 45:0 46:0 47:0.6 48:0 49:0 50:0 51:0 52:0 53:0 54:0.3 55:0 56:0 57:0 58:0 59:0 60:0 61:0 62:0 63:0 64:0 65:0 66:0 67:0 68:0.1 69:0 70:0 71:0 72:0 73:0 74:0 75:0.1 76:0 77:0 78:0 79:0 80:0 81:0 82:0 83:0 84:0 85:0 
5.921054779361886 1:2.3 2:0.2 3:0.1 4:0.1 5:0.5 6:0 7:0.2 8:0.4 9:0.4 10:0.2 11:0.2 12:0.5 13:0.5 14:0.4 15:0 16:0 17:0.7 18:0.2 19:0 20:0 21:0 22:0.7 23:0 24:0.2 25:0 26:0.5 27:0 28:0.4 29:0 30:0.9 31:0 32:0.7 33:0 34:0.2 35:0.9 36:0 37:0.4 38:0.4 39:0.2 40:0 41:0 42:0.3 43:0.3 44:0.2 45:0 46:0 47:0.6 48:0 49:0 50:0 51:0 52:0 53:0 54:0 55:0 56:0 57:0 58:0 59:0.3 60:0 61:0 62:0 63:0 64:0 65:0.1 66:0 67:0 68:0.1 69:0 70:0 71:0 72:0 73:0 74:0 75:0 76:0 77:0 78:0 79:0 80:0.1 81:0 82:0 83:0 84:0 85:0 
208.1685908247987 1:0.2 2:0.1 3:0.2 4:0.4 5:0.1 6:0 7:0.5 8:0 9:0.5 10:0.9 11:0 12:0 13:0 14:0.9 15:0 16:0 17:0.9 18:0 19:0 20:0.5 21:0 22:0 23:0 24:0.5 25:0.5 26:0 27:0 28:0.4 29:0 30:0.6 31:0.3 32:0.7 33:0.2 34:0 35:0.3 36:0.6 37:0.2 38:0.4 39:0.4 40:0.1 41:0 42:0.5 43:0.6 44:0.2 45:0 46:0 47:0.6 48:0 49:0 50:0 51:0 52:0 53:0 54:0 55:0 56:0 57:0 58:0 59:0.3 60:0 61:0 62:0 63:0 64:0 65:0.1 66:0 67:0 68:0.1 69:0 70:0 71:0 72:0 73:0 74:0 75:0 76:0 77:0 78:0 79:0 80:0.1 81:0 82:0 83:0 84:0 85:0 
1.832925991897965 1:0.3 2:0.1 3:0.2 4:0.5 5:0.1 6:0.1 7:0.5 8:0.2 9:0.3 10:0.5 11:0.1 12:0.4 13:0.2 14:0.6 15:0.2 16:0.2 17:0.3 18:0.4 19:0.4 20:0.1 21:0 22:0.2 23:0.4 24:0.1 25:0.3 26:0.1 27:0.2 28:0.4 29:0.1 30:0.2 31:0.7 32:0.5 33:0.1 34:0.3 35:0.5 36:0.4 37:0.1 38:0.2 39:0.4 40:0.3 41:0.1 42:0.6 43:0.6 44:0.2 45:0 46:0 47:0.6 48:0 49:0 50:0 51:0 52:0 53:0 54:0 55:0 56:0.2 57:0 58:0 59:0.6 60:0 61:0 62:0 63:0 64:0 65:0.1 66:0 67:0 68:0.1 69:0 70:0 71:0 72:0 73:0 74:0 75:0 76:0 77:0.1 78:0 79:0 80:0.1 81:0 82:0 83:0 84:0 85:0 
82.76981845406563 1:3.6 2:0.1 3:0.2 4:0.3 5:0.8 6:0.1 7:0.4 8:0.1 9:0.4 10:0.6 11:0.2 12:0.3 13:0.3 14:0.4 15:0.3 16:0.1 17:0.4 18:0.5 19:0.1 20:0.1 21:0 22:0.3 23:0.2 24:0.4 25:0.1 26:0.2 27:0.2 28:0.5 29:0.1 30:0.5 31:0.4 32:0.6 33:0.1 34:0.3 35:0.7 36:0.2 37:0.3 38:0.4 39:0.3 40:0.1 41:0 42:0.3 43:0.3 44:0.2 45:0 46:0 47:0.6 48:0 49:0 50:0 51:0 52:0 53:0 54:0 55:0 56:0 57:0 58:0 59:0.4 60:0 61:0 62:0 63:0 64:0 65:0.1 66:0 67:0 68:0.1 69:0 70:0 71:0 72:0 73:0 74:0 75:0 76:0 77:0 78:0 79:0 80:0.1 81:0 82:0 83:0 84:0 85:0 
3.546304823908121 1:3.6 2:0.1 3:0.3 4:0.4 5:0.8 6:0.1 7:0.4 8:0.1 9:0.4 10:0.7 11:0.1 12:0.2 13:0.4 14:0.4 15:0.2 16:0 17:0.4 18:0.5 19:0 20:0 21:0 22:0.9 23:0 24:0 25:0 26:0.4 27:0 28:0.5 29:0 30:0.7 31:0.2 32:0.6 33:0.2 34:0.1 35:0.5 36:0.4 37:0.5 38:0.4 39:0 40:0 41:0 42:0.3 43:0.3 44:0 45:0 46:0.3 47:0.6 48:0 49:0 50:0 51:0 52:0.3 53:0 54:0 55:0 56:0 57:0 58:0 59:0.5 60:0 61:0 62:0 63:0 64:0 65:0 66:0 67:0.1 68:0.1 69:0 70:0 71:0 72:0 73:0.1 74:0 75:0 76:0 77:0 78:0 79:0 80:0.1 81:0 82:0 83:0 84:0 85:0 
16.94425225164673 1:0.8 2:0.1 3:0.2 4:0.4 5:0.2 6:0.1 7:0.4 8:0.2 9:0.4 10:0.5 11:0.2 12:0.3 13:0 14:0.6 15:0.3 16:0.6 17:0.3 18:0 19:0 20:0 21:0 22:0.6 23:0.3 24:0 25:0 26:0.6 27:0 28:0.3 29:0 30:0 31:0.9 32:0.6 33:0.1 34:0.2 35:0.7 36:0.2 37:0 38:0 39:0.9 40:0 41:0 42:0.4 43:0.7 44:0 45:0 46:0 47:0 48:0 49:0 50:0 51:0 52:0 53:0 54:0 55:0 56:0 57:0 58:0 59:0 60:0 61:0 62:0 63:0 64:0 65:0 66:0 67:0 68:0 69:0 70:0 71:0 72:0 73:0 74:0 75:0 76:0 77:0 78:0 79:0 80:0 81:0 82:0 83:0 84:0 85:0 
3.620415503526048 1:3.8 2:0.1 3:0.4 4:0.2 5:0.9 6:0 7:0.4 8:0 9:0.5 10:0.8 11:0 12:0.1 13:0.1 14:0.1 15:0.8 16:0.1 17:0.4 18:0.5 19:0.1 20:0 21:0 22:0.2 23:0 24:0.7 25:0.1 26:0.2 27:0.2 28:0.5 29:0.1 30:0.8 31:0.1 32:0.5 33:0.4 34:0.1 35:0.8 36:0.1 37:0.5 38:0.4 39:0 40:0 41:0 42:0.2 43:0.4 44:0.1 45:0 46:0 47:0.6 48:0 49:0 50:0 51:0 52:0 53:0 54:0 55:0 56:0 57:0 58:0 59:0.3 60:0 61:0 62:0 63:0 64:0 65:0.1 66:0 67:0 68:0.1 69:0 70:0 71:0 72:0 73:0 74:0 75:0 76:0 77:0 78:0 79:0 80:0.1 81:0 82:0 83:0 84:0 85:0 
95.16480479052858 1:0.2 2:0.1 3:0.3 4:0.3 5:0.1 6:0.1 7:0.6 8:0.1 9:0.2 10:0.6 11:0.1 12:0.2 13:0.2 14:0.3 15:0.4 16:0.1 17:0.3 18:0.5 19:0.2 20:0.1 21:0.1 22:0.4 23:0.2 24:0.2 25:0.1 26:0.2 27:0.3 28:0.4 29:0.1 30:0.2 31:0.7 32:0.5 33:0.2 34:0.3 35:0.5 36:0.4 37:0.2 38:0.4 39:0.3 40:0.1 41:0.1 42:0.4 43:0.6 44:0 45:0 46:0 47:0 48:0 49:0 50:0 51:0 52:0 53:0 54:0 55:0 56:0 57:0 58:0 59:0.3 60:0 61:0 62:0 63:0 64:0 65:0 66:0 67:0 68:0 69:0 70:0 71:0 72:0 73:0 74:0 75:0 76:0 77:0 78:0 79:0 80:0.1 81:0 82:0 83:0 84:0 85:0 
1.317300467853292 1:0.3 2:0.1 3:0.3 4:0.3 5:0.1 6:0 7:0.7 8:0 9:0.2 10:0.9 11:0 12:0 13:0 14:0.5 15:0.4 16:0 17:0.2 18:0.7 19:0.1 20:0 21:0.2 22:0.1 23:0.5 24:0.2 25:0.1 26:0.1 27:0.2 28:0.4 29:0.3 30:0.5 31:0.4 32:0.8 33:0.1 34:0 35:0.8 36:0.1 37:0.4 38:0.3 39:0.2 40:0 41:0 42:0.3 43:0.6 44:0.3 45:0 46:0 47:0.6 48:0 49:0 50:0 51:0 52:0 53:0 54:0 55:0 56:0 57:0 58:0 59:0.4 60:0 61:0 62:0 63:0 64:0 65:0.2 66:0 67:0 68:0.1 69:0 70:0 71:0 72:0 73:0 74:0 75:0 76:0 77:0 78:0 79:0 80:0.1 81:0 82:0 83:0 84:0 85:0 
3.452010796343352 1:3.3 2:0.1 3:0.3 4:0.3 5:0.8 6:0 7:0.9 8:0 9:0 10:0.9 11:0 12:0 13:0 14:0.3 15:0.6 16:0 17:0.4 18:0.5 19:0.2 20:0 21:0 22:0.2 23:0.5 24:0 25:0.2 26:0.2 27:0.1 28:0.6 29:0 30:0 31:0.9 32:0.7 33:0.2 34:0 35:0.4 36:0.5 37:0 38:0.5 39:0.4 40:0 41:0 42:0.4 43:0.3 44:0 45:0 46:0 47:0 48:0 49:0 50:0 51:0 52:0 53:0 54:0 55:0 56:0 57:0 58:0 59:0 60:0 61:0 62:0 63:0 64:0 65:0 66:0 67:0 68:0 69:0 70:0 71:0 72:0 73:0 74:0 75:0 76:0 77:0 78:0 79:0 80:0 81:0 82:0 83:0 84:0 85:0 
0.2897853020192714 1:0.1 2:0.1 3:0.3 4:0.4 5:0.1 6:0 7:0.5 8:0.2 9:0.2 10:0.9 11:0 12:0 13:0.1 14:0.6 15:0.3 16:0.4 17:0.5 18:0.1 19:0.7 20:0 21:0 22:0.2 23:0 24:0 25:0.4 26:0.4 27:0.1 28:0.2 29:0 30:0 31:0.9 32:0.6 33:0.3 34:0 35:0.5 36:0.4 37:0 38:0.2 39:0.7 40:0.1 41:0 42:0.5 43:0.8 44:0 45:0 46:0 47:0 48:0 49:0 50:0 51:0 52:0 53:0 54:0 55:0 56:0 57:0 58:0 59:0 60:0 61:0 62:0 63:0 64:0 65:0 66:0 67:0 68:0 69:0 70:0 71:0 72:0 73:0 74:0 75:0 76:0 77:0 78:0 79:0 80:0 81:0 82:0 83:0 84:0 85:0 
0.3742377470756379 1:1 2:0.1 3:0.3 4:0.3 5:0.3 6:0.1 7:0.4 8:0.1 9:0.4 10:0.9 11:0 12:0 13:0 14:0.5 15:0.4 16:0.3 17:0.5 18:0.2 19:0.5 20:0 21:0 22:0.1 23:0.1 24:0.3 25:0.2 26:0.2 27:0.5 28:0.2 29:0 30:0 31:0.9 32:0.7 33:0.2 34:0 35:0.2 36:0.7 37:0 38:0.2 39:0.5 40:0.3 41:0.1 42:0.6 43:0.8 44:0.2 45:0 46:0 47:0.6 48:0 49:0 50:0 51:0 52:0 53:0 54:0 55:0 56:0 57:0 58:0 59:0.3 60:0 61:0 62:0 63:0 64:0 65:0.1 66:0 67:0 68:0.1 69:0 70:0 71:0 72:0 73:0 74:0 75:0 76:0 77:0 78:0 79:0 80:0.1 81:0 82:0 83:0 84:0 85:0 
59.98637645480571 1:3.3 2:0.1 3:0.3 4:0.3 5:0.8 6:0.1 7:0.5 8:0 9:0.3 10:0.7 11:0.1 12:0.2 13:0.1 14:0.2 15:0.6 16:0.1 17:0.4 18:0.5 19:0.2 20:0.1 21:0 22:0.3 23:0.2 24:0.3 25:0.1 26:0.3 27:0.2 28:0.4 29:0.1 30:0.3 31:0.6 32:0.6 33:0.2 34:0.2 35:0.6 36:0.3 37:0.2 38:0.4 39:0.3 40:0.1 41:0.1 42:0.4 43:0.3 44:0.2 45:0 46:0 47:0.6 48:0 49:0.4 50:0 51:0 52:0 53:0 54:0 55:0.3 56:0 57:0 58:0 59:0.4 60:0 61:0 62:0 63:0 64:0 65:0.1 66:0 67:0 68:0.1 69:0 70:0.1 71:0 72:0 73:0 74:0 75:0 76:0.2 77:0 78:0 79:0 80:0.1 81:0 82:0 83:0 84:0 85:0 
494.6152829928791 1:3.3 2:0.1 3:0.2 4:0.4 5:0.8 6:0 7:0.1 8:0.3 9:0.6 10:0.6 11:0 12:0.3 13:0.3 14:0.3 15:0.3 16:0 17:0.1 18:0.8 19:0.1 20:0.1 21:0 22:0.1 23:0.8 24:0.1 25:0.1 26:0.1 27:0 28:0.8 29:0.1 30:0.9 31:0 32:0.5 33:0.2 34:0.3 35:0.7 36:0.2 37:0.7 38:0.2 39:0.1 40:0 41:0 42:0.2 43:0.3 44:0 45:0 46:0 47:0.6 48:0 49:0 50:0 51:0 52:0 53:0 54:0 55:0 56:0 57:0 58:0 59:0 60:0 61:0 62:0 63:0 64:0 65:0 66:0 67:0 68:0.1 69:0 70:0 71:0 72:0 73:0 74:0 75:0 76:0 77:0 78:0 79:0 80:0 81:0 82:0 83:0 84:0 85:0 
12.43380367972065 1:3.6 2:0.1 3:0.2 4:0.2 5:0.8 6:0 7:0.4 8:0.2 9:0.4 10:0.7 11:0.1 12:0.2 13:0.3 14:0.4 15:0.3 16:0.2 17:0.4 18:0.5 19:0.3 20:0 21:0 22:0.3 23:0.4 24:0 25:0.2 26:0.1 27:0.1 28:0.5 29:0 30:0.5 31:0.4 32:0.7 33:0.1 34:0.1 35:0.8 36:0.1 37:0 38:0.6 39:0.3 40:0 41:0 42:0.4 43:0.3 44:0 45:0 46:0 47:0.6 48:0 49:0 50:0 51:0 52:0 53:0 54:0 55:0 56:0 57:0 58:0 59:0.3 60:0 61:0 62:0 63:0 64:0.3 65:0 66:0 67:0 68:0.2 69:0 70:0 71:0 72:0 73:0 74:0 75:0 76:0 77:0 78:0 79:0 80:0.1 81:0 82:0 83:0 84:0 85:0.2 
3.585104770672454 1:2.5 2:0.1 3:0.2 4:0.4 5:0.6 6:0.1 7:0.5 8:0.2 9:0.1 10:0.6 11:0.1 12:0.3 13:0.3 14:0.4 15:0.3 16:0.2 17:0.5 18:0.3 19:0.2 20:0 21:0 22:0.5 23:0.1 24:0.2 25:0.1 26:0.2 27:0.2 28:0.4 29:0.1 30:0.7 31:0.2 32:0.5 33:0.1 34:0.3 35:0.6 36:0.3 37:0.5 38:0.2 39:0.2 40:0.1 41:0 42:0.3 43:0.1 44:0 45:0 46:0 47:0.6 48:0 49:0 50:0 51:0 52:0 53:0 54:0 55:0 56:0 57:0 58:0 59:0 60:0 61:0 62:0 63:0 64:0 65:0 66:0 67:0 68:0.1 69:0 70:0 71:0 72:0 73:0 74:0 75:0 76:0 77:0 78:0 79:0 80:0 81:0 82:0 83:0 84:0 85:0 
57.5880264841246 1:3.4 2:0.1 3:0.2 4:0.3 5:0.8 6:0.1 7:0.4 8:0.1 9:0.4 10:0.7 11:0.1 12:0.2 13:0.4 14:0.4 15:0.2 16:0 17:0.3 18:0.6 19:0 20:0 21:0 22:0.9 23:0 24:0 25:0 26:0.3 27:0.1 28:0.5 29:0.1 30:0.7 31:0.2 32:0.6 33:0.2 34:0.1 35:0.5 36:0.4 37:0.5 38:0.3 39:0.1 40:0 41:0 42:0.3 43:0.6 44:0.2 45:0 46:0 47:0.6 48:0 49:0 50:0 51:0 52:0 53:0 54:0 55:0 56:0 57:0 58:0 59:0.4 60:0 61:0 62:0 63:0 64:0 65:0.1 66:0 67:0 68:0.1 69:0 70:0 71:0 72:0 73:0 74:0 75:0 76:0 77:0 78:0 79:0 80:0.1 81:0 82:0 83:0 84:0 85:0 
1.016488739457118 1:0.5 2:0.1 3:0.2 4:0.3 5:0.1 6:0 7:0.5 8:0.2 9:0.2 10:0.4 11:0.2 12:0.4 13:0.4 14:0.4 15:0.3 16:0.1 17:0.3 18:0.5 19:0.2 20:0.1 21:0 22:0.3 23:0.2 24:0.3 25:0.2 26:0.2 27:0.1 28:0.3 29:0.2 30:0.6 31:0.3 32:0.6 33:0.1 34:0.3 35:0.8 36:0.1 37:0.4 38:0.3 39:0.3 40:0 41:0 42:0.3 43:0.3 44:0.2 45:0 46:0 47:0 48:0 49:0 50:0 51:0 52:0 53:0 54:0 55:0.3 56:0 57:0 58:0 59:0.2 60:0 61:0 62:0 63:0 64:0 65:0.1 66:0 67:0 68:0 69:0 70:0 71:0 72:0 73:0 74:0 75:0 76:0.1 77:0 78:0 79:0 80:0.1 81:0 82:0 83:0 84:0 85:0 
2.169142234606256 1:3.3 2:0.1 3:0.2 4:0.3 5:0.8 6:0 7:0.7 8:0.2 9:0 10:0.9 11:0 12:0 13:0.3 14:0.4 15:0.3 16:0.3 17:0.4 18:0.3 19:0.1 20:0 21:0 22:0.1 23:0.4 24:0.4 25:0.1 26:0.1 27:0.5 28:0.2 29:0.2 30:0.2 31:0.7 32:0.7 33:0 34:0.2 35:0.7 36:0.2 37:0.1 38:0.3 39:0.4 40:0.3 41:0 42:0.7 43:0.3 44:0 45:0 46:0 47:0 48:0 49:0 50:0 51:0 52:0 53:0 54:0 55:0 56:0 57:0 58:0 59:0 60:0 61:0 62:0 63:0 64:0 65:0 66:0 67:0 68:0 69:0 70:0 71:0 72:0 73:0 74:0 75:0 76:0 77:0 78:0 79:0 80:0 81:0 82:0 83:0 84:0 85:0 
5.797527444711894 1:3.3 2:0.1 3:0.3 4:0.3 5:0.8 6:0 7:0.3 8:0.4 9:0.3 10:0.9 11:0 12:0 13:0 14:0.1 15:0.8 16:0 17:0.4 18:0.5 19:0.1 20:0 21:0 22:0.3 23:0.5 24:0.2 25:0.1 26:0.2 27:0.1 28:0.4 29:0.3 30:0.9 31:0 32:0.5 33:0.3 34:0.2 35:0.7 36:0.2 37:0 38:0.3 39:0.3 40:0.4 41:0 42:0.7 43:0.3 44:0.2 45:0 46:0 47:0.6 48:0 49:0 50:0 51:0 52:0 53:0 54:0 55:0 56:0 57:0 58:0 59:0.2 60:0 61:0 62:0 63:0 64:0 65:0.1 66:0 67:0 68:0.1 69:0 70:0 71:0 72:0 73:0 74:0 75:0 76:0 77:0 78:0 79:0 80:0.1 81:0 82:0 83:0 84:0 85:0 
4.24600265307756 1:0.3 2:0.1 3:0.5 4:0.3 5:0.1 6:0.1 7:0.5 8:0.2 9:0.3 10:0.5 11:0.1 12:0.4 13:0 14:0.4 15:0.5 16:0 17:0.9 18:0 19:0.4 20:0.2 21:0 22:0.2 23:0.1 24:0.1 25:0 26:0.4 27:0 28:0.5 29:0 30:0 31:0.9 32:0.5 33:0.1 34:0.3 35:0.5 36:0.4 37:0.3 38:0.2 39:0.3 40:0.2 41:0.1 42:0.5 43:0.6 44:0 45:0 46:0 47:0.6 48:0 49:0 50:0 51:0 52:0 53:0 54:0 55:0 56:0 57:0 58:0 59:0 60:0 61:0 62:0.1 63:0 64:0 65:0 66:0 67:0 68:0.1 69:0 70:0 71:0 72:0 73:0 74:0 75:0 76:0 77:0 78:0 79:0 80:0 81:0 82:0 83:0.1 84:0 85:0 
6.165762039179601 1:3.9 2:0.1 3:0.2 4:0.5 5:0.9 6:0 7:0.5 8:0.4 9:0 10:0 11:0 12:0.9 13:0.7 14:0 15:0.2 16:0 17:0 18:0.9 19:0 20:0 21:0 22:0 23:0.6 24:0.3 25:0 26:0 27:0 28:0.6 29:0.3 30:0.7 31:0.2 32:0.7 33:0.1 34:0.2 35:0.7 36:0.2 37:0.7 38:0.2 39:0 40:0 41:0 42:0.1 43:0.5 44:0.2 45:0 46:0 47:0.5 48:0 49:0 50:0 51:0 52:0 53:0 54:0 55:0.3 56:0 57:0 58:0 59:0.4 60:0 61:0 62:0 63:0 64:0 65:0.1 66:0 67:0 68:0.1 69:0 70:0 71:0 72:0 73:0 74:0 75:0 76:0.2 77:0 78:0 79:0 80:0.1 81:0 82:0 83:0 84:0 85:0 
4.755625321738139 1:3.2 2:0.1 3:0.3 4:0.3 5:0.7 6:0.1 7:0.4 8:0.2 9:0.3 10:0.7 11:0.1 12:0.2 13:0.2 14:0.3 15:0.4 16:0.1 17:0.3 18:0.5 19:0.1 20:0.1 21:0.1 22:0.2 23:0.3 24:0.3 25:0.2 26:0.2 27:0.2 28:0.4 29:0.1 30:0.4 31:0.5 32:0.6 33:0.2 34:0.2 35:0.7 36:0.2 37:0.1 38:0.4 39:0.4 40:0.1 41:0 42:0.4 43:0.1 44:0 45:0 46:0 47:0 48:0 49:0 50:0 51:0 52:0 53:0 54:0 55:0 56:0 57:0 58:0 59:0.1 60:0 61:0 62:0 63:0 64:0 65:0 66:0 67:0 68:0 69:0 70:0 71:0 72:0 73:0 74:0 75:0 76:0 77:0 78:0 79:0 80:0.1 81:0 82:0 83:0 84:0 85:0 
0.09117086526467866 1:1.1 2:0.1 3:0.2 4:0.3 5:0.3 6:0 7:0.3 8:0 9:0.6 10:0.3 11:0.2 12:0.4 13:0.3 14:0.2 15:0.5 16:0.3 17:0.4 18:0.4 19:0 20:0.2 21:0 22:0.4 23:0.2 24:0.3 25:0.3 26:0.2 27:0 28:0.5 29:0 30:0.7 31:0.2 32:0.5 33:0.2 34:0.2 35:0.5 36:0.4 37:0.2 38:0.4 39:0.4 40:0 41:0 42:0.4 43:0.6 44:0 45:0 46:0 47:0.5 48:0 49:0 50:0 51:0 52:0.5 53:0 54:0 55:0 56:0 57:0 58:0 59:0.6 60:0 61:0 62:0 63:0 64:0 65:0 66:0 67:0 68:0.1 69:0 70:0 71:0 72:0 73:0.1 74:0 75:0 76:0 77:0 78:0 79:0 80:0.1 81:0 82:0 83:0 84:0 85:0 
2.765134651563675 1:0.8 2:0.1 3:0.2 4:0.3 5:0.2 6:0.1 7:0.5 8:0 9:0.3 10:0.7 11:0.1 12:0.2 13:0.3 14:0.3 15:0.4 16:0 17:0.5 18:0.4 19:0.3 20:0 21:0 22:0 23:0.5 24:0.2 25:0 26:0.4 27:0.3 28:0 29:0.2 30:0 31:0.9 32:0.6 33:0.2 34:0.2 35:0.6 36:0.3 37:0 38:0.5 39:0.3 40:0.2 41:0 42:0.5 43:0.7 44:0.2 45:0 46:0 47:0.6 48:0 49:0 50:0 51:0 52:0 53:0 54:0 55:0 56:0 57:0 58:0 59:0.4 60:0 61:0 62:0 63:0 64:0 65:0.1 66:0 67:0 68:0.1 69:0 70:0 71:0 72:0 73:0 74:0 75:0 76:0 77:0 78:0 79:0 80:0.1 81:0 82:0 83:0 84:0 85:0 
0.03595336459884914 1:3.3 2:0.2 3:0.2 4:0.3 5:0.8 6:0 7:0.7 8:0.1 9:0.2 10:0.5 11:0.1 12:0.4 13:0.4 14:0.1 15:0.5 16:0 17:0.2 18:0.7 19:0 20:0 21:0.1 22:0.2 23:0.6 24:0.1 25:0 26:0.2 27:0.1 28:0.7 29:0.1 30:0.8 31:0.1 32:0.5 33:0.1 34:0.4 35:0.8 36:0.1 37:0.5 38:0.3 39:0.2 40:0 41:0 42:0.3 43:0.3 44:0.2 45:0 46:0 47:0.6 48:0 49:0 50:0 51:0 52:0 53:0 54:0 55:0 56:0 57:0 58:0 59:0.4 60:0 61:0 62:0 63:0 64:0 65:0.1 66:0 67:0 68:0.1 69:0 70:0 71:0 72:0 73:0 74:0 75:0 76:0 77:0 78:0 79:0 80:0.1 81:0 82:0 83:0 84:0 85:0 
34.18471620295991 1:0.1 2:0.1 3:0.3 4:0.3 5:0.1 6:0.2 7:0.5 8:0.3 9:0 10:0.9 11:0 12:0 13:0.2 14:0.5 15:0.4 16:0.4 17:0.3 18:0.2 19:0.6 20:0 21:0 22:0.3 23:0.1 24:0 25:0.4 26:0.2 27:0.3 28:0.1 29:0 30:0 31:0.9 32:0.5 33:0.4 34:0 35:0 36:0.9 37:0 38:0 39:0.8 40:0.1 41:0 42:0.5 43:0.8 44:0.2 45:0 46:0 47:0.6 48:0 49:0 50:0 51:0 52:0 53:0 54:0 55:0 56:0 57:0 58:0 59:0.4 60:0 61:0 62:0 63:0 64:0 65:0.1 66:0 67:0 68:0.1 69:0 70:0 71:0 72:0 73:0 74:0 75:0 76:0 77:0 78:0 79:0 80:0.1 81:0 82:0 83:0 84:0 85:0 
6.905768580118973 1:3.3 2:0.1 3:0.3 4:0.3 5:0.8 6:0.1 7:0.5 8:0 9:0.3 10:0.7 11:0.1 12:0.2 13:0.1 14:0.2 15:0.6 16:0.1 17:0.4 18:0.5 19:0.2 20:0.1 21:0 22:0.3 23:0.2 24:0.3 25:0.1 26:0.3 27:0.2 28:0.4 29:0.1 30:0.3 31:0.6 32:0.6 33:0.2 34:0.2 35:0.6 36:0.3 37:0.2 38:0.4 39:0.3 40:0.1 41:0.1 42:0.4 43:0.3 44:0 45:0 46:0.3 47:0.6 48:0 49:0 50:0 51:0 52:0.3 53:0 54:0 55:0 56:0 57:0 58:0 59:0.3 60:0 61:0 62:0 63:0 64:0 65:0 66:0 67:0.1 68:0.1 69:0 70:0 71:0 72:0 73:0.1 74:0 75:0 76:0 77:0 78:0 79:0 80:0.1 81:0 82:0 83:0 84:0 85:0 
3.999464922541845 1:0.3 2:0.1 3:0.2 4:0.4 5:0.1 6:0 7:0.4 8:0.2 9:0.4 10:0.5 11:0.1 12:0.3 13:0.2 14:0.5 15:0.3 16:0.2 17:0.3 18:0.4 19:0.3 20:0.1 21:0 22:0.2 23:0.3 24:0.3 25:0.3 26:0.1 27:0.2 28:0.3 29:0.1 30:0.3 31:0.6 32:0.7 33:0.1 34:0.2 35:0.5 36:0.4 37:0.3 38:0.3 39:0.3 40:0.1 41:0 42:0.4 43:0.6 44:0 45:0.3 46:0 47:0.6 48:0 49:0 50:0 51:0 52:0 53:0 54:0 55:0 56:0 57:0 58:0 59:0.6 60:0 61:0 62:0 63:0 64:0 65:0 66:0.1 67:0 68:0.1 69:0 70:0 71:0 72:0 73:0 74:0 75:0 76:0 77:0 78:0 79:0 80:0.1 81:0 82:0 83:0 84:0 85:0 
500 1:3.9 2:0.2 3:0.3 4:0.3 5:0.9 6:0.1 7:0.5 8:0 9:0.3 10:0.7 11:0.1 12:0.2 13:0.1 14:0.2 15:0.6 16:0.1 17:0.4 18:0.5 19:0.2 20:0.1 21:0 22:0.3 23:0.2 24:0.3 25:0.1 26:0.3 27:0.2 28:0.4 29:0.1 30:0.3 31:0.6 32:0.6 33:0.2 34:0.2 35:0.6 36:0.3 37:0.2 38:0.4 39:0.3 40:0.1 41:0.1 42:0.4 43:0.5 44:0 45:0 46:0 47:0.6 48:0 49:0 50:0 51:0 52:0 53:0 54:0 55:0 56:0 57:0 58:0 59:0 60:0 61:0 62:0 63:0 64:0 65:0 66:0 67:0 68:0.1 69:0 70:0 71:0 72:0 73:0 74:0 75:0 76:0 77:0 78:0 79:0 80:0 81:0 82:0 83:0 84:0 85:0 
5.168048423614333 1:0.1 2:0.1 3:0.3 4:0.3 5:0.1 6:0.1 7:0.6 8:0 9:0.3 10:0.9 11:0 12:0 13:0 14:0.4 15:0.5 16:0.8 17:0.1 18:0 19:0.9 20:0 21:0 22:0 23:0 24:0 25:0.9 26:0 27:0 28:0 29:0 30:0 31:0.9 32:0.7 33:0.2 34:0 35:0.2 36:0.7 37:0 38:0.1 39:0.3 40:0.5 41:0 42:0.7 43:0.8 44:0 45:0 46:0 47:0.6 48:0 49:0 50:0 51:0 52:0 53:0 54:0 55:0 56:0 57:0 58:0 59:0 60:0 61:0 62:0 63:0 64:0 65:0 66:0 67:0 68:0.2 69:0 70:0 71:0 72:0 73:0 74:0 75:0 76:0 77:0 78:0 79:0 80:0 81:0 82:0 83:0 84:0 85:0 
1.857592419626136 1:3.3 2:0.1 3:0.3 4:0.2 5:0.8 6:0 7:0.2 8:0.4 9:0.4 10:0.8 11:0.1 12:0.1 13:0.1 14:0.4 15:0.5 16:0 17:0.5 18:0.4 19:0 20:0 21:0 22:0.4 23:0.1 24:0.5 25:0 26:0.3 27:0.2 28:0.4 29:0 30:0.5 31:0.4 32:0.8 33:0.1 34:0 35:0.9 36:0 37:0.8 38:0.1 39:0.1 40:0 41:0 42:0.2 43:0.3 44:0.1 45:0 46:0 47:0.6 48:0 49:0 50:0 51:0 52:0 53:0 54:0 55:0 56:0 57:0 58:0 59:0.3 60:0 61:0 62:0 63:0 64:0 65:0.1 66:0 67:0 68:0.1 69:0 70:0 71:0 72:0 73:0 74:0 75:0 76:0 77:0 78:0 79:0 80:0.1 81:0 82:0 83:0 84:0 85:0 
4.552714202578354 1:3.6 2:0.1 3:0.3 4:0.3 5:0.8 6:0.1 7:0.5 8:0.1 9:0.3 10:0.6 11:0.1 12:0.2 13:0.2 14:0.4 15:0.4 16:0.2 17:0.2 18:0.6 19:0.2 20:0.1 21:0.1 22:0.2 23:0.3 24:0.2 25:0.2 26:0.1 27:0.2 28:0.4 29:0.2 30:0.6 31:0.3 32:0.6 33:0.1 34:0.3 35:0.7 36:0.2 37:0.3 38:0.4 39:0.2 40:0.1 41:0 42:0.3 43:0.3 44:0.2 45:0 46:0 47:0 48:0 49:0 50:0 51:0 52:0 53:0 54:0 55:0 56:0 57:0 58:0 59:0.5 60:0 61:0 62:0 63:0 64:0 65:0.1 66:0 67:0 68:0 69:0 70:0 71:0 72:0 73:0 74:0 75:0 76:0 77:0 78:0 79:0 80:0.1 81:0 82:0 83:0 84:0 85:0 
500 1:0.8 2:0.2 3:0.3 4:0.3 5:0.2 6:0 7:0.5 8:0.2 9:0.3 10:0.7 11:0.1 12:0.2 13:0.2 14:0.3 15:0.5 16:0.3 17:0.4 18:0.3 19:0.4 20:0 21:0 22:0.4 23:0.1 24:0 25:0.4 26:0.2 27:0.2 28:0.2 29:0 30:0.1 31:0.8 32:0.8 33:0 34:0.1 35:0.6 36:0.3 37:0 38:0.5 39:0.4 40:0 41:0 42:0.4 43:0.7 44:0 45:0 46:0 47:0.6 48:0 49:0 50:0 51:0 52:0 53:0 54:0 55:0 56:0 57:0 58:0 59:0 60:0 61:0 62:0 63:0 64:0 65:0 66:0 67:0 68:0.1 69:0 70:0 71:0 72:0 73:0 74:0 75:0 76:0 77:0 78:0 79:0 80:0 81:0 82:0 83:0 84:0 85:0 
3.610721613217835 1:0.3 2:0.1 3:0.2 4:0.4 5:0.1 6:0 7:0.5 8:0 9:0.4 10:0.7 11:0 12:0.2 13:0.2 14:0.5 15:0.2 16:0.3 17:0.4 18:0.2 19:0.5 20:0 21:0 22:0.4 23:0 24:0 25:0.5 26:0 27:0.3 28:0.2 29:0 30:0.6 31:0.3 32:0.6 33:0.3 34:0 35:0.2 36:0.7 37:0.3 38:0.4 39:0.3 40:0 41:0 42:0.4 43:0.6 44:0 45:0 46:0 47:0.6 48:0 49:0 50:0 51:0 52:0 53:0 54:0 55:0 56:0 57:0 58:0 59:0 60:0 61:0 62:0 63:0 64:0 65:0 66:0 67:0 68:0.1 69:0 70:0 71:0 72:0 73:0 74:0 75:0 76:0 77:0 78:0 79:0 80:0 81:0 82:0 83:0 84:0 85:0 
8.129546950203249 1:3.3 2:0.1 3:0.3 4:0.3 5:0.8 6:0.1 7:0.6 8:0.1 9:0.2 10:0.7 11:0.1 12:0.2 13:0.1 14:0.3 15:0.5 16:0.2 17:0.4 18:0.4 19:0.2 20:0.1 21:0.1 22:0.4 23:0.2 24:0.2 25:0.2 26:0.2 27:0.3 28:0.4 29:0 30:0.4 31:0.5 32:0.7 33:0.1 34:0.1 35:0.5 36:0.4 37:0.2 38:0.3 39:0.3 40:0.2 41:0 42:0.4 43:0.3 44:0 45:0 46:0 47:0 48:0 49:0 50:0 51:0 52:0 53:0 54:0 55:0 56:0 57:0 58:0 59:0 60:0 61:0 62:0 63:0 64:0 65:0 66:0 67:0 68:0 69:0 70:0 71:0 72:0 73:0 74:0 75:0 76:0 77:0 78:0 79:0 80:0 81:0 82:0 83:0 84:0 85:0 
4.44396659517848 1:3.7 2:0.1 3:0.3 4:0.2 5:0.8 6:0.3 7:0.2 8:0.1 9:0.4 10:0.7 11:0.2 12:0.1 13:0 14:0.2 15:0.7 16:0.2 17:0.5 18:0.3 19:0.3 20:0 21:0 22:0.4 23:0.2 24:0.1 25:0.2 26:0.2 27:0.3 28:0.3 29:0 30:0.7 31:0.2 32:0.7 33:0.1 34:0.2 35:0.6 36:0.3 37:0.1 38:0.4 39:0.4 40:0.1 41:0 42:0.4 43:0.5 44:0 45:0 46:0 47:0.6 48:0 49:0 50:0 51:0 52:0 53:0 54:0 55:0 56:0 57:0 58:0 59:0 60:0 61:0 62:0 63:0 64:0 65:0 66:0 67:0 68:0.1 69:0 70:0 71:0 72:0 73:0 74:0 75:0 76:0 77:0 78:0 79:0 80:0 81:0 82:0 83:0 84:0 85:0 
472.9953956176335 1:0.3 2:0.1 3:0.2 4:0.4 5:0.1 6:0.1 7:0.5 8:0.1 9:0.2 10:0.6 11:0.1 12:0.3 13:0.3 14:0.5 15:0.2 16:0.2 17:0.3 18:0.4 19:0.3 20:0.1 21:0.1 22:0.3 23:0.2 24:0.1 25:0.2 26:0.1 27:0.2 28:0.3 29:0.2 30:0.5 31:0.4 32:0.6 33:0 34:0.3 35:0.6 36:0.3 37:0.3 38:0.3 39:0.3 40:0.1 41:0 42:0.4 43:0.6 44:0 45:0 46:0 47:0.5 48:0 49:0 50:0 51:0 52:0 53:0 54:0 55:0 56:0 57:0 58:0 59:0 60:0 61:0 62:0 63:0 64:0 65:0 66:0 67:0 68:0.1 69:0 70:0 71:0 72:0 73:0 74:0 75:0 76:0 77:0 78:0 79:0 80:0 81:0 82:0 83:0 84:0 85:0 
1.037546059007133 1:1.3 2:0.1 3:0.3 4:0.2 5:0.3 6:0.6 7:0 8:0 9:0.3 10:0.7 11:0 12:0.2 13:0 14:0.5 15:0.4 16:0.2 17:0.6 18:0.2 19:0.1 20:0.1 21:0 22:0.5 23:0.3 24:0.1 25:0.1 26:0.1 27:0.4 28:0.3 29:0 30:0.7 31:0.2 32:0.9 33:0 34:0 35:0.3 36:0.6 37:0 38:0.1 39:0.5 40:0.3 41:0 42:0.6 43:0.7 44:0 45:0 46:0 47:0.5 48:0 49:0.4 50:0 51:0 52:0 53:0 54:0 55:0 56:0 57:0 58:0 59:0 60:0 61:0 62:0 63:0 64:0 65:0 66:0 67:0 68:0.1 69:0 70:0.1 71:0 72:0 73:0 74:0 75:0 76:0 77:0 78:0 79:0 80:0 81:0 82:0 83:0 84:0 85:0 
455.3544405930562 1:3.5 2:0.1 3:0.3 4:0.3 5:0.8 6:0.1 7:0.7 8:0.1 9:0.2 10:0.7 11:0 12:0.2 13:0.2 14:0.2 15:0.5 16:0.4 17:0.4 18:0.2 19:0.4 20:0.2 21:0 22:0.2 23:0.1 24:0.2 25:0.4 26:0.2 27:0.3 28:0.2 29:0 30:0.1 31:0.8 32:0.6 33:0.1 34:0.2 35:0.5 36:0.4 37:0.2 38:0.3 39:0.4 40:0.1 41:0 42:0.5 43:0.5 44:0.2 45:0 46:0 47:0.6 48:0 49:0 50:0 51:0 52:0 53:0 54:0 55:0.4 56:0 57:0 58:0 59:0.4 60:0 61:0 62:0 63:0 64:0 65:0.1 66:0 67:0 68:0.1 69:0 70:0 71:0 72:0 73:0 74:0 75:0 76:0.2 77:0 78:0 79:0 80:0.1 81:0 82:0 83:0 84:0 85:0 
3.946972646789671 1:3.6 2:0.1 3:0.3 4:0.3 5:0.8 6:0.2 7:0.4 8:0.1 9:0.3 10:0.6 11:0.1 12:0.3 13:0.5 14:0 15:0.4 16:0.3 17:0.3 18:0.3 19:0.3 20:0 21:0.2 22:0.4 23:0 24:0.2 25:0.3 26:0.3 27:0.3 28:0.2 29:0 30:0 31:0.9 32:0.6 33:0.1 34:0.3 35:0.5 36:0.4 37:0 38:0.3 39:0.5 40:0.2 41:0 42:0.6 43:0.3 44:0 45:0 46:0 47:0 48:0 49:0 50:0 51:0 52:0 53:0 54:0 55:0 56:0 57:0 58:0 59:0 60:0 61:0 62:0 63:0 64:0 65:0 66:0 67:0 68:0 69:0 70:0 71:0 72:0 73:0 74:0 75:0 76:0 77:0 78:0 79:0 80:0 81:0 82:0 83:0 84:0 85:0 
6.189832881632917 1:0.8 2:0.2 3:0.3 4:0.3 5:0.2 6:0.2 7:0.4 8:0.1 9:0.3 10:0.6 11:0.1 12:0.2 13:0.2 14:0.3 15:0.4 16:0.3 17:0.4 18:0.3 19:0.3 20:0.1 21:0 22:0.4 23:0.1 24:0.2 25:0.3 26:0.2 27:0.3 28:0.2 29:0.1 30:0.3 31:0.6 32:0.6 33:0.2 34:0.2 35:0.6 36:0.3 37:0.2 38:0.3 39:0.4 40:0.2 41:0.1 42:0.5 43:0.7 44:0.2 45:0 46:0 47:0.5 48:0 49:0.4 50:0 51:0 52:0 53:0 54:0 55:0 56:0 57:0 58:0 59:0.4 60:0 61:0 62:0 63:0 64:0 65:0.1 66:0 67:0 68:0.1 69:0 70:0.1 71:0 72:0 73:0 74:0 75:0 76:0 77:0 78:0 79:0 80:0.1 81:0 82:0 83:0 84:0 85:0 
1.40625011210499 1:1.3 2:0.2 3:0.3 4:0.2 5:0.3 6:0.4 7:0.2 8:0 9:0.3 10:0.5 11:0 12:0.4 13:0.2 14:0.4 15:0.4 16:0.2 17:0.5 18:0.2 19:0.2 20:0 21:0 22:0.5 23:0 24:0.3 25:0.2 26:0.4 27:0.3 28:0.2 29:0 30:0.4 31:0.5 32:0.5 33:0.1 34:0.3 35:0.5 36:0.4 37:0 38:0.4 39:0.4 40:0.1 41:0.1 42:0.5 43:0.7 44:0.2 45:0 46:0 47:0 48:0 49:0 50:0 51:0 52:0 53:0 54:0 55:0 56:0 57:0 58:0 59:0.3 60:0 61:0 62:0 63:0 64:0 65:0.1 66:0 67:0 68:0 69:0 70:0 71:0 72:0 73:0 74:0 75:0 76:0 77:0 78:0 79:0 80:0.1 81:0 82:0 83:0 84:0 85:0 
9.377926455126428 1:3.9 2:0.1 3:0.3 4:0.3 5:0.9 6:0 7:0.5 8:0.1 9:0.4 10:0.5 11:0.2 12:0.3 13:0.2 14:0.2 15:0.6 16:0 17:0.2 18:0.7 19:0.2 20:0 21:0 22:0.1 23:0.3 24:0.5 25:0.1 26:0.1 27:0.1 28:0.6 29:0.2 30:0.8 31:0.1 32:0.6 33:0.1 34:0.3 35:0.9 36:0 37:0.2 38:0.6 39:0.1 40:0 41:0 42:0.3 43:0.5 44:0 45:0 46:0 47:0 48:0 49:0 50:0 51:0 52:0 53:0 54:0 55:0 56:0 57:0 58:0 59:0.3 60:0 61:0 62:0 63:0 64:0 65:0 66:0 67:0 68:0 69:0 70:0 71:0 72:0 73:0 74:0 75:0 76:0 77:0 78:0 79:0 80:0.1 81:0 82:0 83:0 84:0 85:0 
3.281346462209073 1:4.1 2:0.1 3:0.3 4:0.3 5:1 6:0 7:0.5 8:0 9:0.4 10:0.7 11:0.2 12:0 13:0 14:0.3 15:0.6 16:0 17:0.4 18:0.5 19:0.2 20:0 21:0.2 22:0 23:0.4 24:0.3 25:0.2 26:0 27:0.2 28:0.5 29:0 30:0.4 31:0.5 32:0.7 33:0.2 34:0 35:0.5 36:0.4 37:0.2 38:0.2 39:0.3 40:0.3 41:0 42:0.5 43:0.4 44:0 45:0 46:0 47:0.6 48:0 49:0 50:0 51:0 52:0 53:0 54:0 55:0 56:0 57:0 58:0 59:0 60:0 61:0 62:0 63:0 64:0 65:0 66:0 67:0 68:0.1 69:0 70:0 71:0 72:0 73:0 74:0 75:0 76:0 77:0 78:0 79:0 80:0 81:0 82:0 83:0 84:0 85:0 
2.40625319560894 1:3.4 2:0.1 3:0.4 4:0.3 5:0.8 6:0 7:0.4 8:0.1 9:0.5 10:0.6 11:0.2 12:0.2 13:0 14:0.4 15:0.5 16:0 17:0.4 18:0.5 19:0.4 20:0 21:0 22:0.3 23:0.3 24:0 25:0 26:0.4 27:0 28:0.5 29:0 30:0.5 31:0.4 32:0.6 33:0.2 34:0.2 35:0.8 36:0.1 37:0 38:0 39:0.4 40:0.5 41:0 42:0.7 43:0.6 44:0.2 45:0 46:0 47:0.6 48:0 49:0 50:0 51:0 52:0 53:0 54:0 55:0 56:0 57:0 58:0 59:0.2 60:0 61:0 62:0.1 63:0 64:0 65:0.1 66:0 67:0 68:0.1 69:0 70:0 71:0 72:0 73:0 74:0 75:0 76:0 77:0 78:0 79:0 80:0.1 81:0 82:0 83:0.1 84:0 85:0 
13.12887185206876 1:3.3 2:0.1 3:0.2 4:0.3 5:0.8 6:0.2 7:0.3 8:0.2 9:0.3 10:0.6 11:0.1 12:0.2 13:0.3 14:0.5 15:0.2 16:0.1 17:0.3 18:0.6 19:0.1 20:0 21:0 22:0.2 23:0.2 24:0.6 25:0.1 26:0.1 27:0.2 28:0.6 29:0.1 30:0.3 31:0.6 32:0.6 33:0.1 34:0.3 35:0.8 36:0.1 37:0.2 38:0.6 39:0.1 40:0.1 41:0 42:0.3 43:0.3 44:0 45:0 46:0 47:0 48:0 49:0 50:0 51:0 52:0 53:0 54:0 55:0 56:0 57:0 58:0 59:0.4 60:0 61:0 62:0 63:0 64:0 65:0 66:0 67:0 68:0 69:0 70:0 71:0 72:0 73:0 74:0 75:0 76:0 77:0 78:0 79:0 80:0.1 81:0 82:0 83:0 84:0 85:0 
2.001605676858398 1:0.7 2:0.2 3:0.3 4:0.2 5:0.2 6:0.1 7:0.2 8:0.1 9:0.5 10:0.7 11:0.1 12:0.1 13:0.1 14:0.3 15:0.5 16:0.3 17:0.5 18:0.2 19:0.3 20:0.1 21:0 22:0.4 23:0.2 24:0.2 25:0.2 26:0.3 27:0.3 28:0.2 29:0.1 30:0.3 31:0.6 32:0.7 33:0.1 34:0.2 35:0.5 36:0.4 37:0.2 38:0.3 39:0.4 40:0.2 41:0.1 42:0.5 43:0.6 44:0.2 45:0 46:0 47:0.6 48:0 49:0 50:0 51:0 52:0 53:0 54:0 55:0.4 56:0 57:0.3 58:0 59:0.4 60:0 61:0 62:0 63:0 64:0.4 65:0.1 66:0 67:0 68:0.1 69:0 70:0 71:0 72:0 73:0 74:0 75:0 76:0.1 77:0 78:0.1 79:0 80:0.1 81:0 82:0 83:0 84:0 85:0.1 
500 1:0.8 2:0.1 3:0.3 4:0.3 5:0.2 6:0.3 7:0.4 8:0.2 9:0.2 10:0.8 11:0.1 12:0 13:0 14:0.5 15:0.4 16:0.4 17:0.3 18:0.2 19:0.5 20:0 21:0 22:0.2 23:0.1 24:0.2 25:0.4 26:0.2 27:0.2 28:0.1 29:0.2 30:0 31:0.9 32:0.9 33:0 34:0 35:0.4 36:0.5 37:0.2 38:0.2 39:0.5 40:0 41:0 42:0.5 43:0.7 44:0.2 45:0 46:0 47:0.6 48:0 49:0 50:0 51:0 52:0 53:0 54:0 55:0 56:0 57:0 58:0 59:0.4 60:0 61:0 62:0 63:0 64:0 65:0.1 66:0 67:0 68:0.1 69:0 70:0 71:0 72:0 73:0 74:0 75:0 76:0 77:0 78:0 79:0 80:0.1 81:0 82:0 83:0 84:0 85:0 
5.556912470945768 1:2.3 2:0.1 3:0.2 4:0.2 5:0.5 6:0 7:0.4 8:0.1 9:0.5 10:0.4 11:0.3 12:0.3 13:0.3 14:0.2 15:0.4 16:0.1 17:0.4 18:0.4 19:0.2 20:0 21:0 22:0.2 23:0.2 24:0.4 25:0.1 26:0.3 27:0.2 28:0.3 29:0.3 30:0.8 31:0.1 32:0.6 33:0.1 34:0.2 35:0.8 36:0.1 37:0.4 38:0.4 39:0.1 40:0 41:0 42:0.2 43:0.3 44:0.2 45:0 46:0 47:0.6 48:0 49:0 50:0 51:0 52:0 53:0 54:0 55:0 56:0 57:0 58:0 59:0.2 60:0 61:0 62:0 63:0 64:0 65:0.1 66:0 67:0 68:0.1 69:0 70:0 71:0 72:0 73:0 74:0 75:0 76:0 77:0 78:0 79:0 80:0.1 81:0 82:0 83:0 84:0 85:0 
3.920442966454686 1:3.6 2:0.1 3:0.3 4:0.3 5:0.8 6:0.1 7:0.4 8:0.2 9:0.3 10:0.7 11:0.1 12:0.2 13:0.2 14:0.4 15:0.4 16:0.2 17:0.4 18:0.4 19:0.2 20:0.1 21:0.1 22:0.3 23:0.2 24:0.3 25:0.2 26:0.2 27:0.3 28:0.4 29:0.1 30:0.8 31:0.1 32:0.6 33:0 34:0.3 35:0.6 36:0.3 37:0.3 38:0.4 39:0.3 40:0 41:0 42:0.3 43:0.3 44:0 45:0 46:0 47:0.6 48:0 49:0 50:0 51:0 52:0 53:0 54:0 55:0 56:0 57:0 58:0 59:0 60:0 61:0 62:0 63:0 64:0 65:0 66:0 67:0 68:0.1 69:0 70:0 71:0 72:0 73:0 74:0 75:0 76:0 77:0 78:0 79:0 80:0 81:0 82:0 83:0 84:0 85:0 
483.3412613521626 1:4.1 2:0.1 3:0.2 4:0.4 5:1 6:0 7:0.5 8:0.2 9:0.2 10:0.7 11:0.1 12:0.1 13:0 14:0.6 15:0.3 16:0.2 17:0 18:0.7 19:0.2 20:0.2 21:0.3 22:0.2 23:0.1 24:0.2 25:0.1 26:0.1 27:0.4 28:0.3 29:0.1 30:0.1 31:0.8 32:0.8 33:0 34:0.1 35:0.5 36:0.4 37:0.2 38:0.4 39:0.3 40:0.2 41:0 42:0.4 43:0.4 44:0 45:0 46:0 47:0 48:0 49:0 50:0 51:0 52:0 53:0 54:0 55:0 56:0 57:0 58:0 59:0 60:0 61:0 62:0 63:0 64:0 65:0 66:0 67:0 68:0 69:0 70:0 71:0 72:0 73:0 74:0 75:0 76:0 77:0 78:0 79:0 80:0 81:0 82:0 83:0 84:0 85:0 
4.364379198986476 1:3.1 2:0.1 3:0.2 4:0.5 5:0.7 6:0 7:0.4 8:0 9:0.5 10:0.9 11:0 12:0 13:0 14:0.8 15:0.1 16:0 17:0 18:0.9 19:0 20:0 21:0 22:0 23:0.5 24:0.4 25:0 26:0 27:0 28:0.8 29:0.1 30:0.9 31:0 32:0.5 33:0 34:0.4 35:0.9 36:0 37:0.4 38:0.4 39:0.1 40:0 41:0 42:0.3 43:0.1 44:0.2 45:0 46:0 47:0.6 48:0 49:0 50:0 51:0 52:0 53:0 54:0 55:0 56:0 57:0 58:0 59:0.3 60:0 61:0 62:0.1 63:0 64:0 65:0.1 66:0 67:0 68:0.1 69:0 70:0 71:0 72:0 73:0 74:0 75:0 76:0 77:0 78:0 79:0 80:0.1 81:0 82:0 83:0.1 84:0 85:0 
45.60420230608906 1:3.9 2:0.1 3:0.2 4:0.3 5:0.9 6:0.2 7:0.4 8:0.2 9:0.3 10:0.5 11:0.2 12:0.3 13:0.2 14:0.4 15:0.3 16:0.1 17:0.3 18:0.5 19:0.1 20:0.1 21:0 22:0.3 23:0.3 24:0.2 25:0.2 26:0.2 27:0.2 28:0.5 29:0.1 30:0.6 31:0.3 32:0.7 33:0.1 34:0.2 35:0.7 36:0.2 37:0.3 38:0.4 39:0.3 40:0.1 41:0 42:0.3 43:0.5 44:0 45:0 46:0 47:0 48:0 49:0 50:0 51:0 52:0 53:0 54:0 55:0 56:0 57:0 58:0 59:0.4 60:0 61:0 62:0 63:0 64:0 65:0 66:0 67:0 68:0 69:0 70:0 71:0 72:0 73:0 74:0 75:0 76:0 77:0 78:0 79:0 80:0.1 81:0 82:0 83:0 84:0 85:0 
1.863073772902313 1:3.3 2:0.1 3:0.2 4:0.4 5:0.8 6:0 7:0.5 8:0.2 9:0.2 10:0.6 11:0.1 12:0.2 13:0.1 14:0.4 15:0.5 16:0.4 17:0.1 18:0.5 19:0.2 20:0 21:0 22:0.3 23:0.3 24:0.2 25:0.3 26:0.1 27:0.5 28:0.2 29:0 30:0.3 31:0.6 32:0.7 33:0 34:0.2 35:0.8 36:0.1 37:0.2 38:0.5 39:0.2 40:0 41:0 42:0.3 43:0.3 44:0.2 45:0 46:0 47:0.6 48:0.5 49:0 50:0 51:0 52:0 53:0 54:0 55:0 56:0 57:0 58:0 59:0.4 60:0 61:0 62:0 63:0 64:0 65:0.1 66:0 67:0 68:0.1 69:0.1 70:0 71:0 72:0 73:0 74:0 75:0 76:0 77:0 78:0 79:0 80:0.1 81:0 82:0 83:0 84:0 85:0 
1.223723778641352 1:3.7 2:0.1 3:0.2 4:0.3 5:0.8 6:0.1 7:0.4 8:0.1 9:0.4 10:0.5 11:0.1 12:0.4 13:0.3 14:0.3 15:0.3 16:0 17:0.4 18:0.5 19:0.1 20:0.1 21:0.1 22:0.4 23:0.2 24:0.2 25:0.1 26:0.2 27:0.3 28:0.4 29:0.1 30:0.2 31:0.7 32:0.5 33:0.1 34:0.4 35:0.7 36:0.2 37:0.3 38:0.3 39:0.3 40:0 41:0 42:0.3 43:0.4 44:0.2 45:0 46:0 47:0.6 48:0 49:0 50:0 51:0 52:0 53:0 54:0 55:0 56:0 57:0 58:0 59:0.4 60:0 61:0 62:0 63:0 64:0 65:0.1 66:0 67:0 68:0.1 69:0 70:0 71:0 72:0 73:0 74:0 75:0 76:0 77:0 78:0 79:0 80:0.1 81:0 82:0 83:0 84:0 85:0 
0.2603239892536384 1:0.2 2:0.1 3:0.3 4:0.3 5:0.1 6:0 7:0.2 8:0.2 9:0.5 10:0.9 11:0 12:0 13:0 14:0.4 15:0.5 16:0.2 17:0.6 18:0.2 19:0.2 20:0.5 21:0 22:0.2 23:0 24:0 25:0.3 26:0.2 27:0.4 28:0 29:0 30:0.9 31:0 32:0.5 33:0.4 34:0 35:0.2 36:0.7 37:0 38:0 39:0.7 40:0.2 41:0 42:0.6 43:0.6 44:0.3 45:0 46:0 47:0 48:0 49:0 50:0 51:0 52:0 53:0 54:0 55:0.7 56:0 57:0 58:0 59:0.3 60:0 61:0 62:0 63:0 64:0 65:0.1 66:0 67:0 68:0 69:0 70:0 71:0 72:0 73:0 74:0 75:0 76:0.1 77:0 78:0 79:0 80:0.1 81:0 82:0 83:0 84:0 85:0 
13.67169797806901 1:3.9 2:0.1 3:0.2 4:0.4 5:0.9 6:0 7:0.7 8:0 9:0.2 10:0.7 11:0 12:0.2 13:0 14:0.5 15:0.4 16:0.2 17:0.2 18:0.6 19:0.4 20:0 21:0.2 22:0 23:0.2 24:0.2 25:0.3 26:0 27:0.2 28:0.3 29:0.2 30:0 31:0.9 32:0.5 33:0.4 34:0 35:0.6 36:0.3 37:0 38:0.7 39:0.2 40:0 41:0 42:0.4 43:0.5 44:0.2 45:0 46:0 47:0.5 48:0 49:0 50:0 51:0 52:0 53:0 54:0 55:0 56:0 57:0 58:0 59:0.4 60:0 61:0 62:0 63:0 64:0 65:0.1 66:0 67:0 68:0.1 69:0 70:0 71:0 72:0 73:0 74:0 75:0 76:0 77:0 78:0 79:0 80:0.1 81:0 82:0 83:0 84:0 85:0 
9.086078381639974 1:3.3 2:0.2 3:0.3 4:0.3 5:0.8 6:0.2 7:0.5 8:0 9:0.3 10:0.5 11:0 12:0.4 13:0.2 14:0.2 15:0.5 16:0 17:0.5 18:0.4 19:0.1 20:0 21:0.1 22:0.2 23:0.3 24:0.3 25:0 26:0.1 27:0.4 28:0.3 29:0.2 30:0.3 31:0.6 32:0.5 33:0.2 34:0.3 35:0.9 36:0 37:0.3 38:0.3 39:0.4 40:0.1 41:0 42:0.4 43:0.3 44:0 45:0 46:0 47:0.6 48:0 49:0 50:0 51:0 52:0 53:0 54:0 55:0 56:0 57:0 58:0 59:0 60:0 61:0 62:0 63:0 64:0 65:0 66:0 67:0 68:0.1 69:0 70:0 71:0 72:0 73:0 74:0 75:0 76:0 77:0 78:0 79:0 80:0 81:0 82:0 83:0 84:0 85:0 
2.630619060409048 1:3.8 2:0.1 3:0.2 4:0.1 5:0.9 6:0 7:0.2 8:0.4 9:0.4 10:0.7 11:0 12:0.2 13:0 14:0.7 15:0.2 16:0.4 17:0.4 18:0.1 19:0.1 20:0 21:0 22:0.1 23:0.4 24:0.5 25:0.4 26:0.1 27:0 28:0.4 29:0 30:0.7 31:0.2 32:0.7 33:0 34:0.2 35:0.6 36:0.3 37:0.1 38:0.1 39:0.8 40:0.1 41:0 42:0.5 43:0.4 44:0.2 45:0 46:0 47:0 48:0 49:0 50:0 51:0 52:0 53:0 54:0 55:0.4 56:0 57:0 58:0 59:0.3 60:0 61:0 62:0 63:0 64:0 65:0.1 66:0 67:0 68:0 69:0 70:0 71:0 72:0 73:0 74:0 75:0 76:0.1 77:0 78:0 79:0 80:0.1 81:0 82:0 83:0 84:0 85:0 
37.9971804244219 1:0.9 2:0.1 3:0.3 4:0.3 5:0.3 6:0.1 7:0.3 8:0.2 9:0.4 10:0.7 11:0.1 12:0.2 13:0.2 14:0.3 15:0.5 16:0.1 17:0.7 18:0.1 19:0.4 20:0 21:0 22:0.5 23:0.1 24:0.1 25:0.2 26:0.3 27:0.4 28:0.1 29:0 30:0.6 31:0.3 32:0.7 33:0.1 34:0.2 35:0.4 36:0.5 37:0.3 38:0.4 39:0.3 40:0.1 41:0 42:0.3 43:0.4 44:0 45:0 46:0 47:0 48:0 49:0 50:0 51:0 52:0 53:0 54:0 55:0 56:0 57:0 58:0 59:0 60:0 61:0 62:0 63:0 64:0 65:0 66:0 67:0 68:0 69:0 70:0 71:0 72:0 73:0 74:0 75:0 76:0 77:0 78:0 79:0 80:0 81:0 82:0 83:0 84:0 85:0 
5.632235862578265 1:1.1 2:0.1 3:0.2 4:0.3 5:0.3 6:0.1 7:0.4 8:0.1 9:0.4 10:0.7 11:0.1 12:0.2 13:0.4 14:0.4 15:0.2 16:0 17:0.3 18:0.6 19:0 20:0 21:0 22:0.9 23:0 24:0 25:0 26:0.3 27:0.1 28:0.5 29:0.1 30:0.7 31:0.2 32:0.6 33:0.2 34:0.1 35:0.5 36:0.4 37:0.5 38:0.3 39:0.1 40:0 41:0 42:0.3 43:0.6 44:0.2 45:0 46:0 47:0.6 48:0 49:0 50:0 51:0 52:0 53:0 54:0 55:0 56:0 57:0 58:0 59:0.3 60:0 61:0 62:0 63:0 64:0 65:0.1 66:0 67:0 68:0.1 69:0 70:0 71:0 72:0 73:0 74:0 75:0 76:0 77:0 78:0 79:0 80:0.1 81:0 82:0 83:0 84:0 85:0 
465.1907219687609 1:3.3 2:0.1 3:0.2 4:0.3 5:0.8 6:0 7:0.7 8:0 9:0.2 10:0.7 11:0.2 12:0 13:0 14:0.5 15:0.4 16:0 17:0.3 18:0.6 19:0.2 20:0 21:0 22:0.2 23:0.5 24:0.2 25:0.2 26:0.1 27:0.2 28:0.5 29:0.2 30:0 31:0.9 32:0.4 33:0.4 34:0.2 35:0.6 36:0.3 37:0.2 38:0.5 39:0.3 40:0 41:0 42:0.3 43:0.3 44:0 45:0 46:0 47:0 48:0 49:0 50:0 51:0 52:0 53:0 54:0 55:0 56:0 57:0 58:0 59:0 60:0 61:0 62:0 63:0 64:0 65:0 66:0 67:0 68:0 69:0 70:0 71:0 72:0 73:0 74:0 75:0 76:0 77:0 78:0 79:0 80:0 81:0 82:0 83:0 84:0 85:0 
244.4837332182249 1:3.3 2:0.1 3:0.3 4:0.3 5:0.8 6:0 7:0.6 8:0.2 9:0.1 10:0.6 11:0 12:0.3 13:0.2 14:0.3 15:0.4 16:0.1 17:0.2 18:0.7 19:0.1 20:0 21:0.2 22:0.2 23:0.1 24:0.5 25:0.1 26:0.2 27:0.2 28:0.5 29:0.1 30:0.1 31:0.8 32:0.7 33:0 34:0.2 35:0.7 36:0.2 37:0 38:0.5 39:0.4 40:0 41:0 42:0.4 43:0.3 44:0.2 45:0 46:0 47:0.6 48:0 49:0 50:0 51:0 52:0 53:0 54:0 55:0 56:0 57:0 58:0 59:0.4 60:0 61:0 62:0 63:0 64:0 65:0.1 66:0 67:0 68:0.1 69:0 70:0 71:0 72:0 73:0 74:0 75:0 76:0 77:0 78:0 79:0 80:0.2 81:0 82:0 83:0 84:0 85:0 
0.9250208087063068 1:0.7 2:0.2 3:0.1 4:0.5 5:0.2 6:0.3 7:0.3 8:0.3 9:0.2 10:0.5 11:0 12:0.4 13:0.5 14:0.4 15:0 16:0.2 17:0.3 18:0.5 19:0 20:0 21:0 22:0.6 23:0 24:0.3 25:0.2 26:0 27:0.3 28:0.5 29:0 30:0.9 31:0 32:0.5 33:0 34:0.4 35:0.6 36:0.3 37:0.5 38:0.4 39:0 40:0 41:0 42:0.2 43:0.7 44:0 45:0 46:0 47:0.6 48:0 49:0 50:0 51:0 52:0 53:0 54:0 55:0 56:0 57:0 58:0 59:0.3 60:0 61:0 62:0 63:0 64:0 65:0 66:0 67:0 68:0.1 69:0 70:0 71:0 72:0 73:0 74:0 75:0 76:0 77:0 78:0 79:0 80:0.1 81:0 82:0 83:0 84:0 85:0 
