svm_type c_svc
kernel_type rbf
gamma 0.5
nr_class 2
total_sv 545
rho 1.64755
label 0 1
nr_sv 238 307
SV
8.995350039054182 1:0.377969 2:42.035599 3:2.2671499 
500 1:0.36875901 2:3.55459 3:2.1887801 
500 1:0.35126501 2:5.3701701 3:2.1887801 
500 1:0.63467097 2:4.7597299 3:2.17889 
500 1:0.53585702 2:5.7607498 3:2.17889 
276.2992873484347 1:0.94327098 2:0 3:2.1779001 
500 1:0.77983803 2:1.86528 3:2.1777599 
224.7149433646853 1:0.87589502 2:1.8371201 3:2.1770301 
500 1:0.87589502 2:1.8371201 3:2.17693 
500 1:0.66560102 2:2.66065 3:2.175 
500 1:0.30996099 2:8.4455404 3:2.1749799 
500 1:0.71681798 2:2.4453599 3:2.1728001 
500 1:0.3488 2:5.8814902 3:2.1728001 
500 1:0.182198 2:1.66295 3:2.17223 
500 1:0.83995402 2:0 3:2.1717801 
500 1:0.69017297 2:6.4337201 3:2.1717801 
500 1:0.434295 2:3.8287399 3:2.17079 
500 1:0.276746 2:10.9009 3:2.1684401 
500 1:0.19523101 2:5.2109098 3:2.1673501 
15.19105222753446 1:0.37903601 2:39.1889 3:2.1649301 
500 1:0.35107401 2:5.03478 3:2.1637399 
500 1:0.55653799 2:2.1263199 3:2.1623199 
500 1:0.30672199 2:7.0616398 3:2.1623199 
500 1:0.63035202 2:5.1117401 3:2.16203 
500 1:0.35385999 2:6.6791501 3:2.16203 
500 1:0.51415598 2:6.7298298 3:2.1580601 
500 1:0.64341402 2:4.6955299 3:2.1572399 
500 1:0.60008001 2:4.16401 3:2.1572399 
500 1:0.61792499 2:3.7450399 3:2.1556499 
500 1:0.87589502 2:1.8371201 3:2.15552 
500 1:0.63074702 2:4.9095702 3:2.15552 
500 1:0.44291601 2:5.5051899 3:2.1545999 
500 1:0.45141399 2:8.9770803 3:2.15378 
500 1:0.235062 2:6.73598 3:2.15358 
500 1:0.52889198 2:5.8572302 3:2.1531701 
500 1:0.18489601 2:7.41219 3:2.15224 
500 1:0.68373197 2:2.3673699 3:2.15167 
500 1:0.37567401 2:4.89783 3:2.1516199 
500 1:0.87589502 2:1.8371201 3:2.15133 
500 1:0.50453001 2:8.2429304 3:2.15133 
500 1:0.38546801 2:5.07023 3:2.15133 
500 1:0.58345598 2:5.5558701 3:2.1512899 
500 1:0.347992 2:6.0681801 3:2.14849 
500 1:0.63726401 2:3.47999 3:2.1484201 
500 1:0.709975 2:2.38469 3:2.14838 
500 1:0.68756002 2:4.66576 3:2.1464601 
500 1:0.67349702 2:3.38729 3:2.14465 
500 1:0.593606 2:6.29672 3:2.14465 
500 1:0.66344202 2:4.4079599 3:2.1446199 
500 1:0.56978202 2:4.9409199 3:2.1426201 
500 1:0.626948 2:2.4431 3:2.13677 
500 1:0.83995402 2:0 3:2.1220601 
500 1:0.69646001 2:3.7764399 3:2.1220601 
500 1:0.64007699 2:3.8631799 3:2.1220601 
500 1:0.584885 2:6.2420201 3:2.1220601 
23.9002744051405 1:0.51160401 2:31.879801 3:2.1220601 
500 1:0.36885399 2:15.7489 3:2.1220601 
500 1:0.306041 2:8.1364603 3:2.1220601 
500 1:0.87589502 2:1.8371201 3:2.0987401 
500 1:0.73983902 2:2.16506 3:2.0987401 
500 1:0.73716497 2:6.4731498 3:2.0987401 
500 1:0.72560501 2:1.21878 3:2.0987401 
500 1:0.70829397 2:3.5016401 3:2.0987401 
500 1:0.65879297 2:2.2003701 3:2.0987401 
500 1:0.65493703 2:4.53228 3:2.0987401 
500 1:0.63866699 2:4.4556298 3:2.0987401 
2.647453673314298 1:0.20024399 2:159.43401 3:2.0987401 
4.886586098708721 1:0.233395 2:57.497799 3:2.0905499 
2.647824342860102 1:0.31438401 2:68.0439 3:2.0887401 
500 1:0.80851799 2:1.63299 3:2.0887201 
500 1:0.74568403 2:3.02072 3:2.0887201 
500 1:0.73983902 2:2.16506 3:2.0887201 
500 1:0.67108399 2:2.74492 3:2.0887201 
500 1:0.64080697 2:2.25282 3:2.0887201 
500 1:0.60555702 2:5.45926 3:2.0887201 
500 1:0.54352403 2:4.8403101 3:2.0887201 
500 1:0.49882901 2:6.8378601 3:2.0887201 
500 1:0.496916 2:20.6478 3:2.0887201 
500 1:0.87589502 2:1.8371201 3:2.08815 
500 1:0.74759799 2:1.7223099 3:2.08815 
500 1:0.71686798 2:8.3313103 3:2.08815 
500 1:0.66594303 2:4.2483301 3:2.08815 
500 1:0.62122798 2:2.7661099 3:2.08815 
500 1:0.497821 2:7.5141101 3:2.08815 
500 1:0.495307 2:3.8568201 3:2.08815 
500 1:0.34208199 2:9.7345304 3:2.08815 
500 1:0.88104898 2:1.73522 3:2.0875101 
500 1:0.87589502 2:1.8371201 3:2.0875101 
500 1:0.80851799 2:1.63299 3:2.0875101 
500 1:0.80442798 2:5.41394 3:2.0875101 
500 1:0.73983902 2:2.16506 3:2.0875101 
500 1:0.669985 2:4.45825 3:2.0875101 
500 1:0.65298802 2:9.3473997 3:2.0875101 
500 1:0.54979002 2:2.5876701 3:2.0875101 
500 1:0.52405202 2:3.59813 3:2.0875101 
500 1:0.49901101 2:5.1398201 3:2.0875101 
358.1422345712892 1:0.41586801 2:23.3377 3:2.0875101 
500 1:0.737975 2:3.46031 3:2.0871301 
500 1:0.71401697 2:2.68977 3:2.0871301 
500 1:0.56431401 2:8.3459597 3:2.0871301 
500 1:0.419828 2:15.8345 3:2.0871301 
500 1:0.77228397 2:2.0576501 3:2.0855501 
500 1:0.72553098 2:2.23524 3:2.0855501 
500 1:0.65477997 2:6.1113501 3:2.0855501 
500 1:0.651227 2:6.3979902 3:2.0855501 
500 1:0.57685399 2:3.60814 3:2.0855501 
500 1:0.53585702 2:6.1714001 3:2.0855501 
92.46760443545377 1:0.48143101 2:26.9412 3:2.0855501 
500 1:0.75461698 2:2.3529899 3:2.0843899 
500 1:0.73617297 2:3.15539 3:2.0843899 
500 1:0.65879297 2:2.2003701 3:2.0843899 
500 1:0.63249099 2:10.0497 3:2.0843899 
500 1:0.512133 2:18.012199 3:2.0843899 
500 1:0.332847 2:7.6672602 3:2.0843899 
500 1:0.88397998 2:1.75293 3:2.08425 
500 1:0.85497999 2:2.3747399 3:2.08425 
500 1:0.80851799 2:1.63299 3:2.08425 
456.352996009162 1:0.80010599 2:1.3768899 3:2.08425 
500 1:0.61146498 2:9.5047503 3:2.08425 
500 1:0.59178603 2:5.1332502 3:2.08425 
500 1:0.84197402 2:3.2125101 3:2.0842299 
500 1:0.575032 2:6.3556399 3:2.0842299 
500 1:0.487654 2:9.4081202 3:2.0842299 
500 1:0.42451099 2:20.0079 3:2.0842299 
500 1:0.73037797 2:6.48418 3:2.0841501 
500 1:0.59527498 2:4.99332 3:2.0841501 
500 1:0.566688 2:15.2554 3:2.0841501 
500 1:0.53901201 2:5.0145602 3:2.0841501 
500 1:0.389871 2:8.5419798 3:2.0841501 
500 1:0.77228397 2:2.0576501 3:2.0840199 
500 1:0.77228397 2:2.0576501 3:2.0840199 
500 1:0.76583803 2:2.9439199 3:2.0840199 
500 1:0.74439102 2:4.11901 3:2.0840199 
500 1:0.648745 2:8.66992 3:2.0840199 
500 1:0.60085601 2:5.3674998 3:2.0840199 
500 1:0.41018 2:14.8839 3:2.0840199 
500 1:0.82501799 2:2.8657801 3:2.0840001 
500 1:0.804048 2:2.41746 3:2.0840001 
500 1:0.74333698 2:6.1827402 3:2.0840001 
500 1:0.432704 2:6.35958 3:2.0840001 
500 1:0.41005099 2:9.7284899 3:2.0840001 
500 1:0.89155298 2:2.34495 3:2.0838399 
500 1:0.74659902 2:7.2599401 3:2.0838399 
500 1:0.62518197 2:3.7457299 3:2.0838399 
500 1:0.61515099 2:3.19505 3:2.0838399 
500 1:0.61155099 2:7.0256 3:2.0838399 
500 1:0.550116 2:6.31532 3:2.0838399 
500 1:0.44454899 2:19.554899 3:2.0838399 
73.12220962882044 1:0.85737097 2:1.06066 3:2.08375 
500 1:0.83995402 2:0 3:2.08375 
500 1:0.61127901 2:5.02144 3:2.08375 
500 1:0.606179 2:8.4228296 3:2.08375 
500 1:0.47441599 2:15.8749 3:2.08375 
500 1:0.87589502 2:1.8371201 3:2.08373 
500 1:0.80851799 2:1.63299 3:2.08373 
500 1:0.78607899 2:2.0455999 3:2.08373 
500 1:0.72560501 2:2.4224 3:2.08373 
500 1:0.69343001 2:3.1629901 3:2.08373 
500 1:0.68228197 2:3.1396101 3:2.08373 
500 1:0.39374 2:3.6849999 3:2.08373 
500 1:0.360488 2:16.947001 3:2.08373 
500 1:0.83995402 2:0 3:2.0834 
500 1:0.83231902 2:2.1714301 3:2.0834 
500 1:0.81450498 2:3.6836901 3:2.0834 
500 1:0.80851799 2:2.59167 3:2.0834 
500 1:0.57614702 2:5.5784702 3:2.0834 
500 1:0.55855697 2:15.982 3:2.0834 
500 1:0.41678101 2:7.3891401 3:2.0834 
500 1:0.77408397 2:2.0780301 3:2.0833399 
500 1:0.71400398 2:2.77332 3:2.0833399 
500 1:0.607939 2:1.48716 3:2.0833399 
500 1:0.51672697 2:4.83779 3:2.0833399 
500 1:0.277785 2:28.9795 3:2.0833399 
500 1:0.83995402 2:0 3:2.08318 
500 1:0.80851799 2:1.63299 3:2.08318 
500 1:0.80221301 2:2.2005601 3:2.08318 
500 1:0.73983902 2:2.16506 3:2.08318 
500 1:0.55255502 2:8.1301298 3:2.08318 
500 1:0.53825802 2:5.3723402 3:2.08318 
500 1:0.468337 2:16.7882 3:2.08318 
500 1:0.750072 2:6.5009699 3:2.0805399 
500 1:0.67108399 2:3.5520501 3:2.0805399 
500 1:0.33605099 2:7.2376399 3:2.0805399 
500 1:0.242844 2:28.8454 3:2.0805399 
500 1:0.49308401 2:11.0954 3:2.0802701 
284.6307283297039 1:0.490125 2:24.1597 3:2.0802701 
500 1:0.470211 2:8.8827 3:2.0802701 
500 1:0.27080899 2:11.2297 3:2.0802701 
500 1:0.83995402 2:0 3:2.0798199 
500 1:0.75542301 2:2.9937 3:2.0798199 
500 1:0.73845702 2:8.75875 3:2.0798199 
500 1:0.71681798 2:2.4453599 3:2.0798199 
500 1:0.698659 2:4.4428601 3:2.0798199 
500 1:0.65865701 2:4.3965201 3:2.0798199 
500 1:0.55253798 2:27.3883 3:2.0798199 
500 1:0.45234299 2:9.1933203 3:2.0798199 
500 1:0.63804901 2:3.3931401 3:2.05618 
500 1:0.61515099 2:3.19505 3:2.0548699 
19.91521720603916 1:0.44351801 2:37.361801 3:2.0548699 
500 1:0.80851799 2:1.63299 3:2.04953 
500 1:0.77857298 2:3.3659201 3:2.04953 
500 1:0.718683 2:2.64486 3:2.04953 
500 1:0.69380999 2:9.5644197 3:2.04953 
500 1:0.582133 2:2.9472499 3:2.04953 
500 1:0.50179601 2:6.4021702 3:2.04953 
500 1:0.38717601 2:2.3743701 3:2.04953 
500 1:0.34866399 2:26.621599 3:2.04953 
474.4040071410596 1:0.733468 2:18.2878 3:2.0440199 
500 1:0.37826699 2:27.8447 3:2.0427301 
77.55127158529038 1:0.71534097 2:27.3599 3:2.0412199 
500 1:0.63682801 2:18.5791 3:2.0411601 
42.70046358316981 1:0.554896 2:26.1063 3:2.0409501 
500 1:0.61623597 2:3.8439801 3:2.0341101 
500 1:0.41294301 2:8.1009798 3:2.0341101 
50.81961973352647 1:0.41206199 2:43.7808 3:2.0341101 
500 1:0.91963398 2:1.95904 3:2.0307801 
500 1:0.80010599 2:2.2001801 3:2.0307801 
500 1:0.76359499 2:2.09409 3:2.0307801 
500 1:0.68594098 2:6.67379 3:2.0307801 
500 1:0.55710602 2:9.2203598 3:2.0307801 
500 1:0.54891098 2:8.3723097 3:2.0307801 
500 1:0.259132 2:16.3638 3:2.0307801 
500 1:0.70218098 2:8.0862503 3:2.0295801 
172.7056031487705 1:0.228184 2:40.9893 3:2.0295801 
500 1:0.20951 2:14.6348 3:2.0295801 
500 1:0.87589502 2:1.8371201 3:1.98375 
500 1:0.718683 2:2.6858699 3:1.98375 
500 1:0.64596301 2:7.0388298 3:1.98375 
500 1:0.58414799 2:7.5868702 3:1.98375 
500 1:0.40487 2:5.80796 3:1.98375 
45.23827911663793 1:0.32117501 2:35.319099 3:1.98375 
0.01372283813838108 1:0.94327098 2:0 3:1.9770499 
2.459762511548261 1:0.94327098 2:0 3:1.9770499 
500 1:0.69856399 2:2.40891 3:1.9770499 
500 1:0.60240698 2:10.144 3:1.9770499 
500 1:0.54524302 2:4.5989599 3:1.9770499 
500 1:0.45758 2:11.2571 3:1.9770499 
106.6901044068798 1:0.341326 2:39.3638 3:1.9770499 
-294.0718248814011 1:0.29774699 2:4.0019598 3:2.1717899 
-2.211235058419238 1:0.62169898 2:6.0790501 3:2.16873 
-384.6267667456594 1:0.358125 2:7.65839 3:2.16873 
-28.43823383493772 1:0.267524 2:10.0284 3:2.1666901 
-313.1818411578428 1:0.16334 2:29.1859 3:2.1666901 
-500 1:0.524912 2:5.3163199 3:2.1652 
-500 1:0.57150501 2:5.0249901 3:2.16517 
-500 1:0.54999697 2:5.0391102 3:2.16083 
-498.7535053955724 1:0.50696403 2:5.34549 3:2.16083 
-223.6256818161571 1:0.59088999 2:18.033701 3:2.1593599 
-37.59334943332334 1:0.41623601 2:10.8671 3:2.1587901 
-493.1710828252606 1:0.466546 2:15.7804 3:2.1584899 
-500 1:0.383304 2:5.4819999 3:2.15817 
-197.0140802881292 1:0.58098102 2:18.9841 3:2.15783 
-363.4804513503357 1:0.55534399 2:4.9755998 3:2.1572101 
-40.26818881929776 1:0.289803 2:19.945 3:2.1572101 
-500 1:0.60852098 2:3.7107 3:2.15713 
-500 1:0.82057297 2:1.97061 3:2.1569099 
-499.1904066520661 1:0.325167 2:6.8607702 3:2.1569099 
-339.9626069312985 1:0.246353 2:2.2440701 3:2.1569099 
-500 1:0.50800401 2:6.3336301 3:2.15608 
-9.636604723860209 1:0.24228901 2:10.1532 3:2.1559899 
-500 1:0.74295598 2:2.3059199 3:2.1551199 
-132.154366301334 1:0.473766 2:6.2126198 3:2.1551199 
-500 1:0.509067 2:3.88516 3:2.1547999 
-500 1:0.61140698 2:4.9396601 3:2.1547 
-500 1:0.81985497 2:1.68572 3:2.15468 
-500 1:0.53989798 2:3.2272699 3:2.15468 
-59.65981197348059 1:0.47835699 2:2.5910001 3:2.15468 
-6.873518276339495 1:0.40361401 2:10.0952 3:2.15468 
-418.9171086122097 1:0.84003001 2:0 3:2.1540899 
-500 1:0.34659499 2:9.1613398 3:2.1539299 
-302.1649090867438 1:0.84003001 2:2.2813699 3:2.1536801 
-29.06829700887748 1:0.63619697 2:22.4897 3:2.1529 
-271.3642933986754 1:0.43027601 2:6.3864102 3:2.1525099 
-48.92546742545782 1:0.71400398 2:9.6986399 3:2.15135 
-500 1:0.63292301 2:4.77249 3:2.151 
-500 1:0.53901201 2:5.01476 3:2.151 
-63.28300698627915 1:0.40221399 2:14.898 3:2.1506 
-500 1:0.309275 2:5.5985899 3:2.15029 
-500 1:0.54360902 2:5.9601202 3:2.1498899 
-500 1:0.61442697 2:5.2074399 3:2.1498001 
-288.6904295031882 1:0.25385699 2:16.664 3:2.1487701 
-500 1:0.77966601 2:2.2195699 3:2.1486101 
-500 1:0.81199801 2:2.11321 3:2.1484399 
-3.855415540083823 1:0.168055 2:6.0602498 3:2.1484399 
-62.35267866315688 1:0.269811 2:16.9181 3:2.14798 
-500 1:0.84003001 2:0 3:2.1475301 
-500 1:0.487528 2:8.4120798 3:2.14747 
-500 1:0.559461 2:6.4057002 3:2.1471601 
-500 1:0.268143 2:5.2390499 3:2.14694 
-4.939025340424767 1:0.13450199 2:10.5011 3:2.1467299 
-500 1:0.221495 2:6.7069001 3:2.14641 
-342.626982064636 1:0.60260201 2:27.6856 3:2.1458099 
-2.90828780360504 1:0.74344498 2:5.2121301 3:2.1449201 
-270.6725512181703 1:0.205347 2:8.2203302 3:2.14481 
-500 1:0.61832398 2:6.2962799 3:2.1440301 
-186.3342242457448 1:0.65018398 2:4.8871698 3:2.14341 
-500 1:0.83494699 2:2.03582 3:2.1430199 
-500 1:0.500301 2:2.48525 3:2.1430199 
-500 1:0.42920601 2:2.1064899 3:2.1430199 
-500 1:0.82550699 2:2.1742001 3:2.1429901 
-500 1:0.55820698 2:8.5380096 3:2.1429601 
-500 1:0.79501599 2:1.5005 3:2.1428699 
-500 1:0.43193701 2:1.71706 3:2.1428699 
-500 1:0.56335199 2:5.83639 3:2.1424201 
-97.53906172970966 1:0.75948203 2:5.6721802 3:2.14206 
-15.04171033937557 1:0.52303302 2:2.9834599 3:2.14167 
-359.8385035063206 1:0.25210699 2:5.23102 3:2.1413801 
-500 1:0.70399201 2:6.2516398 3:2.1401999 
-310.0281219041237 1:0.25296801 2:11.0873 3:2.1401999 
-500 1:0.84003001 2:0 3:2.1387401 
-390.639373387517 1:0.793338 2:4.18504 3:2.13866 
-500 1:0.67332 2:3.91998 3:2.13815 
-500 1:0.489225 2:5.2451501 3:2.13815 
-317.3821815748407 1:0.75367099 2:6.44453 3:2.1377599 
-496.3515530544076 1:0.63994199 2:4.2235699 3:2.1377599 
-500 1:0.84003001 2:0 3:2.1377299 
-500 1:0.35484001 2:6.53022 3:2.13748 
-500 1:0.58858001 2:3.3129301 3:2.1372199 
-419.35576309034 1:0.64064199 2:4.7108798 3:2.1371901 
-378.4643424243548 1:0.280606 2:10.9249 3:2.1371901 
-500 1:0.83995402 2:1.92257 3:2.13659 
-500 1:0.79001999 2:2.2328701 3:2.1361401 
-500 1:0.28542501 2:7.39539 3:2.13569 
-500 1:0.602947 2:3.40272 3:2.1354699 
-500 1:0.37848499 2:9.5982304 3:2.13485 
-500 1:0.559461 2:6.4057002 3:2.1344299 
-500 1:0.52361101 2:4.0906301 3:2.1344299 
-17.86115026213875 1:0.41155401 2:16.6206 3:2.1344299 
-500 1:0.46281201 2:3.8264201 3:2.1343999 
-500 1:0.33453801 2:7.35987 3:2.1343999 
-500 1:0.84003001 2:2.2813699 3:2.1340699 
-500 1:0.78858 2:1.97913 3:2.1340699 
-500 1:0.84003001 2:2.2813699 3:2.1336999 
-331.3042278972703 1:0.38105401 2:5.1565099 3:2.1330099 
-500 1:0.65879297 2:2.45418 3:2.1324201 
-500 1:0.79649502 2:2.24369 3:2.13234 
-500 1:0.35036299 2:5.6271801 3:2.1321199 
-500 1:0.69928801 2:3.3376801 3:2.13117 
-248.6458589589332 1:0.39441401 2:8.2219 3:2.1309199 
-500 1:0.62784499 2:3.31933 3:2.1308501 
-500 1:0.84003001 2:2.2813699 3:2.13012 
-500 1:0.64432198 2:4.4032102 3:2.12744 
-8.611387018496417 1:0.62514699 2:8.8257799 3:2.12744 
-75.93919051804181 1:0.57731599 2:4.3702202 3:2.1257 
-500 1:0.63576299 2:4.75314 3:2.12462 
-500 1:0.558846 2:8.9630203 3:2.12462 
-500 1:0.62680799 2:2.40593 3:2.1241801 
-46.07440629734534 1:0.50863898 2:3.88305 3:2.1238401 
-500 1:0.44024599 2:4.2686701 3:2.1238301 
-500 1:0.84003001 2:2.2813699 3:2.1236701 
-500 1:0.66512698 2:3.37626 3:2.1236701 
-442.1229246535081 1:0.35501999 2:7.0352602 3:2.12327 
-126.5525380317813 1:0.21906599 2:19.6374 3:2.12327 
-500 1:0.595604 2:8.1352196 3:2.1212299 
-25.46652869780651 1:0.349585 2:11.0017 3:2.1201301 
-500 1:0.84003001 2:2.2813699 3:2.1180699 
-500 1:0.79501599 2:1.5005 3:2.1180699 
-500 1:0.77550298 2:1.7208 3:2.1118801 
-500 1:0.77463102 2:2.25611 3:2.1110001 
-280.6135489049306 1:0.732575 2:3.7464299 3:2.1106501 
-343.0281974479391 1:0.50261903 2:15.2508 3:2.10976 
-202.4207946459073 1:0.76144898 2:5.7586398 3:2.1089101 
-151.850314595948 1:0.206462 2:3.91624 3:2.1086099 
-500 1:0.51124698 2:6.6269498 3:2.10675 
-53.28159696020678 1:0.340518 2:22.9561 3:2.1057601 
-500 1:0.72293901 2:6.6599002 3:2.1055501 
-43.81586313862934 1:0.45719901 2:16.2101 3:2.10515 
-500 1:0.72340697 2:6.32899 3:2.1051199 
-500 1:0.84396797 2:1.68572 3:2.1038599 
-500 1:0.54644299 2:5.1374002 3:2.1038599 
-500 1:0.691688 2:3.3761401 3:2.1034601 
-500 1:0.80182803 2:4.0434399 3:2.1032701 
-411.5717407727685 1:0.74197698 2:3.50213 3:2.1008201 
-50.11641203619253 1:0.229818 2:43.746101 3:2.1008201 
-35.69027789453762 1:0.26129201 2:7.01511 3:2.10008 
-48.7596218988427 1:0.82081401 2:3.7362001 3:2.1000299 
-500 1:0.72293901 2:6.6599002 3:2.09953 
-500 1:0.42004201 2:20.272301 3:2.0984499 
-336.3434901851861 1:0.59890199 2:3.5174601 3:2.0973201 
-500 1:0.66816199 2:3.1256399 3:2.0962 
-500 1:0.81540102 2:3.6614101 3:2.0950201 
-377.9744136460068 1:0.383304 2:5.4819999 3:2.0950201 
-500 1:0.84003001 2:0 3:2.09146 
-500 1:0.84003001 2:2.2813699 3:2.09146 
-500 1:0.84396797 2:1.68572 3:2.0912001 
-500 1:0.87630701 2:1.55204 3:2.09114 
-373.6919237639711 1:0.63296002 2:5.0050302 3:2.09114 
-500 1:0.41020501 2:8.0515804 3:2.0908899 
-500 1:0.84003001 2:2.2813699 3:2.0899999 
-128.1346391979349 1:0.40091699 2:14.8299 3:2.0896699 
-500 1:0.84003001 2:2.2813699 3:2.08904 
-500 1:0.69961798 2:8.9017401 3:2.08904 
-1.690013581712914 1:0.307051 2:15.3755 3:2.08863 
-500 1:0.559461 2:6.4057002 3:2.0876501 
-500 1:0.71682101 2:3.2226901 3:2.08746 
-66.17159593289978 1:0.310734 2:14.7533 3:2.0873499 
-500 1:0.81985497 2:1.68572 3:2.08687 
-500 1:0.81985497 2:1.68572 3:2.0868299 
-265.358011000271 1:0.73459899 2:3.3232901 3:2.0859799 
-500 1:0.65842003 2:5.1567202 3:2.0859799 
-500 1:0.67209798 2:3.3643501 3:2.0852001 
-309.0522792348477 1:0.18522599 2:7.5736499 3:2.0840099 
-40.60642506191969 1:0.32406101 2:8.69137 3:2.0839701 
-135.0785816135111 1:0.149013 2:40.960499 3:2.08342 
-500 1:0.52238202 2:8.3832903 3:2.0832901 
-500 1:0.539446 2:15.6684 3:2.0829201 
-0.1850045004843136 1:0.24619401 2:45.312 3:2.0829201 
-457.5604277500102 1:0.73327798 2:5.28088 3:2.0820999 
-500 1:0.58679903 2:3.0401599 3:2.08179 
-493.7690175509205 1:0.40172499 2:23.8283 3:2.08179 
-500 1:0.66790998 2:4.32691 3:2.0810201 
-500 1:0.57121301 2:2.6192601 3:2.08057 
-47.87991380027152 1:0.38243899 2:7.3642802 3:2.0804999 
-5.588292164027777 1:0.248569 2:27.612101 3:2.07902 
-213.9154103702959 1:0.61815602 2:9.64153 3:2.07867 
-500 1:0.67669398 2:2.1608 3:2.07774 
-500 1:0.63804901 2:2.5374401 3:2.0777199 
-500 1:0.47490299 2:16.3295 3:2.0777199 
-500 1:0.84003001 2:0 3:2.0770099 
-500 1:0.589544 2:1.51818 3:2.07673 
-500 1:0.65483898 2:3.0631599 3:2.0759001 
-500 1:0.72076201 2:8.9144802 3:2.07546 
-12.89293370495738 1:0.57296598 2:7.4791298 3:2.0751901 
-500 1:0.84003001 2:2.2813699 3:2.07493 
-121.7822783880889 1:0.58034801 2:9.3616104 3:2.07493 
-37.87861095976078 1:0.120427 2:41.347801 3:2.07493 
-500 1:0.42517301 2:8.5371599 3:2.07458 
-293.2829640490577 1:0.69961798 2:8.2198601 3:2.07302 
-500 1:0.66312301 2:8.6150904 3:2.0725901 
-96.15324038915736 1:0.44656199 2:20.9769 3:2.07197 
-500 1:0.67629701 2:4.53332 3:2.0717001 
-500 1:0.488785 2:8.9430799 3:2.07039 
-84.37834699779984 1:0.36205399 2:25.674299 3:2.07037 
-500 1:0.71340197 2:3.3641801 3:2.0697601 
-500 1:0.66955799 2:4.4806399 3:2.0694499 
-3.000166291122541 1:0.17364 2:58.259899 3:2.0676501 
-500 1:0.72293901 2:6.6599002 3:2.06617 
-500 1:0.51531899 2:9.7053604 3:2.0643101 
-500 1:0.68674898 2:3.1189201 3:2.06407 
-347.935792352405 1:0.44278499 2:1.62502 3:2.06407 
-500 1:0.84396797 2:1.68572 3:2.06057 
-500 1:0.81199801 2:2.11321 3:2.0599999 
-500 1:0.81199801 2:2.11321 3:2.0599201 
-176.0832739854603 1:0.156165 2:14.943 3:2.0588801 
-500 1:0.68873799 2:2.5090001 3:2.05882 
-500 1:0.479083 2:15.7802 3:2.0585499 
-440.2115831503389 1:0.725519 2:10.0004 3:2.0576401 
-500 1:0.82868201 2:1.14994 3:2.0573499 
-219.408240079659 1:0.76650703 2:17.7442 3:2.0568199 
-84.12139721232035 1:0.43672299 2:16.6262 3:2.0568199 
-52.37604530552426 1:0.34373799 2:6.4713001 3:2.05621 
-500 1:0.55739301 2:9.9854097 3:2.0560901 
-500 1:0.690014 2:3.0376699 3:2.0555501 
-36.31218797128798 1:0.449177 2:4.2325902 3:2.0555501 
-15.6077906332583 1:0.158719 2:34.9524 3:2.0555501 
-500 1:0.69928801 2:3.3376801 3:2.0553999 
-7.66080788689673 1:0.69572598 2:21.5028 3:2.0553999 
-48.86454414002259 1:0.191055 2:15.6862 3:2.0553999 
-107.5006383633094 1:0.47543401 2:18.926001 3:2.0545199 
-500 1:0.532184 2:4.4092302 3:2.0529301 
-500 1:0.84011 2:2.11215 3:2.0523901 
-500 1:0.84003001 2:2.2813699 3:2.0504999 
-450.2148520411103 1:0.390223 2:28.689699 3:2.0504999 
-500 1:0.35447201 2:8.4388704 3:2.0485301 
-500 1:0.77463102 2:2.25611 3:2.0478401 
-500 1:0.521954 2:4.3263202 3:2.0455 
-500 1:0.60291201 2:4.8257899 3:2.0448799 
-500 1:0.81199801 2:2.11321 3:2.04474 
-60.36882297528891 1:0.84003001 2:2.2813699 3:2.0436499 
-345.6495816700303 1:0.84003001 2:0 3:2.04285 
-500 1:0.58290702 2:6.2442698 3:2.04285 
-500 1:0.731776 2:3.1150301 3:2.0427599 
-134.7669214037508 1:0.439044 2:9.3550596 3:2.0427599 
-390.7055203136502 1:0.68373197 2:19.186399 3:2.0423999 
-500 1:0.4869 2:5.5657201 3:2.0420401 
-457.7289691749457 1:0.74751401 2:3.21576 3:2.0406101 
-383.3001181868081 1:0.485605 2:20.287001 3:2.0402601 
-500 1:0.33439299 2:16.527399 3:2.0402601 
-28.88100307243059 1:0.115192 2:35.506901 3:2.0402601 
-500 1:0.619932 2:6.00246 3:2.0397799 
-297.7893866105946 1:0.709975 2:7.8808498 3:2.0390401 
-340.1196341514891 1:0.44158101 2:11.3584 3:2.0382299 
-169.4625611660825 1:0.26922601 2:27.2024 3:2.03794 
-500 1:0.688963 2:3.2518001 3:2.0373099 
-5.936930348936131 1:0.36882401 2:26.067499 3:2.0372901 
-219.0166842252848 1:0.64598298 2:4.5915899 3:2.0371699 
-151.703731791662 1:0.240344 2:11.3253 3:2.0371699 
-195.1421310048376 1:0.319475 2:26.726101 3:2.03707 
-257.238163617935 1:0.40149301 2:11.0888 3:2.0367501 
-246.2284078699356 1:0.55262601 2:7.1482902 3:2.03667 
-500 1:0.87630701 2:1.55204 3:2.0366099 
-500 1:0.72416401 2:5.9616599 3:2.0366099 
-500 1:0.61964798 2:6.9884801 3:2.0366099 
-137.0390224903997 1:0.57336199 2:14.879 3:2.0365801 
-70.53052082087984 1:0.69836003 2:6.8245001 3:2.03655 
-500 1:0.48762599 2:6.3520598 3:2.03655 
-500 1:0.62423903 2:2.2145 3:2.0362999 
-20.76477475332462 1:0.18190099 2:37.687698 3:2.0362101 
-500 1:0.47195101 2:26.843399 3:2.03549 
-500 1:0.53599501 2:7.57376 3:2.03547 
-416.3391622454598 1:0.25630701 2:14.5867 3:2.03351 
-421.3484524002649 1:0.455331 2:9.7344599 3:2.03335 
-500 1:0.715819 2:2.37568 3:2.0332899 
-499.8840727416884 1:0.594675 2:5.4303598 3:2.0329399 
-500 1:0.59088999 2:18.033701 3:2.0329399 
-0.744665136194551 1:0.64244699 2:6.1696801 3:2.0327699 
-61.46780488035415 1:0.52807498 2:11.0017 3:2.0325799 
-500 1:0.58073503 2:4.5107198 3:2.0321 
-500 1:0.72814697 2:3.1282799 3:2.0315599 
-121.3383515080665 1:0.24862 2:39.437698 3:2.0307701 
-325.2366118705563 1:0.46867001 2:27.681999 3:2.0304999 
-157.2474259039828 1:0.56990099 2:7.6626801 3:2.0303099 
-20.40479163935136 1:0.231892 2:32.005402 3:2.0303099 
-431.5227096016442 1:0.57269198 2:9.4566803 3:2.0299101 
-500 1:0.89816397 2:1.68572 3:2.0295801 
-340.8021241299979 1:0.15644 2:28.706499 3:2.02947 
-2.685492711957187 1:0.141086 2:36.264801 3:2.02795 
-265.5156981121209 1:0.339066 2:16.6745 3:2.02794 
-160.733067896489 1:0.77039403 2:7.41921 3:2.0275199 
-500 1:0.627002 2:2.1478701 3:2.02739 
-500 1:0.69318902 2:7.2196898 3:2.0264299 
-500 1:0.84459198 2:2.2447901 3:2.02545 
-428.3080899222663 1:0.65177703 2:4.4018698 3:2.02493 
-500 1:0.67101502 2:2.6483099 3:2.0246201 
-500 1:0.50708097 2:11.0669 3:2.02159 
-4.3742900814745 1:0.26591799 2:14.8386 3:2.02159 
-500 1:0.616211 2:9.4557505 3:2.02072 
-367.0855636707309 1:0.42683801 2:7.4503198 3:2.02072 
-6.964659517895914 1:0.317442 2:29.753599 3:2.01983 
-500 1:0.77550298 2:1.97526 3:2.0195999 
-500 1:0.61936003 2:8.0095396 3:2.0188799 
-10.21924300629346 1:0.194749 2:29.524099 3:2.0132101 
-329.8086956842495 1:0.51339799 2:18.2988 3:2.01232 
-375.6488231164345 1:0.69505101 2:2.70017 3:2.0109501 
-215.3336906740532 1:0.36443201 2:15.5755 3:2.0109501 
-52.17621052415197 1:0.37762499 2:22.889099 3:2.01072 
-425.6616064771554 1:0.62974799 2:8.2826996 3:2.0095999 
-68.99822906411157 1:0.51184398 2:9.9258299 3:2.0095999 
-472.4273099209341 1:0.61073297 2:6.5011101 3:2.0090101 
-83.27539837943235 1:0.48632199 2:6.0377498 3:2.0090101 
-500 1:0.65443498 2:2.8415401 3:2.0081201 
-500 1:0.63468099 2:3.0090899 3:2.00424 
-1.522911019651595 1:0.47456601 2:4.6616998 3:2.00424 
-500 1:0.81985497 2:1.68572 3:2.00336 
-500 1:0.745242 2:1.8271199 3:1.9996001 
