<?xml version="1.0"?>
<opencv_storage>
<cascade>
  <stageType>BOOST</stageType>
  <featureType>HAAR</featureType>
  <height>50</height>
  <width>50</width>
  <stageParams>
    <boostType>GAB</boostType>
    <minHitRate>9.9500000476837158e-01</minHitRate>
    <maxFalseAlarm>5.0000000000000000e-01</maxFalseAlarm>
    <weightTrimRate>9.4999999999999996e-01</weightTrimRate>
    <maxDepth>1</maxDepth>
    <maxWeakCount>100</maxWeakCount></stageParams>
  <featureParams>
    <maxCatCount>0</maxCatCount>
    <featSize>1</featSize>
    <mode>BASIC</mode></featureParams>
  <stageNum>7</stageNum>
  <stages>
    <!-- stage 0 -->
    <_>
      <maxWeakCount>3</maxWeakCount>
      <stageThreshold>-1.0612702369689941e+00</stageThreshold>
      <weakClassifiers>
        <_>
          <internalNodes>
            0 -1 12 -1.3046264648437500e-02</internalNodes>
          <leafValues>
            -9.0143734216690063e-01 6.5258216857910156e-01</leafValues></_>
        <_>
          <internalNodes>
            0 -1 23 -7.4406519532203674e-02</internalNodes>
          <leafValues>
            -8.3635222911834717e-01 5.8428364992141724e-01</leafValues></_>
        <_>
          <internalNodes>
            0 -1 34 -3.9744400419294834e-03</internalNodes>
          <leafValues>
            -5.9861719608306885e-01 6.7651945352554321e-01</leafValues></_></weakClassifiers></_>
    <!-- stage 1 -->
    <_>
      <maxWeakCount>7</maxWeakCount>
      <stageThreshold>-1.2738788127899170e+00</stageThreshold>
      <weakClassifiers>
        <_>
          <internalNodes>
            0 -1 4 3.6313859745860100e-03</internalNodes>
          <leafValues>
            -6.5602838993072510e-01 5.1470589637756348e-01</leafValues></_>
        <_>
          <internalNodes>
            0 -1 28 -4.1286479681730270e-03</internalNodes>
          <leafValues>
            6.0114639997482300e-01 -4.0928906202316284e-01</leafValues></_>
        <_>
          <internalNodes>
            0 -1 9 -6.9000036455690861e-03</internalNodes>
          <leafValues>
            -5.5548965930938721e-01 3.5886609554290771e-01</leafValues></_>
        <_>
          <internalNodes>
            0 -1 32 1.0237160138785839e-02</internalNodes>
          <leafValues>
            -3.8558077812194824e-01 5.9749758243560791e-01</leafValues></_>
        <_>
          <internalNodes>
            0 -1 29 -3.6123849451541901e-02</internalNodes>
          <leafValues>
            3.2580882310867310e-01 -5.9936636686325073e-01</leafValues></_>
        <_>
          <internalNodes>
            0 -1 10 4.2023792047984898e-04</internalNodes>
          <leafValues>
            3.1965050101280212e-01 -6.2496614456176758e-01</leafValues></_>
        <_>
          <internalNodes>
            0 -1 1 -3.8398085162043571e-03</internalNodes>
          <leafValues>
            -8.9602869749069214e-01 2.2057943046092987e-01</leafValues></_></weakClassifiers></_>
    <!-- stage 2 -->
    <_>
      <maxWeakCount>6</maxWeakCount>
      <stageThreshold>-1.6314331293106079e+00</stageThreshold>
      <weakClassifiers>
        <_>
          <internalNodes>
            0 -1 14 -3.7539617624133825e-03</internalNodes>
          <leafValues>
            3.4177213907241821e-01 -6.5313655138015747e-01</leafValues></_>
        <_>
          <internalNodes>
            0 -1 6 9.3876282335259020e-05</internalNodes>
          <leafValues>
            -6.7042779922485352e-01 3.1909099221229553e-01</leafValues></_>
        <_>
          <internalNodes>
            0 -1 17 3.1846826896071434e-03</internalNodes>
          <leafValues>
            -8.6194723844528198e-01 1.9266772270202637e-01</leafValues></_>
        <_>
          <internalNodes>
            0 -1 18 -1.8300605006515980e-03</internalNodes>
          <leafValues>
            -6.3473469018936157e-01 3.0288434028625488e-01</leafValues></_>
        <_>
          <internalNodes>
            0 -1 20 -9.7652241587638855e-02</internalNodes>
          <leafValues>
            7.8417938947677612e-01 -2.7954930067062378e-01</leafValues></_>
        <_>
          <internalNodes>
            0 -1 2 1.5934477560222149e-03</internalNodes>
          <leafValues>
            2.9737389087677002e-01 -6.4998126029968262e-01</leafValues></_></weakClassifiers></_>
    <!-- stage 3 -->
    <_>
      <maxWeakCount>9</maxWeakCount>
      <stageThreshold>-9.1835975646972656e-01</stageThreshold>
      <weakClassifiers>
        <_>
          <internalNodes>
            0 -1 27 1.8597184680402279e-03</internalNodes>
          <leafValues>
            -6.2390160560607910e-01 4.1984733939170837e-01</leafValues></_>
        <_>
          <internalNodes>
            0 -1 7 3.3007949241437018e-05</internalNodes>
          <leafValues>
            -6.0748356580734253e-01 3.1291997432708740e-01</leafValues></_>
        <_>
          <internalNodes>
            0 -1 15 5.2934633567929268e-03</internalNodes>
          <leafValues>
            -3.1017792224884033e-01 5.5388784408569336e-01</leafValues></_>
        <_>
          <internalNodes>
            0 -1 25 -2.1046405890956521e-04</internalNodes>
          <leafValues>
            6.4174532890319824e-01 -2.8952628374099731e-01</leafValues></_>
        <_>
          <internalNodes>
            0 -1 0 -1.0843191295862198e-01</internalNodes>
          <leafValues>
            3.3460637927055359e-01 -6.0744029283523560e-01</leafValues></_>
        <_>
          <internalNodes>
            0 -1 16 -1.6641580732539296e-03</internalNodes>
          <leafValues>
            -4.5798739790916443e-01 5.4214316606521606e-01</leafValues></_>
        <_>
          <internalNodes>
            0 -1 26 -3.3751377486623824e-04</internalNodes>
          <leafValues>
            5.5222684144973755e-01 -3.3906406164169312e-01</leafValues></_>
        <_>
          <internalNodes>
            0 -1 11 3.3639171306276694e-05</internalNodes>
          <leafValues>
            3.0084398388862610e-01 -5.8026492595672607e-01</leafValues></_>
        <_>
          <internalNodes>
            0 -1 24 -4.3876012205146253e-04</internalNodes>
          <leafValues>
            2.1026495099067688e-01 -8.4295386075973511e-01</leafValues></_></weakClassifiers></_>
    <!-- stage 4 -->
    <_>
      <maxWeakCount>6</maxWeakCount>
      <stageThreshold>-9.0674537420272827e-01</stageThreshold>
      <weakClassifiers>
        <_>
          <internalNodes>
            0 -1 8 -5.7908393442630768e-02</internalNodes>
          <leafValues>
            -7.2137403488159180e-01 4.4318181276321411e-01</leafValues></_>
        <_>
          <internalNodes>
            0 -1 13 3.6804671399295330e-03</internalNodes>
          <leafValues>
            -5.0160801410675049e-01 7.7172315120697021e-01</leafValues></_>
        <_>
          <internalNodes>
            0 -1 19 -3.3969077048823237e-04</internalNodes>
          <leafValues>
            7.2777307033538818e-01 -3.2725295424461365e-01</leafValues></_>
        <_>
          <internalNodes>
            0 -1 30 2.3996262461878359e-04</internalNodes>
          <leafValues>
            -3.2446056604385376e-01 7.9119032621383667e-01</leafValues></_>
        <_>
          <internalNodes>
            0 -1 3 -1.1154264211654663e-03</internalNodes>
          <leafValues>
            -8.8053077459335327e-01 3.5954669117927551e-01</leafValues></_>
        <_>
          <internalNodes>
            0 -1 31 -4.1879710624925792e-04</internalNodes>
          <leafValues>
            -4.4662255048751831e-01 7.4529635906219482e-01</leafValues></_></weakClassifiers></_>
    <!-- stage 5 -->
    <_>
      <maxWeakCount>3</maxWeakCount>
      <stageThreshold>-7.1260863542556763e-01</stageThreshold>
      <weakClassifiers>
        <_>
          <internalNodes>
            0 -1 33 1.1344776794430800e-05</internalNodes>
          <leafValues>
            -8.1488204002380371e-01 1.</leafValues></_>
        <_>
          <internalNodes>
            0 -1 21 5.3526251576840878e-05</internalNodes>
          <leafValues>
            -6.1445915699005127e-01 1.</leafValues></_>
        <_>
          <internalNodes>
            0 -1 22 -9.4387643039226532e-03</internalNodes>
          <leafValues>
            7.1673256158828735e-01 -8.2341969013214111e-01</leafValues></_></weakClassifiers></_>
    <!-- stage 6 -->
    <_>
      <maxWeakCount>1</maxWeakCount>
      <stageThreshold>1.</stageThreshold>
      <weakClassifiers>
        <_>
          <internalNodes>
            0 -1 5 7.7773369848728180e-03</internalNodes>
          <leafValues>
            1. -1.</leafValues></_></weakClassifiers></_></stages>
  <features>
    <_>
      <rects>
        <_>
          0 0 9 48 -1.</_>
        <_>
          0 16 9 16 2.</_></rects>
      <tilted>0</tilted></_>
    <_>
      <rects>
        <_>
          0 4 8 22 -1.</_>
        <_>
          4 4 4 22 2.</_></rects>
      <tilted>0</tilted></_>
    <_>
      <rects>
        <_>
          0 5 6 24 -1.</_>
        <_>
          3 5 3 24 2.</_></rects>
      <tilted>0</tilted></_>
    <_>
      <rects>
        <_>
          0 9 4 26 -1.</_>
        <_>
          2 9 2 26 2.</_></rects>
      <tilted>0</tilted></_>
    <_>
      <rects>
        <_>
          0 30 1 20 -1.</_>
        <_>
          0 40 1 10 2.</_></rects>
      <tilted>0</tilted></_>
    <_>
      <rects>
        <_>
          0 30 36 2 -1.</_>
        <_>
          0 30 18 1 2.</_>
        <_>
          18 31 18 1 2.</_></rects>
      <tilted>0</tilted></_>
    <_>
      <rects>
        <_>
          0 37 1 10 -1.</_>
        <_>
          0 42 1 5 2.</_></rects>
      <tilted>0</tilted></_>
    <_>
      <rects>
        <_>
          0 41 1 6 -1.</_>
        <_>
          0 44 1 3 2.</_></rects>
      <tilted>0</tilted></_>
    <_>
      <rects>
        <_>
          1 13 33 12 -1.</_>
        <_>
          1 17 33 4 2.</_></rects>
      <tilted>0</tilted></_>
    <_>
      <rects>
        <_>
          1 21 9 6 -1.</_>
        <_>
          4 21 3 6 2.</_></rects>
      <tilted>0</tilted></_>
    <_>
      <rects>
        <_>
          2 4 8 14 -1.</_>
        <_>
          6 4 4 14 2.</_></rects>
      <tilted>0</tilted></_>
    <_>
      <rects>
        <_>
          2 28 2 2 -1.</_>
        <_>
          2 29 2 1 2.</_></rects>
      <tilted>0</tilted></_>
    <_>
      <rects>
        <_>
          3 13 9 9 -1.</_>
        <_>
          6 13 3 9 2.</_></rects>
      <tilted>0</tilted></_>
    <_>
      <rects>
        <_>
          3 38 4 10 -1.</_>
        <_>
          3 43 4 5 2.</_></rects>
      <tilted>0</tilted></_>
    <_>
      <rects>
        <_>
          3 38 8 12 -1.</_>
        <_>
          3 38 4 6 2.</_>
        <_>
          7 44 4 6 2.</_></rects>
      <tilted>0</tilted></_>
    <_>
      <rects>
        <_>
          4 0 45 8 -1.</_>
        <_>
          4 4 45 4 2.</_></rects>
      <tilted>0</tilted></_>
    <_>
      <rects>
        <_>
          4 7 3 4 -1.</_>
        <_>
          5 7 1 4 2.</_></rects>
      <tilted>0</tilted></_>
    <_>
      <rects>
        <_>
          4 11 32 36 -1.</_>
        <_>
          4 29 32 18 2.</_></rects>
      <tilted>0</tilted></_>
    <_>
      <rects>
        <_>
          4 19 1 12 -1.</_>
        <_>
          4 23 1 4 2.</_></rects>
      <tilted>0</tilted></_>
    <_>
      <rects>
        <_>
          4 47 46 2 -1.</_>
        <_>
          4 47 23 1 2.</_>
        <_>
          27 48 23 1 2.</_></rects>
      <tilted>0</tilted></_>
    <_>
      <rects>
        <_>
          6 21 34 17 -1.</_>
        <_>
          23 21 17 17 2.</_></rects>
      <tilted>0</tilted></_>
    <_>
      <rects>
        <_>
          6 48 34 2 -1.</_>
        <_>
          6 48 17 1 2.</_>
        <_>
          23 49 17 1 2.</_></rects>
      <tilted>0</tilted></_>
    <_>
      <rects>
        <_>
          8 1 1 48 -1.</_>
        <_>
          8 17 1 16 2.</_></rects>
      <tilted>0</tilted></_>
    <_>
      <rects>
        <_>
          10 12 38 9 -1.</_>
        <_>
          10 15 38 3 2.</_></rects>
      <tilted>0</tilted></_>
    <_>
      <rects>
        <_>
          10 30 3 2 -1.</_>
        <_>
          11 30 1 2 2.</_></rects>
      <tilted>0</tilted></_>
    <_>
      <rects>
        <_>
          10 45 4 2 -1.</_>
        <_>
          12 45 2 2 2.</_></rects>
      <tilted>0</tilted></_>
    <_>
      <rects>
        <_>
          11 0 22 1 -1.</_>
        <_>
          22 0 11 1 2.</_></rects>
      <tilted>0</tilted></_>
    <_>
      <rects>
        <_>
          15 41 6 4 -1.</_>
        <_>
          18 41 3 4 2.</_></rects>
      <tilted>0</tilted></_>
    <_>
      <rects>
        <_>
          19 40 10 5 -1.</_>
        <_>
          24 40 5 5 2.</_></rects>
      <tilted>0</tilted></_>
    <_>
      <rects>
        <_>
          22 35 11 15 -1.</_>
        <_>
          22 40 11 5 2.</_></rects>
      <tilted>0</tilted></_>
    <_>
      <rects>
        <_>
          24 22 2 14 -1.</_>
        <_>
          24 22 1 7 2.</_>
        <_>
          25 29 1 7 2.</_></rects>
      <tilted>0</tilted></_>
    <_>
      <rects>
        <_>
          26 23 1 3 -1.</_>
        <_>
          26 24 1 1 2.</_></rects>
      <tilted>0</tilted></_>
    <_>
      <rects>
        <_>
          29 34 16 10 -1.</_>
        <_>
          29 39 16 5 2.</_></rects>
      <tilted>0</tilted></_>
    <_>
      <rects>
        <_>
          32 33 1 6 -1.</_>
        <_>
          32 36 1 3 2.</_></rects>
      <tilted>0</tilted></_>
    <_>
      <rects>
        <_>
          44 22 3 11 -1.</_>
        <_>
          45 22 1 11 2.</_></rects>
      <tilted>0</tilted></_></features></cascade>
</opencv_storage>
