<?xml version="1.0"?>
<opencv_storage>
<stage1>
  <maxWeakCount>7</maxWeakCount>
  <stageThreshold>-1.2738788127899170e+00</stageThreshold>
  <weakClassifiers>
    <_>
      <internalNodes>
        0 -1 100333 3.6313859745860100e-03</internalNodes>
      <leafValues>
        -6.5602838993072510e-01 5.1470589637756348e-01</leafValues></_>
    <_>
      <internalNodes>
        0 -1 1929216 -4.1286479681730270e-03</internalNodes>
      <leafValues>
        6.0114639997482300e-01 -4.0928906202316284e-01</leafValues></_>
    <_>
      <internalNodes>
        0 -1 197039 -6.9000036455690861e-03</internalNodes>
      <leafValues>
        -5.5548965930938721e-01 3.5886609554290771e-01</leafValues></_>
    <_>
      <internalNodes>
        0 -1 2532939 1.0237160138785839e-02</internalNodes>
      <leafValues>
        -3.8558077812194824e-01 5.9749758243560791e-01</leafValues></_>
    <_>
      <internalNodes>
        0 -1 2133727 -3.6123849451541901e-02</internalNodes>
      <leafValues>
        3.2580882310867310e-01 -5.9936636686325073e-01</leafValues></_>
    <_>
      <internalNodes>
        0 -1 254387 4.2023792047984898e-04</internalNodes>
      <leafValues>
        3.1965050101280212e-01 -6.2496614456176758e-01</leafValues></_>
    <_>
      <internalNodes>
        0 -1 18862 -3.8398085162043571e-03</internalNodes>
      <leafValues>
        -8.9602869749069214e-01 2.2057943046092987e-01</leafValues></_></weakClassifiers></stage1>
</opencv_storage>
